0.941612,0.158777,0.967437,0.119998,0.472315,0.726430,0.239067,;0.044244,0.682994,0.241800,0.586743,0.991354,0.166407,0.621877,;0.561846,0.001808,0.257357,0.741877,0.907142,0.150541,0.268683,;0.796413,0.311950,0.754737,0.462620,0.885155,0.426709,0.869200,;0.975021,0.966141,0.987160,0.140861,0.567703,0.360781,0.389131,;0.917568,0.097620,0.618445,0.607664,0.130745,0.616346,0.272865,;0.156870,0.447320,0.063168,0.913670,0.251426,0.189192,0.296499,;0.233256,0.636781,0.234172,0.754680,0.587262,0.092256,0.330743,;0.076345,0.065057,0.738442,0.079979,0.857175,0.855413,0.317110,;0.839864,0.689120,0.649911,0.905024,0.417832,0.811069,0.858345,;0.235065,0.894138,0.976050,0.661822,0.737803,0.360939,0.127156,;0.388295,0.819795,0.201062,0.965134,0.283884,0.724613,0.292131,;,0.976050,0.661822,0.737803,0.360939,0.127156,0.388295,0.819795,0.201062,0.965134,0.283884,0.724613,0.292131,,0.387493,0.501652,0.059701,0.443211,0.537100,0.174357,0.803056,0.871626,0.758910,0.606528,0.502827,0.773262,;0.040062,0.322537,0.106430,0.278312,0.540304,0.800136,0.859393,0.134547,0.743573,0.586717,0.494865,0.293323,;0.130982,0.537208,0.854802,0.153172,0.787300,0.342622,0.412840,0.700278,0.630133,0.930776,0.283147,0.745360,;0.554118,0.576348,0.194374,0.767255,0.355721,0.095811,0.361088,0.865787,0.223603,0.465805,0.004183,0.360457,;0.135370,0.308430,0.451050,0.366271,0.762484,0.427299,0.258235,0.670640,0.247012,0.613819,0.019559,0.731475,;0.941612,0.158777,0.967437,0.119998,0.472315,0.726430,0.239067,0.044244,0.682994,0.241800,0.586743,0.991354,;0.166407,0.621877,0.561846,0.001808,0.257357,0.741877,0.907142,0.150541,0.268683,0.796413,0.311950,0.754737,;0.462620,0.885155,0.426709,0.869200,0.975021,0.966141,0.987160,0.140861,0.567703,0.360781,0.389131,0.917568,;0.097620,0.618445,0.607664,0.130745,0.616346,0.272865,0.156870,0.447320,0.063168,0.913670,0.251426,0.189192,;0.296499,0.233256,0.636781,0.234172,0.754680,0.587262,0.092256,0.330743,0.076345,0.065057,0.738442,0.079979,;0.857175,0.855413,0.317110,0.839864,0.689120,0.649911,0.905024,0.417832,0.811069,0.858345,0.235065,0.894138,;0.976050,0.661822,0.737803,0.360939,0.127156,0.388295,0.819795,0.201062,0.965134,0.283884,0.724613,0.292131,;,0.976050,0.661822,0.737803,0.360939,0.127156,0.388295,0.819795,0.201062,0.965134,0.283884,0.724613,0.292131,,0.370922,0.930280,0.334823,0.466975,0.505655,0.982198,0.521130,0.108428,0.953430,0.062205,0.797166,0.327459,;0.387493,0.501652,0.059701,0.443211,0.537100,0.174357,0.803056,0.871626,0.758910,0.606528,0.502827,0.773262,;0.040062,0.322537,0.106430,0.278312,0.540304,0.800136,0.859393,0.134547,0.743573,0.586717,0.494865,0.293323,;0.130982,0.537208,0.854802,0.153172,0.787300,0.342622,0.412840,0.700278,0.630133,0.930776,0.283147,0.745360,;0.554118,0.576348,0.194374,0.767255,0.355721,0.095811,0.361088,0.865787,0.223603,0.465805,0.004183,0.360457,;0.135370,0.308430,0.451050,0.366271,0.762484,0.427299,0.258235,0.670640,0.247012,0.613819,0.019559,0.731475,;0.941612,0.158777,0.967437,0.119998,0.472315,0.726430,0.239067,0.044244,0.682994,0.241800,0.586743,0.991354,;0.166407,0.621877,0.561846,0.001808,0.257357,0.741877,0.907142,0.150541,0.268683,0.796413,0.311950,0.754737,;0.462620,0.885155,0.426709,0.869200,0.975021,0.966141,0.987160,0.140861,0.567703,0.360781,0.389131,0.917568,;0.097620,0.618445,0.607664,0.130745,0.616346,0.272865,0.156870,0.447320,0.063168,0.913670,0.251426,0.189192,;0.296499,0.233256,0.636781,0.234172,0.754680,0.587262,0.092256,0.330743,0.076345,0.065057,0.738442,0.079979,;0.857175,0.855413,0.317110,0.839864,0.689120,0.649911,0.905024,0.417832,0.811069,0.858345,0.235065,0.894138,;0.976050,0.661822,0.737803,0.360939,0.127156,0.388295,0.819795,0.201062,0.965134,0.283884,0.724613,0.292131,;,0.894138,0.976050,0.661822,0.737803,0.360939,0.127156,0.388295,0.819795,0.201062,0.965134,0.283884,0.724613,0.292131,
0.911221,0.101380,0.921187,0.047551,0.331645,0.662898,0.181420,;-0.252216,0.593256,0.207540,0.463006,0.861093,0.106646,0.577279,;0.215086,-0.079840,0.235140,0.628500,0.821845,0.094466,0.241567,;0.760119,0.270460,0.712785,0.394752,0.747301,0.372864,0.808931,;0.565427,0.864105,0.955306,0.001821,0.452273,0.299283,0.346653,;0.569173,0.013235,0.589145,0.484554,0.015324,0.557333,0.234834,;-0.182738,0.340294,0.026920,0.772169,0.110404,0.126702,0.251382,;-0.003774,0.554629,0.211411,0.659400,0.505718,0.049575,0.301784,;-0.176908,-0.028811,0.702468,-0.033097,0.738315,0.789711,0.274943,;0.424688,0.568097,0.618564,0.759940,0.301313,0.747660,0.823109,;0.095815,0.833734,0.949543,0.582783,0.644710,0.314727,0.100842,;-0.019564,0.707884,0.168330,0.823864,0.165205,0.657823,0.247805,;,0.892381,-0.326742,-0.410139,0.243717,-1.238742,-0.771442,-0.315919,-0.594158,0.127131,-1.096408,0.254496,-1.057465,,-0.122476,0.186679,-0.271295,0.066258,0.304037,-0.099641,0.477234,0.606595,0.393564,0.342672,0.090854,0.531823,;-0.772171,-0.159999,-0.415871,-0.308417,0.183442,0.368567,0.355013,-0.272317,0.163831,0.183896,-0.127453,-0.073464,;-0.479459,0.182924,0.466210,-0.278247,0.518483,0.012275,0.032323,0.399260,0.198895,0.626026,-0.173313,0.468074,;0.031891,0.260882,-0.144630,0.383351,0.123980,-0.182925,0.035562,0.602071,-0.154178,0.201841,-0.399373,0.122171,;-0.670511,-0.150091,-0.054817,-0.207386,0.421461,0.003065,-0.226836,0.284696,-0.322255,0.225008,-0.567354,0.381516,;0.177462,-0.283563,0.485680,-0.422372,0.138530,0.319859,-0.230322,-0.330672,0.144956,-0.134261,0.014644,0.649650,;-0.663454,0.133422,0.027402,-0.591456,-0.105190,0.299403,0.391784,-0.262875,-0.322103,0.387848,-0.317387,0.381661,;0.227391,0.706356,0.228155,0.674018,0.839529,0.809221,0.813222,0.003201,0.356319,0.200155,0.192697,0.780861,;-0.753228,0.125091,0.072042,-0.479434,0.252637,-0.170956,-0.360849,0.029683,-0.534072,0.503454,-0.390609,-0.184672,;-0.418769,-0.191904,0.167627,-0.273019,0.436434,0.195772,-0.361635,-0.028683,-0.441267,-0.295534,0.198844,-0.249489,;0.631481,0.680214,0.135747,0.645382,0.552466,0.504981,0.741305,0.282779,0.618048,0.700982,0.027885,0.759540,;0.172345,0.193267,0.221227,-0.205662,-0.224516,-0.046213,0.317210,-0.197457,0.392484,-0.114494,0.124359,-0.071583,;,0.575017,0.006923,0.246290,-0.055477,-0.517227,-0.226946,0.146617,0.037769,0.280234,-0.302155,0.588691,-0.368493,,-0.086840,0.731946,-0.007446,0.204181,0.366315,0.690398,0.307599,-0.466594,0.790533,-0.073499,0.067661,0.009648,;-0.106573,0.292982,-0.306447,0.156657,0.390736,-0.141688,0.578574,0.216210,0.588482,0.462269,-0.339702,0.427638,;-0.299026,0.120925,-0.186147,0.062289,0.394778,0.532052,0.640070,-0.235537,0.574455,0.449407,0.049063,0.003090,;-0.312732,0.312408,0.499031,-0.115515,0.628776,0.026953,0.169041,0.184186,0.443557,0.778103,-0.363589,0.402532,;0.166802,0.372992,-0.121789,0.532135,0.211209,-0.182641,0.140177,0.420628,0.053970,0.328699,-0.539277,0.055783,;-0.167641,0.145140,0.204461,0.177529,0.649387,0.198799,0.081423,0.345088,0.112287,0.502941,-0.398268,0.489488,;0.463538,-0.069251,0.596631,-0.161419,0.313047,0.401739,-0.008018,-0.515317,0.495013,0.086474,-0.120826,0.641532,;-0.186625,0.422681,0.265795,-0.218208,0.116729,0.471128,0.690017,-0.225677,0.101930,0.659970,-0.153462,0.464045,;0.041051,0.679934,0.094357,0.618203,0.832855,0.674923,0.764397,-0.340017,0.397956,0.223196,-0.215921,0.601247,;-0.243334,0.427812,0.320433,-0.079111,0.479325,0.018714,-0.050670,0.060711,-0.096249,0.784929,-0.210305,-0.089237,;0.007028,0.137109,0.444937,0.071752,0.687482,0.421787,-0.009061,-0.120909,0.001020,-0.005143,0.142136,-0.100282,;0.384641,0.652495,-0.035794,0.571622,0.549575,0.352327,0.685429,-0.162385,0.645408,0.721162,-0.500240,0.568823,;0.479357,0.456584,0.373713,0.081220,-0.012435,0.079594,0.597105,-0.418744,0.797580,0.143594,-0.071322,-0.042001,;,0.762290,0.817381,0.585373,0.616734,0.269039,0.033093,0.250742,0.725582,0.085218,0.892173,0.164788,0.585238,0.132824,
0.923338,0.044097,0.875767,-0.002740,0.226724,0.635833,0.121849,;-0.252731,0.589919,0.198300,0.452068,0.835444,0.100731,0.562995,;0.208632,-0.064742,0.239308,0.639238,0.843004,0.095623,0.245545,;0.766446,0.235673,0.676339,0.351824,0.650707,0.350666,0.754225,;0.559812,0.882254,0.958768,0.009892,0.462641,0.299481,0.345285,;0.564713,0.026337,0.587424,0.486071,0.007642,0.556049,0.229807,;-0.180748,0.330780,0.016677,0.757922,0.081246,0.121026,0.237987,;-0.002145,0.542922,0.207895,0.653852,0.501598,0.046321,0.294790,;-0.175464,-0.053779,0.687077,-0.050057,0.710484,0.779251,0.255574,;0.419069,0.569615,0.622182,0.766246,0.314339,0.749369,0.828706,;0.100367,0.814003,0.936131,0.562511,0.612358,0.307590,0.086152,;-0.027250,0.714024,0.167538,0.829776,0.172722,0.655517,0.243110,;,0.956109,-0.323174,-0.419764,0.273673,-1.253217,-0.779573,-0.307080,-0.590533,0.142911,-1.107061,0.268412,-1.068457,,-0.114303,0.185734,-0.265893,0.074800,0.302080,-0.098108,0.472760,0.603393,0.401595,0.342131,0.083661,0.527010,;-0.780476,-0.150999,-0.411257,-0.295397,0.189469,0.368522,0.352301,-0.268531,0.167969,0.194462,-0.117344,-0.069958,;-0.489351,0.198988,0.477289,-0.263117,0.524978,0.010133,0.032177,0.407354,0.207763,0.634871,-0.156274,0.472247,;0.032783,0.264287,-0.142052,0.389934,0.127283,-0.181621,0.035198,0.604258,-0.152287,0.206447,-0.393060,0.124143,;-0.698081,-0.134604,-0.050770,-0.201367,0.430700,-0.002371,-0.227400,0.294204,-0.325526,0.236338,-0.544362,0.389752,;0.158037,-0.268697,0.495701,-0.409803,0.143794,0.316770,-0.232021,-0.323639,0.150603,-0.123910,0.029232,0.653941,;-0.676636,0.146919,0.032078,-0.575463,-0.096559,0.298268,0.389489,-0.256770,-0.317634,0.401824,-0.302386,0.387359,;0.217640,0.695275,0.213222,0.651279,0.837351,0.805076,0.812748,-0.000885,0.338512,0.192131,0.186722,0.780563,;-0.765426,0.137607,0.078102,-0.464502,0.259936,-0.171794,-0.362806,0.035447,-0.528997,0.515895,-0.376640,-0.179760,;-0.429213,-0.177063,0.173321,-0.255228,0.447116,0.194666,-0.364140,-0.021276,-0.436518,-0.281389,0.218063,-0.243233,;0.624224,0.661490,0.124536,0.617486,0.539031,0.500980,0.738839,0.271515,0.605793,0.684173,0.000807,0.750848,;0.164589,0.216347,0.234449,-0.178761,-0.211359,-0.046171,0.318066,-0.184848,0.404065,-0.096693,0.152981,-0.062681,;,0.574905,-0.014469,0.228309,-0.062385,-0.549847,-0.254048,0.119708,0.041775,0.255371,-0.329294,0.604477,-0.395558,,-0.089647,0.731118,-0.008532,0.202278,0.365875,0.688817,0.307049,-0.467703,0.789951,-0.074519,0.064208,0.008696,;-0.103256,0.291590,-0.305987,0.152499,0.389962,-0.147677,0.577718,0.218504,0.587231,0.460832,-0.347658,0.420279,;-0.298378,0.118161,-0.186448,0.060012,0.393378,0.527530,0.637216,-0.225183,0.572483,0.446981,0.055874,0.000444,;-0.312818,0.308752,0.497218,-0.119386,0.626945,0.020530,0.165201,0.193913,0.440916,0.775093,-0.360009,0.397185,;0.164940,0.372210,-0.123267,0.531317,0.210836,-0.182999,0.139277,0.421444,0.053435,0.328084,-0.537717,0.055263,;-0.171402,0.136558,0.201636,0.168263,0.645111,0.184067,0.072711,0.361016,0.106402,0.495900,-0.396911,0.479765,;0.461238,-0.074516,0.594609,-0.164491,0.310451,0.395199,-0.013729,-0.497881,0.491376,0.082307,-0.106870,0.639058,;-0.186761,0.416206,0.264041,-0.222215,0.113541,0.460921,0.683098,-0.202238,0.097346,0.654215,-0.135506,0.458146,;0.040806,0.676174,0.092856,0.615589,0.831006,0.669636,0.760315,-0.326443,0.395314,0.220124,-0.205482,0.597952,;-0.241988,0.427774,0.320102,-0.076829,0.479387,0.021453,-0.051061,0.068633,-0.096226,0.785146,-0.196162,-0.086903,;-0.000661,0.134691,0.442725,0.060863,0.686139,0.411514,-0.010384,-0.144417,-0.000668,-0.007260,0.096374,-0.110763,;0.385484,0.649893,-0.037414,0.572994,0.548419,0.352191,0.682269,-0.143566,0.643647,0.719374,-0.475525,0.569454,;0.479215,0.452287,0.371927,0.079893,-0.014532,0.074146,0.592099,-0.399396,0.794549,0.139785,-0.051675,-0.044260,;,0.759416,0.809817,0.579278,0.608047,0.267892,0.013116,0.241809,0.712304,0.077944,0.895188,0.150802,0.584316,0.125666,
0.935542,0.000139,0.832021,-0.041253,0.140103,0.610604,0.068249,;-0.253284,0.591045,0.190590,0.445317,0.817387,0.095990,0.551505,;0.203157,-0.050213,0.243560,0.649659,0.864190,0.096813,0.249581,;0.773042,0.213606,0.643396,0.320908,0.574638,0.331319,0.707068,;0.555269,0.900318,0.962502,0.017820,0.473137,0.299773,0.343879,;0.561058,0.039742,0.585790,0.488317,0.001165,0.554840,0.225069,;-0.179200,0.324921,0.007077,0.746903,0.057187,0.115916,0.226182,;-0.000582,0.533381,0.204895,0.649663,0.499863,0.043461,0.288548,;-0.174022,-0.073152,0.672998,-0.062070,0.691357,0.770116,0.239301,;0.414317,0.571310,0.626282,0.772530,0.327685,0.751540,0.834545,;0.103781,0.800858,0.924818,0.547860,0.589651,0.301995,0.075160,;-0.033497,0.721773,0.167001,0.836648,0.181793,0.653439,0.238697,;,1.026454,-0.318743,-0.427092,0.308375,-1.265133,-0.785341,-0.297755,-0.586286,0.160977,-1.115410,0.280109,-1.074631,,-0.112023,0.181746,-0.263534,0.077998,0.298591,-0.098612,0.465858,0.597954,0.406432,0.339819,0.072224,0.520687,;-0.795262,-0.147799,-0.410028,-0.291096,0.193120,0.367226,0.346400,-0.268647,0.167967,0.201818,-0.115186,-0.069065,;-0.499756,0.213830,0.488900,-0.250790,0.531566,0.008973,0.032251,0.415215,0.216643,0.643373,-0.140409,0.476441,;0.029417,0.263842,-0.142112,0.391110,0.128827,-0.181562,0.032436,0.603672,-0.153357,0.208707,-0.392192,0.124171,;-0.725961,-0.121809,-0.046520,-0.199447,0.439578,-0.006391,-0.228201,0.302448,-0.329317,0.246369,-0.524575,0.397285,;0.137582,-0.256599,0.505491,-0.401814,0.148574,0.314584,-0.234214,-0.317855,0.155552,-0.114745,0.040614,0.657535,;-0.699493,0.153858,0.032921,-0.570257,-0.090615,0.295459,0.383259,-0.255178,-0.318451,0.412260,-0.296727,0.390111,;0.211201,0.688083,0.200737,0.634459,0.836722,0.801799,0.814141,-0.002632,0.323084,0.186066,0.185631,0.781817,;-0.784060,0.144649,0.081262,-0.458242,0.265184,-0.173527,-0.367622,0.037645,-0.527754,0.525432,-0.370093,-0.177167,;-0.451879,-0.170146,0.174032,-0.250284,0.454428,0.191111,-0.371752,-0.019492,-0.438576,-0.271666,0.225761,-0.240715,;0.631930,0.651696,0.119629,0.604357,0.529628,0.500536,0.742510,0.266732,0.601990,0.672593,-0.013170,0.746526,;0.142872,0.231186,0.242682,-0.166003,-0.201558,-0.048754,0.313386,-0.178051,0.408495,-0.083399,0.169506,-0.057624,;,0.571364,-0.035973,0.214417,-0.070471,-0.576721,-0.276441,0.091681,0.045251,0.231226,-0.359040,0.625107,-0.425377,,-0.089476,0.731004,-0.008002,0.202023,0.365769,0.688971,0.307180,-0.464763,0.789812,-0.074870,0.067136,0.009545,;-0.097573,0.291197,-0.303608,0.150167,0.389729,-0.151581,0.577920,0.224673,0.586681,0.460288,-0.350701,0.414924,;-0.298425,0.115974,-0.185901,0.057652,0.392308,0.523714,0.635045,-0.218069,0.570968,0.445035,0.058658,-0.001900,;-0.312466,0.306198,0.496858,-0.122408,0.625712,0.015876,0.162597,0.202139,0.439092,0.773022,-0.357659,0.393120,;0.163079,0.371674,-0.124672,0.530750,0.210586,-0.182830,0.138604,0.421586,0.053067,0.327655,-0.536090,0.055033,;-0.178078,0.129324,0.200789,0.158047,0.641675,0.170578,0.065664,0.367274,0.101666,0.490004,-0.408557,0.470151,;0.456586,-0.078817,0.593236,-0.168376,0.308389,0.389517,-0.018304,-0.489302,0.488539,0.078899,-0.103258,0.636596,;-0.192261,0.410530,0.262163,-0.228286,0.110841,0.450811,0.677193,-0.192716,0.093485,0.649047,-0.135490,0.451111,;0.035852,0.672886,0.090307,0.611193,0.829443,0.664196,0.756806,-0.324717,0.393114,0.217398,-0.209615,0.593461,;-0.249005,0.427049,0.315181,-0.078198,0.479100,0.021745,-0.052179,0.059840,-0.096588,0.784712,-0.202617,-0.088095,;0.014857,0.135365,0.453150,0.061069,0.686349,0.410064,-0.008487,-0.124917,-0.000435,-0.006495,0.106363,-0.110149,;0.373563,0.646673,-0.044934,0.568903,0.546997,0.349013,0.678491,-0.151169,0.641641,0.716918,-0.483445,0.565117,;0.472897,0.448311,0.368600,0.075996,-0.016432,0.067933,0.587544,-0.395193,0.791867,0.136140,-0.050984,-0.048454,;,0.759016,0.804663,0.573548,0.601237,0.267365,-0.006781,0.233019,0.697631,0.069595,0.894623,0.149533,0.578256,0.116442,
0.941170,-0.037871,0.789821,-0.071825,0.069793,0.585949,0.020431,;-0.254803,0.594927,0.184249,0.441295,0.804511,0.091887,0.542136,;0.198368,-0.036783,0.248008,0.659351,0.884568,0.098182,0.253580,;0.775893,0.198657,0.613628,0.298078,0.514410,0.313475,0.666388,;0.551946,0.918671,0.966463,0.025641,0.482655,0.300209,0.342170,;0.557720,0.053597,0.584378,0.491012,-0.004528,0.553717,0.220780,;-0.178970,0.321760,-0.001954,0.738507,0.037471,0.110954,0.215709,;0.000568,0.525148,0.202217,0.646664,0.499651,0.040766,0.282645,;-0.174793,-0.090135,0.660093,-0.070844,0.678937,0.761569,0.225681,;0.409703,0.572724,0.630704,0.778173,0.340012,0.753935,0.840368,;0.105649,0.791697,0.915339,0.537021,0.574288,0.297229,0.066955,;-0.039561,0.730139,0.166610,0.843898,0.191024,0.651463,0.234340,;,1.081692,-0.316748,-0.433437,0.334472,-1.274214,-0.790002,-0.290882,-0.583179,0.173508,-1.123935,0.287657,-1.080314,,-0.109800,0.177304,-0.261574,0.080215,0.294876,-0.099265,0.459146,0.592569,0.410851,0.337262,0.060807,0.514428,;-0.804281,-0.145174,-0.408123,-0.286175,0.197083,0.367830,0.342036,-0.268462,0.169620,0.209079,-0.112460,-0.067845,;-0.510750,0.226877,0.500166,-0.241286,0.537777,0.008298,0.032043,0.422272,0.224955,0.651118,-0.126389,0.480275,;0.032202,0.264032,-0.141001,0.394659,0.131002,-0.179770,0.031526,0.604076,-0.152391,0.211446,-0.389373,0.124935,;-0.748392,-0.109880,-0.041262,-0.197370,0.448910,-0.008007,-0.227447,0.310838,-0.331560,0.256262,-0.504627,0.405245,;0.119453,-0.246312,0.515275,-0.395744,0.153058,0.313606,-0.236037,-0.312708,0.160872,-0.106330,0.050390,0.660843,;-0.719521,0.159366,0.033851,-0.566453,-0.084683,0.294080,0.377713,-0.254006,-0.318696,0.422150,-0.291910,0.392776,;0.208525,0.684844,0.191045,0.623255,0.838039,0.799915,0.817809,-0.001719,0.310296,0.182296,0.189952,0.785006,;-0.801030,0.149548,0.083804,-0.454364,0.269974,-0.174336,-0.372342,0.038866,-0.526712,0.533946,-0.365493,-0.175073,;-0.468297,-0.163795,0.175991,-0.244691,0.462301,0.190057,-0.377541,-0.017242,-0.438684,-0.261856,0.234293,-0.237645,;0.632001,0.641571,0.112903,0.589427,0.519228,0.497288,0.743616,0.260725,0.595596,0.660463,-0.029524,0.741113,;0.125480,0.244635,0.251801,-0.154282,-0.191512,-0.049139,0.309893,-0.171328,0.414157,-0.070400,0.185649,-0.052355,;,0.568336,-0.051149,0.203119,-0.073680,-0.596395,-0.293829,0.068962,0.049461,0.211375,-0.381221,0.637575,-0.448054,,-0.088764,0.731183,-0.007337,0.202372,0.365790,0.689692,0.307561,-0.461506,0.789845,-0.074986,0.071248,0.010856,;-0.094403,0.290894,-0.301914,0.146951,0.389608,-0.155559,0.578222,0.227181,0.586247,0.459856,-0.358932,0.408938,;-0.300284,0.114079,-0.185510,0.054616,0.391417,0.520042,0.633220,-0.215680,0.569708,0.443334,0.055511,-0.004570,;-0.314600,0.304107,0.495847,-0.126131,0.624739,0.011547,0.160495,0.204216,0.437643,0.771339,-0.362751,0.388699,;0.162218,0.371362,-0.125776,0.530741,0.210423,-0.182232,0.138158,0.422841,0.052836,0.327428,-0.532642,0.055366,;-0.172208,0.124632,0.208561,0.154106,0.639551,0.163285,0.061374,0.393412,0.098620,0.486392,-0.393758,0.467600,;0.448950,-0.082458,0.591482,-0.173335,0.306702,0.384378,-0.022123,-0.489574,0.486248,0.075973,-0.109739,0.633556,;-0.198590,0.405796,0.261610,-0.234546,0.108665,0.441947,0.672374,-0.187970,0.090363,0.644663,-0.140943,0.444655,;0.034494,0.670680,0.090223,0.608846,0.828423,0.661116,0.754444,-0.318315,0.391639,0.215607,-0.206483,0.591309,;-0.251565,0.426883,0.311806,-0.077294,0.479035,0.023697,-0.052742,0.058340,-0.096642,0.784776,-0.198288,-0.087172,;0.026112,0.136006,0.462518,0.059748,0.686643,0.408061,-0.006643,-0.112226,-0.000154,-0.005729,0.106157,-0.110833,;0.365832,0.644397,-0.050688,0.567011,0.545989,0.347887,0.675723,-0.153469,0.640237,0.715263,-0.482829,0.563038,;0.466956,0.445101,0.366388,0.072403,-0.017940,0.062884,0.583850,-0.393070,0.789748,0.133119,-0.051845,-0.051879,;,0.759599,0.799002,0.567549,0.594387,0.267623,-0.018634,0.224040,0.683734,0.064312,0.896830,0.146855,0.575269,0.108361,
0.941132,-0.069432,0.750049,-0.097077,0.011795,0.562664,-0.022890,;-0.257287,0.600896,0.178947,0.438948,0.795497,0.088402,0.534411,;0.193891,-0.024288,0.252642,0.668552,0.904462,0.099541,0.257537,;0.774807,0.189351,0.586708,0.280138,0.465593,0.297318,0.630455,;0.548495,0.936801,0.970486,0.033086,0.491581,0.300700,0.340384,;0.553951,0.067650,0.583122,0.493935,-0.009390,0.552841,0.216919,;-0.180199,0.321033,-0.010425,0.731808,0.021191,0.106398,0.206460,;0.000947,0.518001,0.199882,0.644210,0.500397,0.038136,0.277024,;-0.177520,-0.104608,0.648572,-0.077567,0.671466,0.753722,0.214057,;0.405651,0.574164,0.635350,0.783485,0.351564,0.756416,0.846014,;0.106651,0.785825,0.907475,0.528756,0.564167,0.293249,0.060850,;-0.046445,0.739189,0.166438,0.851205,0.200469,0.649535,0.230017,;,1.122256,-0.317159,-0.439040,0.350129,-1.283480,-0.795679,-0.287165,-0.582035,0.180760,-1.131729,0.293354,-1.088336,,-0.104828,0.173627,-0.259032,0.083648,0.291593,-0.099360,0.453560,0.588131,0.416308,0.335201,0.051149,0.508790,;-0.809261,-0.143655,-0.406348,-0.281375,0.200700,0.369436,0.338465,-0.268554,0.171844,0.215691,-0.110355,-0.066812,;-0.522529,0.238729,0.511112,-0.233884,0.543682,0.007819,0.031682,0.428798,0.232731,0.658247,-0.113577,0.483852,;0.034661,0.262518,-0.141160,0.396402,0.132276,-0.178368,0.029950,0.603340,-0.152546,0.213036,-0.388826,0.124882,;-0.771853,-0.100433,-0.037143,-0.198411,0.457218,-0.009523,-0.227414,0.317617,-0.335144,0.264572,-0.488018,0.412204,;0.100843,-0.238341,0.524004,-0.392680,0.156734,0.312712,-0.238437,-0.308814,0.165069,-0.099187,0.057552,0.663377,;-0.731977,0.165627,0.036705,-0.559945,-0.078013,0.295130,0.374601,-0.251591,-0.316111,0.432644,-0.284860,0.396321,;0.199940,0.682019,0.180916,0.610858,0.839241,0.796795,0.820263,-0.001261,0.296026,0.178532,0.193398,0.787993,;-0.811984,0.154395,0.087404,-0.449023,0.275077,-0.173320,-0.375345,0.040695,-0.523836,0.542532,-0.359870,-0.172551,;-0.476345,-0.156740,0.179941,-0.236140,0.470768,0.191556,-0.380768,-0.013807,-0.435587,-0.251576,0.244890,-0.233796,;0.627814,0.631856,0.105516,0.574087,0.508931,0.492731,0.743439,0.254509,0.588018,0.648686,-0.045995,0.735586,;0.113339,0.257834,0.262256,-0.141696,-0.181255,-0.047618,0.307930,-0.164174,0.421839,-0.057407,0.202275,-0.046814,;,0.567314,-0.062170,0.193505,-0.076629,-0.614114,-0.309170,0.053312,0.049237,0.197394,-0.395735,0.645105,-0.464422,,-0.094095,0.730934,-0.009871,0.199960,0.365631,0.688763,0.307507,-0.470563,0.789670,-0.075508,0.060349,0.009378,;-0.089428,0.290955,-0.298966,0.144945,0.389694,-0.158577,0.578922,0.233803,0.586067,0.459791,-0.362768,0.404367,;-0.298999,0.112827,-0.182935,0.053211,0.390852,0.517968,0.632077,-0.208299,0.568864,0.442230,0.058956,-0.005356,;-0.313124,0.302888,0.496753,-0.127682,0.624186,0.009280,0.159278,0.211875,0.436750,0.770446,-0.359669,0.386589,;0.159223,0.370924,-0.128025,0.529834,0.210206,-0.182212,0.137588,0.419568,0.052550,0.327059,-0.534544,0.054724,;-0.174977,0.120010,0.214532,0.146243,0.637591,0.154618,0.057314,0.401777,0.095802,0.482759,-0.402829,0.462126,;0.445555,-0.085092,0.592492,-0.176121,0.305505,0.381491,-0.024881,-0.484444,0.484621,0.073946,-0.108091,0.633026,;-0.201048,0.402177,0.264381,-0.238813,0.107061,0.435524,0.668764,-0.178406,0.087995,0.641262,-0.139555,0.440729,;0.033909,0.669044,0.090709,0.607220,0.827678,0.659088,0.752676,-0.312214,0.390551,0.214325,-0.202782,0.590064,;-0.250439,0.427185,0.309330,-0.074319,0.479128,0.026987,-0.052915,0.062634,-0.096468,0.785219,-0.184769,-0.084557,;0.025944,0.135763,0.467346,0.053086,0.686647,0.402783,-0.005576,-0.119422,-0.000263,-0.005747,0.078063,-0.116196,;0.364791,0.643125,-0.053674,0.568639,0.545400,0.349468,0.673897,-0.145389,0.639403,0.714467,-0.466576,0.564251,;0.465054,0.442775,0.366715,0.070870,-0.019031,0.059873,0.581096,-0.385781,0.788195,0.130887,-0.045016,-0.053064,;,0.757551,0.794588,0.563664,0.590572,0.267036,-0.034065,0.218160,0.672734,0.060439,0.901648,0.138356,0.576782,0.103073,
0.940029,-0.095284,0.712778,-0.116591,-0.032600,0.540465,-0.059967,;-0.259554,0.608520,0.174541,0.438128,0.789792,0.085388,0.527986,;0.190277,-0.012511,0.257412,0.677359,0.923829,0.100872,0.261289,;0.773675,0.184743,0.562513,0.266933,0.427792,0.282526,0.599519,;0.546159,0.954829,0.974710,0.040360,0.499954,0.301256,0.338213,;0.550773,0.081780,0.582134,0.497050,-0.013359,0.552147,0.213444,;-0.181692,0.322355,-0.018316,0.726871,0.008420,0.102167,0.198512,;0.001547,0.511985,0.197982,0.642711,0.502368,0.035629,0.271846,;-0.180093,-0.116958,0.638376,-0.081886,0.669233,0.746510,0.204989,;0.402513,0.575519,0.640277,0.788739,0.362427,0.759043,0.851666,;0.106941,0.782396,0.900731,0.522286,0.557992,0.289837,0.056228,;-0.051917,0.749168,0.166746,0.859293,0.210837,0.647708,0.226142,;,1.163683,-0.316751,-0.442913,0.367446,-1.290212,-0.799805,-0.283045,-0.579826,0.189530,-1.137337,0.297118,-1.092026,,-0.103134,0.168705,-0.257909,0.084383,0.287576,-0.100429,0.447187,0.582939,0.419908,0.332452,0.039923,0.502736,;-0.815455,-0.145069,-0.406817,-0.279974,0.202834,0.370386,0.333735,-0.270597,0.172034,0.220466,-0.111929,-0.067093,;-0.531331,0.250892,0.523052,-0.225681,0.550022,0.008439,0.032410,0.435965,0.241764,0.665680,-0.099553,0.487942,;0.035935,0.259146,-0.142864,0.396015,0.132575,-0.177555,0.027469,0.601312,-0.154191,0.213456,-0.390708,0.123950,;-0.789957,-0.091267,-0.032299,-0.198089,0.465776,-0.009444,-0.226099,0.324631,-0.337350,0.272670,-0.470781,0.419398,;0.085924,-0.230905,0.533084,-0.389195,0.160407,0.312893,-0.239961,-0.304833,0.170195,-0.092199,0.064839,0.665989,;-0.748334,0.168259,0.036713,-0.558603,-0.073122,0.295055,0.369682,-0.251710,-0.316733,0.440869,-0.282624,0.398276,;0.192982,0.681596,0.172769,0.601562,0.841762,0.794568,0.823846,0.000710,0.283480,0.176082,0.199918,0.792098,;-0.824367,0.156428,0.088965,-0.447181,0.278815,-0.172835,-0.379355,0.040711,-0.523036,0.549349,-0.357714,-0.171192,;-0.490694,-0.154906,0.179703,-0.234980,0.476619,0.191077,-0.387061,-0.014155,-0.437259,-0.244632,0.248296,-0.232430,;0.630300,0.626892,0.102098,0.566062,0.501023,0.490168,0.746009,0.251671,0.585267,0.640043,-0.056067,0.732190,;0.094856,0.266142,0.269076,-0.136387,-0.173348,-0.047805,0.303176,-0.160446,0.425037,-0.047442,0.212267,-0.043466,;,0.564602,-0.073019,0.187156,-0.080168,-0.627101,-0.320830,0.036801,0.049505,0.183891,-0.412655,0.655196,-0.482647,,-0.093950,0.731264,-0.010197,0.200322,0.365694,0.689667,0.307977,-0.470252,0.789799,-0.075490,0.062532,0.010554,;-0.079430,0.291676,-0.293167,0.145840,0.390138,-0.159326,0.580234,0.251447,0.586273,0.460401,-0.352711,0.402637,;-0.299134,0.111682,-0.180633,0.051247,0.390366,0.515885,0.631066,-0.204116,0.568122,0.441207,0.058480,-0.006535,;-0.312605,0.301946,0.497141,-0.129281,0.623773,0.007471,0.158320,0.216920,0.436057,0.769775,-0.358856,0.384524,;0.158984,0.370810,-0.129239,0.530343,0.210117,-0.181228,0.137328,0.420823,0.052439,0.326984,-0.529884,0.055429,;-0.176819,0.116150,0.222590,0.138967,0.636065,0.147483,0.054124,0.410562,0.093536,0.479861,-0.412043,0.458145,;0.441927,-0.087270,0.593789,-0.178881,0.304544,0.379248,-0.027121,-0.481760,0.483326,0.072303,-0.108803,0.632772,;-0.204392,0.399078,0.267491,-0.243298,0.105738,0.429756,0.665753,-0.172192,0.086016,0.638304,-0.142123,0.437075,;0.029751,0.667396,0.089597,0.604033,0.826947,0.656423,0.750931,-0.313793,0.389508,0.212985,-0.208569,0.587449,;-0.257777,0.426792,0.301750,-0.075175,0.478864,0.027525,-0.053792,0.049996,-0.096680,0.784947,-0.191915,-0.086086,;0.049009,0.137735,0.484722,0.057809,0.687708,0.405791,-0.002421,-0.081569,0.000844,-0.003590,0.108308,-0.109946,;0.352618,0.641121,-0.062988,0.565209,0.544450,0.347708,0.671378,-0.159834,0.638192,0.712904,-0.478255,0.560234,;0.458809,0.440433,0.365212,0.067283,-0.020109,0.055921,0.578403,-0.388240,0.786700,0.128575,-0.050468,-0.056000,;,0.758659,0.793628,0.559490,0.587298,0.268138,-0.048209,0.212918,0.662257,0.055327,0.902506,0.142285,0.573260,0.096088,
0.936171,-0.119169,0.678206,-0.134189,-0.069436,0.519406,-0.093239,;-0.262680,0.617098,0.170695,0.437876,0.785558,0.082603,0.522177,;0.186299,-0.001601,0.261761,0.685611,0.942216,0.102145,0.264510,;0.770761,0.182435,0.540556,0.255583,0.396137,0.268767,0.571720,;0.543201,0.973017,0.978363,0.047297,0.507305,0.301757,0.335327,;0.547179,0.096025,0.581186,0.500161,-0.017013,0.551609,0.210010,;-0.184207,0.325030,-0.025602,0.722762,-0.002465,0.098115,0.191262,;0.001442,0.506660,0.196064,0.641479,0.504619,0.033080,0.266625,;-0.183825,-0.128551,0.629166,-0.085426,0.669565,0.739681,0.197170,;0.398905,0.576737,0.645036,0.793689,0.372087,0.761539,0.856681,;0.107122,0.780821,0.895088,0.517020,0.554716,0.286903,0.052984,;-0.058667,0.759363,0.166742,0.867131,0.220429,0.645798,0.221548,;,1.197610,-0.318717,-0.448551,0.379663,-1.299084,-0.805112,-0.281044,-0.579719,0.194716,-1.144832,0.300458,-1.099744,,-0.099828,0.164575,-0.256195,0.086083,0.283998,-0.101100,0.441702,0.578617,0.424237,0.330251,0.030307,0.497250,;-0.815161,-0.145373,-0.405881,-0.275644,0.205569,0.372913,0.331088,-0.271344,0.174467,0.225806,-0.111040,-0.066534,;-0.547191,0.260070,0.532480,-0.223160,0.554731,0.007302,0.030973,0.440921,0.247067,0.671152,-0.090127,0.490707,;0.042630,0.256861,-0.143391,0.398402,0.133405,-0.175532,0.026648,0.600405,-0.153955,0.214406,-0.390468,0.123710,;-0.812603,-0.085430,-0.030170,-0.202636,0.472517,-0.010665,-0.226618,0.329166,-0.342956,0.278407,-0.458513,0.425069,;0.071028,-0.225072,0.541264,-0.387613,0.163285,0.312942,-0.241779,-0.301707,0.174404,-0.086301,0.070336,0.668072,;-0.760909,0.171255,0.037535,-0.555972,-0.067958,0.296120,0.366106,-0.251209,-0.316126,0.449291,-0.279196,0.400680,;0.181891,0.681213,0.164146,0.591066,0.844260,0.791627,0.826607,0.002225,0.269637,0.173483,0.205630,0.796088,;-0.833551,0.158219,0.090700,-0.444805,0.282495,-0.171561,-0.382415,0.040915,-0.521604,0.555934,-0.355184,-0.169696,;-0.499171,-0.151950,0.181018,-0.231065,0.483053,0.192246,-0.391318,-0.013283,-0.436734,-0.237092,0.253870,-0.230220,;0.626483,0.620460,0.096922,0.554885,0.492348,0.485854,0.746255,0.247320,0.580178,0.630646,-0.068898,0.727746,;0.080777,0.274496,0.276712,-0.129874,-0.165351,-0.046720,0.299809,-0.156229,0.429510,-0.037486,0.223017,-0.039769,;,0.563109,-0.079250,0.177906,-0.080360,-0.641592,-0.331399,0.023775,0.047158,0.173331,-0.424831,0.660352,-0.496678,,-0.090032,0.731998,-0.009179,0.202635,0.365913,0.692038,0.308772,-0.463906,0.790137,-0.075084,0.074015,0.013584,;-0.080310,0.291598,-0.292915,0.141865,0.390238,-0.163298,0.580749,0.250268,0.586053,0.460241,-0.368231,0.396047,;-0.300823,0.110562,-0.178672,0.048536,0.389922,0.513633,0.630120,-0.203228,0.567433,0.440208,0.053588,-0.008178,;-0.315481,0.300963,0.495791,-0.132230,0.623361,0.004918,0.157365,0.215200,0.435387,0.769031,-0.366726,0.381085,;0.157326,0.370589,-0.131434,0.530243,0.209960,-0.180723,0.136951,0.418997,0.052269,0.326786,-0.528696,0.055409,;-0.173797,0.113261,0.234353,0.134303,0.635068,0.143138,0.051974,0.427654,0.091908,0.477868,-0.410252,0.457308,;0.435379,-0.089369,0.593693,-0.182920,0.303633,0.376501,-0.029237,-0.486066,0.482134,0.070680,-0.118074,0.631408,;-0.207351,0.396397,0.271811,-0.247546,0.104653,0.424905,0.663219,-0.166250,0.084344,0.635709,-0.144926,0.434181,;0.028063,0.666233,0.089855,0.602262,0.826452,0.655005,0.749694,-0.311425,0.388763,0.212076,-0.208677,0.586216,;-0.257427,0.427013,0.297636,-0.072320,0.478841,0.030318,-0.054093,0.051073,-0.096584,0.785256,-0.180304,-0.084148,;0.045597,0.137519,0.489012,0.050052,0.687857,0.400637,-0.001369,-0.091838,0.000819,-0.003502,0.074055,-0.115903,;0.351283,0.640154,-0.067216,0.567044,0.543930,0.349362,0.669863,-0.155369,0.637544,0.712297,-0.464019,0.561221,;0.455948,0.438648,0.366089,0.065338,-0.020910,0.053528,0.576317,-0.385391,0.785554,0.126761,-0.048714,-0.057088,;,0.762240,0.787543,0.554749,0.582829,0.268614,-0.058738,0.206734,0.652505,0.052094,0.907304,0.132945,0.575522,0.091138,
0.929615,-0.140066,0.644316,-0.147674,-0.098698,0.498920,-0.122777,;-0.265482,0.626535,0.167186,0.438619,0.783026,0.079916,0.516975,;0.183195,0.009038,0.266251,0.693408,0.960284,0.103278,0.267578,;0.766643,0.182404,0.519596,0.247556,0.370287,0.255586,0.546721,;0.541079,0.991336,0.982185,0.054156,0.514222,0.302045,0.332177,;0.543819,0.110318,0.580307,0.503642,-0.020171,0.550983,0.206911,;-0.186953,0.328904,-0.032772,0.720028,-0.011352,0.094086,0.184692,;0.001391,0.502124,0.194379,0.640615,0.507422,0.030546,0.261457,;-0.187974,-0.138926,0.620515,-0.087737,0.672640,0.733161,0.190669,;0.396146,0.578071,0.650038,0.798072,0.381099,0.764171,0.861572,;0.107097,0.780855,0.889967,0.513167,0.553531,0.284172,0.050292,;-0.064797,0.770378,0.166883,0.875187,0.230393,0.643750,0.217133,;,1.223319,-0.319507,-0.451617,0.388226,-1.305222,-0.809660,-0.279155,-0.579150,0.198649,-1.150050,0.303101,-1.105225,,-0.095813,0.160393,-0.254631,0.087649,0.280468,-0.101758,0.436416,0.574473,0.428745,0.328073,0.021178,0.491909,;-0.815984,-0.147654,-0.406679,-0.273625,0.207299,0.374785,0.327442,-0.273506,0.175498,0.229863,-0.112674,-0.066981,;-0.557432,0.270748,0.543548,-0.217713,0.560562,0.007711,0.031409,0.447332,0.254856,0.677480,-0.077592,0.494479,;0.047167,0.252887,-0.145452,0.398570,0.133252,-0.174369,0.024631,0.598166,-0.155202,0.214257,-0.392778,0.122500,;-0.829910,-0.079158,-0.027223,-0.204952,0.479652,-0.010563,-0.225787,0.334232,-0.346829,0.284197,-0.444996,0.431064,;0.055940,-0.220356,0.548617,-0.387342,0.165775,0.312799,-0.244098,-0.299333,0.178115,-0.081073,0.074501,0.669646,;-0.768910,0.174263,0.038764,-0.551968,-0.062684,0.298203,0.363579,-0.250420,-0.314123,0.457653,-0.274937,0.403240,;0.172338,0.682900,0.157439,0.583198,0.847634,0.789622,0.830801,0.005163,0.257124,0.171905,0.213835,0.801095,;-0.839868,0.159338,0.092112,-0.442205,0.285944,-0.169811,-0.385133,0.040838,-0.519658,0.562059,-0.352930,-0.168441,;-0.504212,-0.149731,0.182102,-0.226786,0.489174,0.194042,-0.395026,-0.012674,-0.435644,-0.230168,0.259227,-0.228268,;0.620625,0.614796,0.092135,0.544019,0.484075,0.481221,0.746128,0.243290,0.574977,0.621971,-0.081352,0.723544,;0.071313,0.282374,0.284605,-0.122423,-0.157453,-0.044697,0.297200,-0.152037,0.435332,-0.027941,0.234014,-0.036201,;,0.562050,-0.085885,0.172777,-0.081943,-0.652241,-0.341446,0.014102,0.045954,0.164918,-0.434388,0.663622,-0.507195,,-0.095772,0.731846,-0.013016,0.200250,0.365741,0.691110,0.308721,-0.475487,0.790001,-0.075526,0.061648,0.011849,;-0.072393,0.292467,-0.288571,0.142556,0.390747,-0.164001,0.582156,0.265528,0.586358,0.460965,-0.361528,0.394068,;-0.300260,0.109787,-0.175292,0.046998,0.389640,0.512338,0.629529,-0.198297,0.566951,0.439535,0.053869,-0.008529,;-0.313197,0.300646,0.496581,-0.132334,0.623234,0.004420,0.157016,0.222763,0.435082,0.768918,-0.361706,0.380429,;0.156418,0.370460,-0.133534,0.530574,0.209829,-0.179953,0.136641,0.418017,0.052143,0.326658,-0.525722,0.055753,;-0.174693,0.110372,0.245511,0.127804,0.634156,0.138275,0.049941,0.437482,0.090382,0.475880,-0.418783,0.455379,;0.432387,-0.090898,0.595305,-0.185144,0.302981,0.375491,-0.030812,-0.485173,0.481283,0.069588,-0.119109,0.632026,;-0.207519,0.394303,0.278065,-0.250391,0.103848,0.421553,0.661298,-0.156350,0.083048,0.633665,-0.142063,0.433121,;0.027663,0.665378,0.090486,0.601300,0.826077,0.654318,0.748723,-0.307470,0.388195,0.211441,-0.205864,0.585819,;-0.262479,0.426754,0.290029,-0.071972,0.478587,0.031210,-0.054888,0.041677,-0.096766,0.785094,-0.181995,-0.085063,;0.052844,0.138349,0.499320,0.047684,0.688518,0.399395,0.000737,-0.080787,0.001396,-0.002393,0.066903,-0.116260,;0.344672,0.638802,-0.074723,0.566381,0.543217,0.349304,0.667958,-0.161777,0.636681,0.711289,-0.463309,0.559567,;0.455265,0.437278,0.368062,0.064463,-0.021543,0.052139,0.574627,-0.379824,0.784653,0.125328,-0.042551,-0.056927,;,0.760561,0.786788,0.551421,0.581838,0.269653,-0.070794,0.203073,0.644849,0.050105,0.909431,0.129441,0.575265,0.087794,
0.922453,-0.159209,0.612861,-0.158020,-0.120675,0.480202,-0.149287,;-0.268753,0.636824,0.164017,0.439695,0.781476,0.077475,0.512107,;0.180334,0.018804,0.270672,0.700704,0.977407,0.104481,0.270355,;0.762106,0.184209,0.500428,0.241206,0.349144,0.243516,0.523827,;0.539113,1.009796,0.985733,0.060307,0.519833,0.302234,0.328498,;0.540302,0.124528,0.579515,0.506774,-0.023455,0.550469,0.203884,;-0.190468,0.334111,-0.039594,0.718044,-0.018574,0.090319,0.178617,;0.001580,0.498548,0.192777,0.640311,0.510711,0.028084,0.256265,;-0.191994,-0.148635,0.612795,-0.088723,0.678204,0.727390,0.185231,;0.393744,0.579472,0.654913,0.802656,0.389318,0.766804,0.866158,;0.106549,0.781919,0.885581,0.509665,0.553893,0.281811,0.048191,;-0.070505,0.782095,0.167038,0.883570,0.240073,0.641821,0.212446,;,1.248339,-0.321765,-0.454244,0.395596,-1.311307,-0.814995,-0.279112,-0.577501,0.203493,-1.154291,0.303999,-1.109181,,-0.090895,0.157186,-0.252373,0.089992,0.277416,-0.102130,0.431998,0.571272,0.433811,0.326467,0.013709,0.487246,;-0.815057,-0.150428,-0.407897,-0.271598,0.208674,0.376764,0.324106,-0.275851,0.176408,0.233411,-0.114747,-0.067671,;-0.567096,0.280925,0.554443,-0.212778,0.566148,0.008290,0.032018,0.453552,0.262618,0.683506,-0.065403,0.498224,;0.053835,0.249181,-0.147408,0.399643,0.133257,-0.172912,0.023173,0.596251,-0.156095,0.214090,-0.394493,0.121428,;-0.844154,-0.073480,-0.024647,-0.206762,0.486536,-0.009921,-0.224396,0.339035,-0.350578,0.289355,-0.431894,0.436914,;0.047753,-0.214443,0.557547,-0.383833,0.168905,0.314309,-0.244302,-0.295594,0.184391,-0.075123,0.081284,0.672116,;-0.780246,0.175419,0.038305,-0.551005,-0.058482,0.299318,0.359924,-0.251033,-0.314373,0.464702,-0.273504,0.404862,;0.156069,0.683063,0.148703,0.571815,0.850444,0.786090,0.832900,0.006413,0.241585,0.169179,0.219070,0.805152,;-0.846036,0.159533,0.092747,-0.440609,0.288806,-0.168226,-0.387888,0.040234,-0.518528,0.567428,-0.351803,-0.167573,;-0.511361,-0.149870,0.181036,-0.225438,0.494002,0.194842,-0.400092,-0.013862,-0.436696,-0.224955,0.261132,-0.227636,;0.618834,0.611449,0.089779,0.536936,0.476984,0.477992,0.747604,0.241087,0.572760,0.615133,-0.090332,0.720620,;0.058976,0.287875,0.290455,-0.118323,-0.150808,-0.043709,0.293189,-0.149607,0.438853,-0.020052,0.241579,-0.033863,;,0.561880,-0.091131,0.168558,-0.082224,-0.660652,-0.346946,0.003179,0.040763,0.157174,-0.444740,0.668629,-0.518671,,-0.093666,0.732442,-0.013401,0.201843,0.365869,0.692764,0.309339,-0.473458,0.790254,-0.075282,0.068417,0.013862,;-0.071201,0.292851,-0.287553,0.140319,0.391075,-0.166788,0.583120,0.269674,0.586419,0.461269,-0.370822,0.389000,;-0.298890,0.109180,-0.171179,0.045858,0.389451,0.511606,0.629116,-0.191958,0.566576,0.439013,0.056145,-0.008287,;-0.317426,0.299953,0.493376,-0.135235,0.622932,0.002087,0.156277,0.218031,0.434587,0.768416,-0.372136,0.376733,;0.155594,0.370374,-0.135886,0.531077,0.209714,-0.179182,0.136349,0.416715,0.052045,0.326565,-0.522662,0.055997,;-0.174776,0.107859,0.257966,0.121812,0.633460,0.134509,0.048313,0.448820,0.089119,0.474254,-0.425344,0.454534,;0.432100,-0.091996,0.598364,-0.186007,0.302522,0.375718,-0.031963,-0.480367,0.480685,0.068884,-0.114244,0.634152,;-0.210991,0.392180,0.283149,-0.254771,0.103054,0.417660,0.659386,-0.153190,0.081782,0.631556,-0.147792,0.430844,;0.025140,0.664415,0.090194,0.599289,0.825670,0.653054,0.747692,-0.307851,0.387591,0.210700,-0.208720,0.584437,;-0.263987,0.426823,0.283358,-0.069673,0.478428,0.033150,-0.055420,0.037468,-0.096788,0.785208,-0.175215,-0.084443,;0.063134,0.139575,0.511464,0.047058,0.689384,0.399600,0.003191,-0.062455,0.002179,-0.000875,0.068614,-0.114689,;0.340876,0.637795,-0.081410,0.567301,0.542628,0.350123,0.666352,-0.164522,0.636011,0.710580,-0.456398,0.559083,;0.450924,0.435690,0.368687,0.061653,-0.022251,0.049695,0.572801,-0.381791,0.783670,0.123661,-0.046397,-0.058467,;,0.763356,0.782807,0.548784,0.578115,0.270911,-0.081713,0.201291,0.635934,0.047092,0.913670,0.128193,0.576802,0.082445,
0.912464,-0.176988,0.583207,-0.166661,-0.136320,0.462325,-0.171994,;-0.271937,0.647586,0.161095,0.441339,0.780914,0.074982,0.507433,;0.177744,0.028055,0.274865,0.707548,0.993617,0.105245,0.272452,;0.756654,0.187111,0.482534,0.236600,0.332663,0.232229,0.503464,;0.537803,1.028293,0.989071,0.066530,0.524798,0.302172,0.324139,;0.537269,0.138861,0.578778,0.510228,-0.026266,0.549985,0.200963,;-0.194279,0.340176,-0.046080,0.716931,-0.024235,0.086586,0.173071,;0.001297,0.495254,0.191245,0.640110,0.513971,0.025505,0.250919,;-0.196866,-0.158018,0.605667,-0.089345,0.685130,0.721638,0.180596,;0.391597,0.580934,0.659716,0.806695,0.396093,0.769163,0.870001,;0.105989,0.783942,0.881690,0.507065,0.556037,0.279632,0.046707,;-0.076341,0.794241,0.167093,0.891867,0.249131,0.639497,0.207165,;,1.265989,-0.323290,-0.456348,0.401030,-1.315452,-0.818615,-0.278929,-0.577285,0.205796,-1.158429,0.305218,-1.113538,,-0.089690,0.152374,-0.251783,0.089420,0.273552,-0.103607,0.426307,0.566920,0.436801,0.323960,0.004067,0.481842,;-0.810767,-0.153250,-0.409092,-0.268516,0.210029,0.379331,0.321528,-0.277976,0.177985,0.236914,-0.116282,-0.068236,;-0.576177,0.290560,0.564926,-0.208464,0.571492,0.008829,0.032773,0.459574,0.269921,0.688910,-0.053560,0.501819,;0.060066,0.244513,-0.150190,0.399825,0.132678,-0.171764,0.021224,0.593661,-0.157714,0.213392,-0.397549,0.119888,;-0.855949,-0.068412,-0.022450,-0.208244,0.493100,-0.008908,-0.222590,0.343554,-0.354386,0.293828,-0.419274,0.442557,;0.036966,-0.210810,0.564353,-0.383438,0.170944,0.314793,-0.245857,-0.293464,0.188339,-0.070661,0.085065,0.673529,;-0.787961,0.176658,0.038072,-0.548854,-0.054199,0.301185,0.357204,-0.251344,-0.313759,0.471712,-0.271293,0.406665,;0.144610,0.686363,0.143075,0.565014,0.854740,0.784385,0.837474,0.009989,0.229212,0.168152,0.228601,0.810859,;-0.849702,0.159275,0.093008,-0.438672,0.291497,-0.166288,-0.390186,0.039530,-0.517280,0.572412,-0.350680,-0.166799,;-0.513457,-0.149508,0.180819,-0.221939,0.499008,0.196740,-0.403809,-0.014377,-0.436135,-0.219542,0.264364,-0.226648,;0.612797,0.607461,0.086515,0.527986,0.469735,0.473765,0.747662,0.238118,0.569143,0.608087,-0.100711,0.717194,;0.049659,0.292514,0.295969,-0.114052,-0.144679,-0.042314,0.289611,-0.147484,0.442544,-0.012872,0.248587,-0.031857,;,0.559494,-0.094402,0.165222,-0.083010,-0.667392,-0.353818,-0.005278,0.038837,0.151057,-0.451847,0.670689,-0.528011,,-0.093246,0.732862,-0.014939,0.202708,0.365917,0.693786,0.309770,-0.474366,0.790399,-0.075193,0.071138,0.014905,;-0.063835,0.293807,-0.283254,0.141261,0.391678,-0.167394,0.584584,0.286442,0.586785,0.462141,-0.363892,0.387094,;-0.300921,0.108330,-0.168463,0.042986,0.389178,0.509918,0.628508,-0.191847,0.566096,0.438272,0.049863,-0.009542,;-0.314586,0.299988,0.493504,-0.134403,0.622936,0.002235,0.156200,0.225820,0.434484,0.768589,-0.365312,0.376584,;0.153388,0.370147,-0.139176,0.530918,0.209519,-0.178902,0.135918,0.412558,0.051865,0.326322,-0.522977,0.055579,;-0.175597,0.105627,0.270427,0.115718,0.632919,0.131271,0.047022,0.458136,0.088066,0.472897,-0.434164,0.454001,;0.426884,-0.093355,0.598459,-0.189115,0.301945,0.374637,-0.033366,-0.485749,0.479969,0.067906,-0.121802,0.633932,;-0.212048,0.390497,0.289818,-0.257968,0.102468,0.415026,0.657927,-0.146528,0.080795,0.629844,-0.148177,0.430090,;0.023227,0.663675,0.089667,0.597847,0.825343,0.652193,0.746853,-0.307866,0.387114,0.210138,-0.210209,0.583401,;-0.266569,0.426764,0.275659,-0.067883,0.478177,0.034488,-0.056085,0.030839,-0.096895,0.785184,-0.171069,-0.084550,;0.072752,0.140767,0.523667,0.046361,0.690290,0.399909,0.005581,-0.043803,0.002949,0.000665,0.069378,-0.113149,;0.335107,0.636632,-0.089541,0.567247,0.541939,0.350161,0.664621,-0.171581,0.635254,0.709698,-0.454496,0.557507,;0.448361,0.434450,0.370071,0.059775,-0.022819,0.048084,0.571313,-0.381726,0.782897,0.122285,-0.046509,-0.059043,;,0.765268,0.782563,0.544380,0.578617,0.271407,-0.092129,0.197377,0.628851,0.044951,0.917233,0.126944,0.577255,0.078492,
0.904145,-0.193153,0.555249,-0.172795,-0.147997,0.445398,-0.192247,;-0.275440,0.658906,0.158467,0.443433,0.781008,0.072810,0.502922,;0.175232,0.036603,0.278931,0.714071,1.009423,0.105960,0.274443,;0.751714,0.191095,0.465811,0.233534,0.318688,0.221803,0.484475,;0.536001,1.046542,0.992248,0.072432,0.529121,0.302289,0.319368,;0.533942,0.152980,0.578116,0.513654,-0.029041,0.549831,0.198009,;-0.198500,0.347346,-0.052184,0.716651,-0.028807,0.083233,0.167816,;0.001042,0.492593,0.189824,0.640262,0.517573,0.022917,0.245617,;-0.201278,-0.166729,0.599197,-0.089089,0.693669,0.716197,0.176938,;0.389159,0.582582,0.664563,0.810569,0.402730,0.771532,0.873776,;0.105583,0.786796,0.878112,0.504985,0.558736,0.277640,0.045411,;-0.082411,0.806801,0.167285,0.900436,0.258365,0.637380,0.201817,;,1.288535,-0.325392,-0.458219,0.408064,-1.320951,-0.823258,-0.279290,-0.576474,0.209756,-1.163715,0.307164,-1.118295,,-0.088368,0.148218,-0.250833,0.089144,0.270059,-0.105001,0.421102,0.563170,0.440042,0.321811,-0.004433,0.476864,;-0.808831,-0.157459,-0.411645,-0.267650,0.210558,0.381007,0.317916,-0.281182,0.178030,0.239374,-0.119937,-0.069615,;-0.585499,0.299941,0.575273,-0.204637,0.576663,0.009302,0.033541,0.465455,0.277050,0.694058,-0.042021,0.505352,;0.066759,0.239652,-0.153162,0.399936,0.131952,-0.170690,0.019237,0.590962,-0.159340,0.212465,-0.400823,0.118208,;-0.869922,-0.065183,-0.021822,-0.212002,0.498599,-0.008662,-0.221952,0.346582,-0.359839,0.296991,-0.409540,0.447202,;0.027598,-0.207249,0.571325,-0.382749,0.172927,0.315445,-0.247185,-0.291256,0.192701,-0.066331,0.088937,0.674902,;-0.799737,0.176244,0.036258,-0.549777,-0.050809,0.301977,0.353127,-0.253014,-0.315273,0.477589,-0.271662,0.407583,;0.129449,0.688947,0.136605,0.556405,0.858692,0.782179,0.841244,0.012732,0.215456,0.166692,0.236694,0.816347,;-0.856262,0.157589,0.091876,-0.439161,0.293394,-0.165242,-0.393562,0.037695,-0.517756,0.576377,-0.351735,-0.166818,;-0.516433,-0.150710,0.179191,-0.220235,0.503009,0.198008,-0.408289,-0.016057,-0.436800,-0.215350,0.265319,-0.226552,;0.609316,0.605083,0.084847,0.521609,0.463503,0.470424,0.748627,0.236380,0.567369,0.602355,-0.108699,0.714593,;0.039045,0.295689,0.300286,-0.111658,-0.139446,-0.041527,0.285226,-0.146457,0.445153,-0.006750,0.253460,-0.030673,;,0.557500,-0.098874,0.162141,-0.083576,-0.675321,-0.359673,-0.015667,0.034836,0.143557,-0.459218,0.673785,-0.537729,,-0.093038,0.733205,-0.016638,0.203363,0.365928,0.694661,0.310104,-0.476295,0.790503,-0.075166,0.073130,0.015756,;-0.068592,0.293759,-0.285099,0.136418,0.391877,-0.171820,0.585153,0.283144,0.586624,0.462079,-0.385652,0.379491,;-0.299815,0.107818,-0.163965,0.041692,0.389055,0.509440,0.628221,-0.186249,0.565806,0.437852,0.051125,-0.009123,;-0.313075,0.300061,0.492214,-0.133852,0.622929,0.002111,0.156118,0.230704,0.434398,0.768766,-0.361395,0.375818,;0.151956,0.370018,-0.142330,0.531194,0.209356,-0.178419,0.135568,0.409308,0.051734,0.326157,-0.521722,0.055450,;-0.173959,0.103732,0.284939,0.110799,0.632555,0.129509,0.046070,0.471996,0.087220,0.471838,-0.436430,0.455218,;0.423749,-0.094418,0.599294,-0.191122,0.301489,0.374264,-0.034472,-0.488187,0.479430,0.067214,-0.125011,0.634829,;-0.215606,0.388736,0.295611,-0.262427,0.101873,0.411885,0.656447,-0.144655,0.079800,0.628061,-0.155200,0.428378,;0.021632,0.663005,0.089361,0.596559,0.825051,0.651525,0.746084,-0.307562,0.386683,0.209640,-0.210978,0.582547,;-0.268760,0.426787,0.267281,-0.065622,0.477928,0.035813,-0.056727,0.023559,-0.096966,0.785199,-0.166255,-0.084712,;0.076588,0.141426,0.533333,0.042786,0.690999,0.398605,0.007510,-0.033855,0.003445,0.001754,0.057197,-0.113966,;0.330280,0.635657,-0.097859,0.567892,0.541305,0.350432,0.663021,-0.178384,0.634594,0.708946,-0.450970,0.556147,;0.445167,0.433199,0.371647,0.057401,-0.023369,0.046360,0.569864,-0.383071,0.782140,0.120905,-0.048804,-0.059887,;,0.766958,0.775848,0.541840,0.579030,0.272372,-0.100754,0.194890,0.620644,0.043086,0.921305,0.122656,0.578512,0.074080,
0.894151,-0.209881,0.529228,-0.178340,-0.156142,0.429223,-0.210004,;-0.279101,0.670864,0.155899,0.445738,0.781833,0.070584,0.498498,;0.172073,0.044426,0.282368,0.719967,1.024522,0.106652,0.275843,;0.745962,0.195666,0.450505,0.231135,0.307278,0.211788,0.467043,;0.533800,1.065301,0.994972,0.078151,0.532856,0.302246,0.313937,;0.530517,0.167336,0.577433,0.517210,-0.031786,0.549548,0.194989,;-0.202818,0.355452,-0.057957,0.716915,-0.032200,0.079805,0.162936,;0.000306,0.490326,0.188402,0.640374,0.521405,0.020389,0.240228,;-0.206472,-0.175899,0.593018,-0.088900,0.703224,0.711101,0.173796,;0.386752,0.584246,0.668908,0.814207,0.408698,0.773869,0.877101,;0.104883,0.790310,0.874903,0.503149,0.562298,0.275801,0.044233,;-0.089150,0.819882,0.167044,0.908893,0.267276,0.635114,0.195983,;,1.304546,-0.327561,-0.462202,0.412223,-1.327281,-0.827909,-0.279303,-0.577043,0.210928,-1.168887,0.308129,-1.124695,,-0.083694,0.145330,-0.248694,0.090968,0.267296,-0.105571,0.417071,0.560584,0.444974,0.320515,-0.010614,0.472651,;-0.803158,-0.160990,-0.413551,-0.264990,0.211379,0.383474,0.315502,-0.283625,0.179227,0.242167,-0.122124,-0.070543,;-0.601746,0.306517,0.582932,-0.206034,0.580169,0.007794,0.031941,0.469026,0.280693,0.697217,-0.035105,0.507446,;0.076765,0.235830,-0.155216,0.402134,0.131869,-0.168786,0.018351,0.589205,-0.159621,0.212204,-0.402177,0.117130,;-0.885152,-0.063036,-0.022381,-0.217215,0.503474,-0.008873,-0.221772,0.348744,-0.366661,0.299182,-0.401517,0.451364,;0.016159,-0.205229,0.576905,-0.384354,0.173953,0.315314,-0.249374,-0.290145,0.195483,-0.063059,0.090532,0.675578,;-0.804073,0.177948,0.036519,-0.546387,-0.046352,0.304600,0.351621,-0.252762,-0.313809,0.484605,-0.268278,0.409716,;0.114095,0.692877,0.131018,0.548916,0.863537,0.780434,0.845764,0.016269,0.202059,0.165773,0.246495,0.822575,;-0.858074,0.156907,0.091720,-0.437252,0.295709,-0.163163,-0.395382,0.036875,-0.516655,0.580789,-0.350897,-0.166211,;-0.516373,-0.151666,0.177880,-0.217331,0.507094,0.199870,-0.411952,-0.017373,-0.436630,-0.211132,0.267046,-0.226270,;0.601011,0.601159,0.081845,0.512401,0.456352,0.465841,0.747782,0.233262,0.563712,0.595872,-0.119565,0.711032,;0.032861,0.299393,0.305300,-0.107413,-0.133988,-0.039889,0.281976,-0.144797,0.449235,-0.000470,0.259591,-0.029143,;,0.557467,-0.101026,0.155384,-0.082263,-0.683708,-0.366551,-0.021311,0.031174,0.139099,-0.464635,0.673689,-0.544637,,-0.093949,0.733486,-0.019354,0.203590,0.365896,0.695097,0.310383,-0.480862,0.790574,-0.075226,0.072271,0.015892,;-0.062139,0.294764,-0.280970,0.137400,0.392526,-0.172565,0.586669,0.301125,0.587017,0.463018,-0.379701,0.377439,;-0.299865,0.107258,-0.159803,0.039809,0.388926,0.508700,0.627923,-0.182598,0.565507,0.437383,0.049475,-0.009166,;-0.317726,0.299689,0.487246,-0.136167,0.622736,0.000003,0.155638,0.224325,0.434092,0.768508,-0.372243,0.371984,;0.153848,0.370146,-0.143801,0.533122,0.209287,-0.176898,0.135424,0.411677,0.051727,0.326237,-0.512479,0.056935,;-0.175235,0.101741,0.298462,0.104404,0.632189,0.127346,0.045083,0.480823,0.086363,0.470698,-0.445671,0.455438,;0.420555,-0.095406,0.599791,-0.193056,0.301058,0.374127,-0.035533,-0.491601,0.478934,0.066566,-0.128267,0.635743,;-0.215378,0.387467,0.303384,-0.264923,0.101477,0.410360,0.655424,-0.136951,0.079087,0.626720,-0.153282,0.428806,;0.020392,0.662430,0.089216,0.595486,0.824807,0.651017,0.745418,-0.306797,0.386311,0.209236,-0.211196,0.581900,;-0.270996,0.426799,0.258311,-0.063303,0.477646,0.036980,-0.057407,0.015508,-0.097066,0.785175,-0.161724,-0.085102,;0.074752,0.141652,0.540310,0.036513,0.691567,0.395660,0.009082,-0.032231,0.003738,0.002430,0.032590,-0.117515,;0.327314,0.634841,-0.105427,0.569419,0.540718,0.351193,0.661555,-0.182658,0.634004,0.708331,-0.443485,0.555560,;0.444936,0.432300,0.374778,0.056487,-0.023775,0.045752,0.568753,-0.380011,0.781585,0.119858,-0.044582,-0.059108,;,0.768158,0.775484,0.538774,0.576449,0.275085,-0.110476,0.192734,0.615011,0.041567,0.925308,0.115583,0.580626,0.071509,
0.884193,-0.226319,0.505399,-0.183165,-0.160541,0.414031,-0.224830,;-0.282631,0.683038,0.153751,0.448264,0.783061,0.068353,0.494412,;0.169959,0.052270,0.285757,0.725862,1.039454,0.107064,0.277210,;0.740290,0.200337,0.436673,0.229162,0.297943,0.202259,0.451327,;0.532331,1.084209,0.997734,0.083771,0.535877,0.301913,0.308316,;0.527162,0.181404,0.577123,0.520433,-0.034801,0.549249,0.192156,;-0.207514,0.363932,-0.063156,0.717491,-0.034912,0.076517,0.158586,;0.000045,0.488764,0.186936,0.641056,0.525649,0.017781,0.234935,;-0.210961,-0.184463,0.587432,-0.088024,0.714213,0.706201,0.171741,;0.384745,0.586325,0.673058,0.818053,0.414303,0.776149,0.880300,;0.104409,0.794484,0.872224,0.501550,0.566402,0.273942,0.043253,;-0.095116,0.833643,0.167026,0.917603,0.276116,0.632701,0.190345,;,1.320332,-0.329074,-0.462648,0.416388,-1.331273,-0.832594,-0.280157,-0.575713,0.214540,-1.172890,0.309925,-1.128318,,-0.080413,0.142550,-0.246601,0.092062,0.264497,-0.106384,0.413140,0.558192,0.449327,0.319278,-0.016655,0.468710,;-0.800667,-0.166195,-0.417197,-0.265051,0.211182,0.384887,0.311923,-0.287356,0.178281,0.243771,-0.126920,-0.072336,;-0.608933,0.316237,0.593635,-0.201710,0.585313,0.008601,0.033654,0.475352,0.288337,0.702103,-0.022915,0.511359,;0.083444,0.230372,-0.158872,0.401719,0.130757,-0.167967,0.016179,0.586154,-0.161930,0.210815,-0.406234,0.115144,;-0.895160,-0.060018,-0.022046,-0.219716,0.508756,-0.007964,-0.220107,0.351748,-0.371861,0.301640,-0.391865,0.456005,;0.007883,-0.202509,0.583113,-0.384430,0.175338,0.315827,-0.250533,-0.288319,0.199277,-0.059481,0.093449,0.676744,;-0.813783,0.177312,0.034525,-0.547070,-0.043231,0.305762,0.348287,-0.254397,-0.315300,0.490070,-0.268557,0.410652,;0.098485,0.696739,0.125311,0.541689,0.868501,0.778856,0.850178,0.019551,0.188590,0.164757,0.256136,0.828630,;-0.862283,0.155013,0.090332,-0.437402,0.297276,-0.161793,-0.397946,0.035147,-0.517145,0.584343,-0.351900,-0.166154,;-0.516593,-0.153801,0.175470,-0.215591,0.510447,0.201324,-0.416049,-0.019490,-0.437525,-0.207870,0.267225,-0.226632,;0.594763,0.598673,0.080257,0.505358,0.450178,0.462045,0.747645,0.231194,0.561796,0.590654,-0.128303,0.708217,;0.028077,0.302579,0.309998,-0.103254,-0.128989,-0.038206,0.278960,-0.143339,0.453189,0.005268,0.265203,-0.027855,;,0.556920,-0.104895,0.154285,-0.082930,-0.689001,-0.371397,-0.029823,0.027308,0.133484,-0.470139,0.674479,-0.550520,,-0.096023,0.733665,-0.022774,0.203266,0.365825,0.695079,0.310570,-0.487559,0.790590,-0.075388,0.068493,0.015309,;-0.061575,0.295241,-0.279919,0.135450,0.392962,-0.175134,0.587710,0.309861,0.587133,0.463447,-0.387134,0.372589,;-0.300675,0.106647,-0.155814,0.037503,0.388792,0.507811,0.627597,-0.180064,0.565189,0.436893,0.045832,-0.009422,;-0.317824,0.299825,0.484042,-0.135870,0.622728,-0.000505,0.155585,0.225569,0.434048,0.768686,-0.371686,0.370415,;0.150857,0.369879,-0.148166,0.532693,0.209046,-0.177017,0.134921,0.404840,0.051517,0.325927,-0.515106,0.055925,;-0.173438,0.100172,0.313367,0.099813,0.631999,0.126556,0.044454,0.494787,0.085750,0.469971,-0.447238,0.457614,;0.421869,-0.095954,0.602750,-0.192777,0.300811,0.375517,-0.036166,-0.487694,0.478675,0.066324,-0.121366,0.638871,;-0.218126,0.386053,0.309731,-0.268906,0.101033,0.408129,0.654302,-0.134835,0.078320,0.625238,-0.158779,0.427944,;0.018735,0.661900,0.088557,0.594371,0.824573,0.650417,0.744799,-0.307406,0.385970,0.208864,-0.212783,0.581072,;-0.273729,0.426771,0.248610,-0.061122,0.477344,0.037803,-0.058149,0.005953,-0.097190,0.785120,-0.158724,-0.086019,;0.081012,0.142536,0.551979,0.034325,0.692428,0.395557,0.011248,-0.014349,0.004374,0.003730,0.028703,-0.116748,;0.323201,0.633983,-0.113927,0.570472,0.540118,0.351452,0.660056,-0.189725,0.633396,0.707664,-0.439346,0.554131,;0.441705,0.431223,0.376391,0.054066,-0.024253,0.044267,0.567516,-0.383052,0.780954,0.118635,-0.048277,-0.059768,;,0.768645,0.771948,0.535334,0.576809,0.275240,-0.117708,0.193036,0.608036,0.040048,0.929068,0.113022,0.582201,0.067384,
0.874260,-0.243263,0.482991,-0.188020,-0.163427,0.399896,-0.237614,;-0.286568,0.695662,0.151563,0.450703,0.784490,0.066027,0.490153,;0.167233,0.059651,0.288898,0.731411,1.053666,0.107289,0.278029,;0.734496,0.205320,0.423614,0.227263,0.290041,0.193304,0.436679,;0.530462,1.103541,1.000166,0.089202,0.538536,0.301381,0.302039,;0.524056,0.195708,0.576681,0.523603,-0.037763,0.548979,0.189202,;-0.212416,0.373109,-0.068280,0.718166,-0.037134,0.073248,0.154349,;-0.000815,0.487544,0.185575,0.641818,0.529919,0.015083,0.229533,;-0.215990,-0.193355,0.582279,-0.087170,0.725373,0.701509,0.170057,;0.382690,0.588627,0.677105,0.821880,0.419219,0.778179,0.883114,;0.103403,0.799072,0.869617,0.499895,0.570908,0.272169,0.042134,;-0.101492,0.848099,0.166841,0.926274,0.284412,0.630076,0.184214,;,1.334663,-0.331465,-0.464984,0.419612,-1.336277,-0.836430,-0.281089,-0.576054,0.216259,-1.176933,0.310136,-1.132929,,-0.079415,0.139321,-0.245004,0.091757,0.261441,-0.107743,0.408705,0.555475,0.452776,0.317784,-0.023384,0.464562,;-0.793568,-0.169979,-0.419397,-0.262354,0.211638,0.387400,0.309928,-0.289785,0.179307,0.246181,-0.129278,-0.073335,;-0.621710,0.323759,0.602144,-0.201460,0.589274,0.007922,0.033590,0.479912,0.293038,0.705487,-0.014114,0.514214,;0.093537,0.226350,-0.161083,0.403756,0.130374,-0.166214,0.015281,0.584325,-0.162500,0.210329,-0.408032,0.113933,;-0.907954,-0.058300,-0.023057,-0.224291,0.513320,-0.007835,-0.219400,0.353652,-0.378885,0.303037,-0.384376,0.459971,;0.001087,-0.199760,0.589413,-0.384068,0.176732,0.316614,-0.251231,-0.286284,0.203299,-0.055890,0.096730,0.678084,;-0.819428,0.177917,0.033731,-0.545399,-0.039572,0.307905,0.346470,-0.254926,-0.315205,0.496100,-0.266753,0.412269,;0.080509,0.700755,0.119400,0.533758,0.873577,0.776987,0.854340,0.022633,0.174311,0.163433,0.265461,0.834753,;-0.864492,0.153487,0.089276,-0.436654,0.298972,-0.160037,-0.399824,0.033826,-0.517121,0.587957,-0.352142,-0.165884,;-0.516157,-0.156087,0.173101,-0.213833,0.513530,0.202777,-0.420062,-0.021671,-0.438276,-0.204876,0.267154,-0.227163,;0.590190,0.596351,0.078881,0.499282,0.444257,0.458623,0.747691,0.229316,0.560586,0.585851,-0.136538,0.705504,;0.019889,0.304094,0.313285,-0.101901,-0.125062,-0.037610,0.274637,-0.143199,0.455303,0.009774,0.268122,-0.027539,;,0.555221,-0.105951,0.150125,-0.081557,-0.695773,-0.375359,-0.035592,0.022497,0.129242,-0.475071,0.675735,-0.558149,,-0.092752,0.734305,-0.023626,0.205714,0.365915,0.696733,0.311116,-0.485265,0.790821,-0.075114,0.077465,0.017322,;-0.065225,0.295484,-0.281303,0.131702,0.393323,-0.179013,0.588536,0.312226,0.587153,0.463688,-0.403939,0.365754,;-0.299393,0.106265,-0.150504,0.036266,0.388759,0.507735,0.627484,-0.173665,0.564997,0.436603,0.047453,-0.008642,;-0.319917,0.299831,0.479224,-0.136370,0.622651,-0.001690,0.155374,0.223137,0.433926,0.768759,-0.375945,0.367866,;0.151958,0.369928,-0.150371,0.534313,0.208925,-0.175870,0.134691,0.404940,0.051468,0.325925,-0.508098,0.056971,;-0.171774,0.098654,0.328698,0.095112,0.631862,0.126173,0.043930,0.508918,0.085189,0.469259,-0.448628,0.459901,;0.415514,-0.097131,0.601339,-0.196390,0.300314,0.374503,-0.037332,-0.498017,0.478111,0.065477,-0.132929,0.638167,;-0.218036,0.384999,0.317542,-0.271382,0.100731,0.407085,0.653504,-0.128290,0.077754,0.624083,-0.157527,0.428706,;0.017578,0.661449,0.088317,0.593477,0.824382,0.649990,0.744279,-0.306994,0.385677,0.208554,-0.213299,0.580425,;-0.276646,0.426697,0.238495,-0.059009,0.477006,0.038407,-0.058931,-0.004906,-0.097344,0.785007,-0.156867,-0.087085,;0.080619,0.142897,0.560015,0.028955,0.693101,0.393409,0.012927,-0.006555,0.004744,0.004564,0.010136,-0.119308,;0.320062,0.633148,-0.121746,0.571867,0.539528,0.351886,0.658622,-0.195941,0.632814,0.707024,-0.433961,0.553210,;0.442402,0.430563,0.380266,0.053581,-0.024560,0.044166,0.566676,-0.379506,0.780546,0.117784,-0.042864,-0.058436,;,0.772074,0.766632,0.533183,0.576301,0.277530,-0.124700,0.189321,0.603071,0.038814,0.932533,0.107181,0.583928,0.065571,
0.864480,-0.258708,0.461909,-0.192139,-0.164198,0.386220,-0.248800,;-0.290406,0.708684,0.149408,0.453443,0.786079,0.063763,0.485759,;0.164877,0.066558,0.291985,0.736744,1.067504,0.107350,0.278464,;0.728812,0.211156,0.411147,0.225990,0.283372,0.184724,0.422840,;0.528671,1.122642,1.002293,0.094618,0.540655,0.300828,0.295245,;0.520462,0.209750,0.576177,0.526733,-0.040826,0.548797,0.186131,;-0.217576,0.383090,-0.073275,0.719330,-0.038899,0.070107,0.150163,;-0.001215,0.486816,0.184212,0.642854,0.534350,0.012369,0.224012,;-0.220595,-0.201763,0.577631,-0.086010,0.737290,0.696866,0.168721,;0.380670,0.590885,0.681159,0.825662,0.423871,0.780191,0.885607,;0.102744,0.804388,0.867093,0.498514,0.575562,0.270364,0.040941,;-0.107974,0.862917,0.166636,0.935114,0.292541,0.627448,0.177615,;,1.348150,-0.333276,-0.465969,0.422681,-1.340654,-0.841670,-0.282515,-0.574779,0.219216,-1.180773,0.311523,-1.137441,,-0.075322,0.137305,-0.242315,0.093437,0.259079,-0.108315,0.405445,0.553867,0.457662,0.317078,-0.027928,0.461175,;-0.790471,-0.175319,-0.423085,-0.262531,0.211074,0.388738,0.306527,-0.293509,0.178401,0.247524,-0.134321,-0.075269,;-0.630003,0.332298,0.611706,-0.198909,0.593765,0.008188,0.034931,0.485484,0.299431,0.709271,-0.003271,0.517699,;0.099759,0.220895,-0.164641,0.403191,0.129090,-0.165542,0.012977,0.581275,-0.164858,0.208952,-0.412386,0.111879,;-0.917321,-0.056241,-0.023609,-0.227253,0.517961,-0.007028,-0.217833,0.355940,-0.384871,0.304458,-0.376196,0.464135,;-0.008390,-0.198223,0.594612,-0.385867,0.177461,0.316549,-0.252982,-0.285215,0.206003,-0.053150,0.098148,0.678751,;-0.828533,0.177140,0.031659,-0.546209,-0.036762,0.309161,0.343495,-0.256617,-0.316775,0.501261,-0.267238,0.413124,;0.061396,0.704819,0.113360,0.525618,0.878649,0.775216,0.858671,0.025607,0.159467,0.162006,0.274543,0.841056,;-0.866846,0.151598,0.087875,-0.436343,0.300406,-0.158409,-0.401800,0.032265,-0.517398,0.591281,-0.352850,-0.165809,;-0.514671,-0.158901,0.170398,-0.212146,0.516072,0.204168,-0.424123,-0.024183,-0.438996,-0.202330,0.266264,-0.228085,;0.584426,0.594150,0.077641,0.492955,0.438607,0.455055,0.747343,0.227437,0.559351,0.581328,-0.144629,0.702815,;0.016579,0.306086,0.317284,-0.098395,-0.121009,-0.036152,0.271399,-0.142440,0.459059,0.014496,0.272228,-0.026997,;,0.555347,-0.109171,0.148615,-0.082428,-0.700600,-0.380830,-0.043133,0.017356,0.125046,-0.479372,0.676071,-0.563054,,-0.096222,0.734276,-0.027878,0.204488,0.365772,0.696051,0.311121,-0.494709,0.790736,-0.075457,0.069763,0.015870,;-0.060459,0.296537,-0.278056,0.132475,0.394000,-0.180057,0.590048,0.330793,0.587560,0.464708,-0.400043,0.363275,;-0.300975,0.105644,-0.146479,0.033483,0.388642,0.506804,0.627193,-0.172099,0.564693,0.436095,0.042076,-0.009151,;-0.318592,0.300252,0.475445,-0.134771,0.622718,-0.001678,0.155475,0.225988,0.434009,0.769174,-0.371657,0.366853,;0.150193,0.369748,-0.154238,0.534519,0.208711,-0.175683,0.134262,0.399591,0.051304,0.325681,-0.508070,0.056522,;-0.176969,0.096608,0.340320,0.086954,0.631526,0.123892,0.042962,0.510766,0.084385,0.468062,-0.466193,0.459148,;0.418985,-0.097413,0.604502,-0.194828,0.300143,0.376674,-0.037756,-0.491918,0.477988,0.065482,-0.121242,0.642362,;-0.222034,0.383670,0.323293,-0.276010,0.100324,0.404952,0.652487,-0.129442,0.077069,0.622635,-0.166105,0.427544,;0.016415,0.661043,0.087858,0.592684,0.824202,0.649602,0.743788,-0.306865,0.385404,0.208277,-0.213790,0.579774,;-0.277177,0.426851,0.229193,-0.055520,0.476722,0.039701,-0.059567,-0.012835,-0.097394,0.785070,-0.149235,-0.087136,;0.085059,0.143645,0.570900,0.026063,0.693960,0.392970,0.014970,0.011501,0.005308,0.005827,0.003424,-0.119168,;0.316242,0.632304,-0.130142,0.573005,0.538911,0.352003,0.657164,-0.204521,0.632227,0.706340,-0.430521,0.551822,;0.438678,0.429563,0.381889,0.050761,-0.025000,0.042750,0.565557,-0.384306,0.779979,0.116587,-0.048178,-0.059279,;,0.771461,0.766149,0.529431,0.578170,0.278263,-0.135010,0.191302,0.596060,0.037745,0.937385,0.104053,0.585297,0.061387,
0.854261,-0.276201,0.442213,-0.196342,-0.163191,0.373568,-0.257784,;-0.294217,0.721952,0.147085,0.456168,0.787961,0.061499,0.481389,;0.162572,0.073358,0.294840,0.741986,1.081303,0.107231,0.278762,;0.723208,0.216465,0.399293,0.224679,0.277685,0.176681,0.410022,;0.527397,1.142442,1.004009,0.099976,0.542358,0.300101,0.288003,;0.517750,0.224024,0.575518,0.529984,-0.043960,0.548616,0.182996,;-0.222657,0.393310,-0.078244,0.720634,-0.040196,0.067074,0.146215,;-0.002220,0.486362,0.182963,0.643834,0.538977,0.009621,0.218562,;-0.225772,-0.210724,0.573503,-0.084777,0.750086,0.692419,0.168226,;0.378510,0.593475,0.685140,0.829539,0.428497,0.782007,0.888066,;0.102156,0.810155,0.864490,0.497107,0.580285,0.268646,0.039498,;-0.114209,0.878367,0.166302,0.944101,0.300723,0.624660,0.170978,;,1.358314,-0.334705,-0.466367,0.425323,-1.342873,-0.844095,-0.283555,-0.575099,0.220257,-1.184887,0.313322,-1.140746,,-0.077476,0.133628,-0.241362,0.091315,0.255914,-0.110349,0.400347,0.550834,0.459949,0.315452,-0.035204,0.456943,;-0.784295,-0.179754,-0.425985,-0.260941,0.211002,0.390807,0.304246,-0.296352,0.178569,0.249342,-0.137611,-0.076649,;-0.639249,0.340772,0.621137,-0.196939,0.598141,0.008227,0.036201,0.490954,0.305491,0.712801,0.007319,0.521161,;0.107328,0.215815,-0.167919,0.403438,0.128095,-0.164556,0.011077,0.578582,-0.166761,0.207825,-0.415969,0.110038,;-0.925227,-0.053990,-0.024189,-0.229498,0.522667,-0.005941,-0.215759,0.358367,-0.390729,0.305702,-0.367753,0.468419,;-0.015924,-0.196007,0.600473,-0.386496,0.178578,0.316989,-0.253949,-0.283491,0.209461,-0.050026,0.100810,0.679873,;-0.835342,0.177002,0.030170,-0.545762,-0.033660,0.310964,0.341406,-0.257700,-0.317604,0.506666,-0.266530,0.414370,;0.048096,0.710854,0.108880,0.521325,0.884734,0.774952,0.865147,0.030094,0.146856,0.161366,0.286648,0.848458,;-0.870318,0.149294,0.085966,-0.436904,0.301540,-0.157100,-0.403978,0.030403,-0.518482,0.594197,-0.354226,-0.165922,;-0.509509,-0.161160,0.168119,-0.208765,0.518882,0.206252,-0.427136,-0.026080,-0.438693,-0.199627,0.266677,-0.228659,;0.577209,0.591778,0.076564,0.486182,0.432903,0.451285,0.746381,0.225350,0.558122,0.577092,-0.153235,0.699947,;0.011748,0.307033,0.320246,-0.096456,-0.117614,-0.035321,0.267481,-0.142480,0.461706,0.018401,0.274746,-0.027035,;,0.551991,-0.110483,0.146844,-0.082563,-0.704443,-0.385052,-0.049098,0.015756,0.120459,-0.481510,0.675301,-0.568727,,-0.095940,0.734596,-0.030021,0.205294,0.365764,0.696586,0.311419,-0.497507,0.790814,-0.075461,0.071006,0.016265,;-0.060036,0.297307,-0.277638,0.131317,0.394559,-0.182563,0.591317,0.342027,0.587844,0.465416,-0.406107,0.358507,;-0.300965,0.105173,-0.141392,0.031471,0.388595,0.506458,0.627050,-0.167469,0.564475,0.435735,0.040500,-0.008795,;-0.320251,0.300497,0.469517,-0.134484,0.622702,-0.002668,0.155407,0.223014,0.434009,0.769399,-0.374589,0.364294,;0.147583,0.369506,-0.158950,0.534384,0.208457,-0.175806,0.133754,0.392131,0.051105,0.325376,-0.510121,0.055608,;-0.172446,0.095469,0.357051,0.083989,0.631538,0.125036,0.042762,0.529959,0.084037,0.467723,-0.460055,0.463490,;0.414409,-0.098391,0.603461,-0.197492,0.299725,0.376303,-0.038754,-0.499900,0.477526,0.064816,-0.128809,0.642471,;-0.222197,0.382740,0.330906,-0.278609,0.100066,0.404241,0.651816,-0.124486,0.076592,0.621565,-0.165748,0.428468,;0.014363,0.660551,0.087197,0.591300,0.824002,0.648939,0.743256,-0.308302,0.385103,0.207926,-0.216667,0.578698,;-0.276696,0.427083,0.220177,-0.051521,0.476460,0.041142,-0.060145,-0.019556,-0.097417,0.785218,-0.139783,-0.086805,;0.088345,0.144337,0.581337,0.022818,0.694811,0.392231,0.016974,0.029674,0.005850,0.007019,-0.004775,-0.119577,;0.312518,0.631473,-0.138652,0.574132,0.538307,0.351994,0.655727,-0.213381,0.631644,0.705685,-0.427598,0.550334,;0.437369,0.428770,0.385048,0.048993,-0.025357,0.042220,0.564643,-0.385413,0.779527,0.115600,-0.048226,-0.058771,;,0.772905,0.763624,0.526615,0.578682,0.278598,-0.139432,0.188825,0.591469,0.036073,0.942640,0.100629,0.586549,0.058463,
0.844255,-0.293852,0.423804,-0.200287,-0.160299,0.361918,-0.264889,;-0.298709,0.735278,0.144778,0.458968,0.790283,0.059189,0.477079,;0.159927,0.079511,0.297245,0.746986,1.094920,0.106922,0.278734,;0.716999,0.221618,0.388243,0.223548,0.273343,0.169127,0.398301,;0.525153,1.162029,1.005404,0.105161,0.543861,0.299175,0.280418,;0.514264,0.238062,0.574882,0.532989,-0.047247,0.548491,0.179841,;-0.228469,0.403978,-0.082969,0.722132,-0.040925,0.064126,0.142524,;-0.003262,0.486242,0.181610,0.645131,0.544058,0.006743,0.213124,;-0.230695,-0.219714,0.569432,-0.083304,0.763695,0.688106,0.168217,;0.376528,0.596488,0.688784,0.833525,0.432850,0.783625,0.890204,;0.100976,0.815857,0.862007,0.495650,0.585300,0.266993,0.038069,;-0.121283,0.894114,0.165679,0.953145,0.308949,0.621698,0.164090,;,1.368423,-0.337677,-0.467985,0.426153,-1.347926,-0.848949,-0.286064,-0.575096,0.222114,-1.188419,0.313352,-1.146169,,-0.074850,0.131865,-0.238619,0.092286,0.253713,-0.111208,0.397112,0.549499,0.464430,0.314886,-0.039289,0.453811,;-0.776090,-0.183758,-0.428616,-0.258345,0.211175,0.393274,0.302621,-0.298751,0.179204,0.251341,-0.140016,-0.077751,;-0.650660,0.348476,0.629864,-0.196557,0.601968,0.007626,0.036876,0.495821,0.310418,0.715637,0.016537,0.524247,;0.117585,0.211569,-0.170404,0.405335,0.127518,-0.162970,0.010045,0.576642,-0.167592,0.207151,-0.418140,0.108621,;-0.936776,-0.053190,-0.026146,-0.234210,0.526465,-0.005841,-0.214900,0.359553,-0.398553,0.305827,-0.361927,0.471874,;-0.022500,-0.193794,0.606305,-0.386958,0.179612,0.317469,-0.254631,-0.281653,0.212915,-0.047070,0.103540,0.681071,;-0.840935,0.176913,0.028578,-0.544924,-0.030494,0.313007,0.339725,-0.258673,-0.318403,0.511991,-0.265486,0.415708,;0.024649,0.714423,0.101899,0.511483,0.889469,0.772619,0.868822,0.032151,0.130317,0.159090,0.294042,0.854442,;-0.870898,0.147792,0.084715,-0.435870,0.303082,-0.155142,-0.405111,0.029295,-0.518670,0.597454,-0.354148,-0.165537,;-0.505111,-0.164481,0.164894,-0.206524,0.521024,0.207868,-0.430784,-0.028756,-0.439330,-0.197650,0.265520,-0.229879,;0.571073,0.589949,0.076014,0.480335,0.427599,0.447857,0.745715,0.223682,0.557629,0.573400,-0.160978,0.697407,;0.008780,0.307800,0.323271,-0.094091,-0.114539,-0.034401,0.263810,-0.142501,0.464710,0.021997,0.277090,-0.027275,;,0.551571,-0.110573,0.144011,-0.081138,-0.710255,-0.388673,-0.054215,0.008771,0.117690,-0.484178,0.674937,-0.573337,,-0.093853,0.735032,-0.030904,0.206900,0.365813,0.697643,0.311819,-0.497210,0.790956,-0.075351,0.076542,0.017440,;-0.063898,0.297707,-0.278824,0.127813,0.395029,-0.186311,0.592311,0.347636,0.587961,0.465773,-0.422050,0.351694,;-0.301880,0.104646,-0.136798,0.028987,0.388532,0.505901,0.626871,-0.164436,0.564234,0.435320,0.036794,-0.008879,;-0.319540,0.300975,0.464496,-0.132768,0.622768,-0.002939,0.155513,0.224307,0.434115,0.769859,-0.371770,0.362930,;0.149793,0.369682,-0.161060,0.536745,0.208349,-0.174377,0.133578,0.392461,0.051110,0.325452,-0.500852,0.057110,;-0.175187,0.093765,0.369461,0.077397,0.631314,0.124107,0.042081,0.535574,0.083425,0.466821,-0.470871,0.464386,;0.412555,-0.099104,0.603565,-0.198676,0.299396,0.376807,-0.039515,-0.504167,0.477204,0.064403,-0.130341,0.643971,;-0.221912,0.381951,0.338388,-0.280829,0.099839,0.403869,0.651244,-0.119667,0.076189,0.620592,-0.164281,0.429643,;0.013290,0.660195,0.086880,0.590549,0.823856,0.648588,0.742836,-0.308016,0.384869,0.207711,-0.217350,0.578087,;-0.278658,0.427112,0.209319,-0.048557,0.476107,0.041628,-0.060916,-0.030957,-0.097550,0.785162,-0.136207,-0.087876,;0.085058,0.144376,0.589184,0.015816,0.695475,0.389516,0.018490,0.038151,0.006090,0.007633,-0.028328,-0.123081,;0.311293,0.630909,-0.146203,0.576769,0.537785,0.352724,0.654502,-0.218744,0.631192,0.705256,-0.418918,0.549953,;0.437922,0.428222,0.388963,0.048318,-0.025634,0.042354,0.563926,-0.383844,0.779196,0.114836,-0.044072,-0.057352,;,0.775204,0.758634,0.523394,0.580660,0.281591,-0.147416,0.187981,0.587491,0.035070,0.946576,0.093336,0.589315,0.056761,
0.834870,-0.312054,0.406947,-0.204233,-0.156270,0.350651,-0.270438,;-0.302763,0.748990,0.142392,0.461966,0.792470,0.056838,0.472289,;0.157443,0.085262,0.299431,0.751637,1.107958,0.106382,0.278177,;0.711735,0.226965,0.377915,0.222779,0.269607,0.161768,0.387034,;0.523676,1.181960,1.006439,0.110399,0.544604,0.298083,0.271944,;0.511349,0.252137,0.574172,0.536047,-0.050795,0.548303,0.176330,;-0.233937,0.415233,-0.087623,0.723999,-0.041539,0.061228,0.138580,;-0.004224,0.486483,0.180247,0.646544,0.549081,0.003881,0.207461,;-0.235840,-0.229020,0.565729,-0.082021,0.777447,0.683891,0.168461,;0.374174,0.599426,0.692188,0.837281,0.436780,0.785301,0.891986,;0.100343,0.822301,0.859569,0.494462,0.590231,0.265160,0.036253,;-0.127917,0.910207,0.164850,0.962197,0.316581,0.618625,0.156426,;,1.377980,-0.338863,-0.468965,0.429286,-1.349931,-0.851732,-0.287170,-0.574789,0.222531,-1.193185,0.315544,-1.149973,,-0.075964,0.129416,-0.236697,0.091175,0.251191,-0.112809,0.393017,0.547544,0.467442,0.314014,-0.044605,0.450458,;-0.771481,-0.188863,-0.432364,-0.258049,0.210631,0.394823,0.299905,-0.302112,0.178277,0.252609,-0.144408,-0.079499,;-0.661728,0.355705,0.638029,-0.196595,0.605493,0.006860,0.037546,0.500411,0.314932,0.717914,0.025249,0.527148,;0.126240,0.206985,-0.173170,0.406346,0.126685,-0.161746,0.008553,0.574391,-0.168946,0.206304,-0.421046,0.107018,;-0.942998,-0.051325,-0.027099,-0.236045,0.530776,-0.004611,-0.212490,0.361755,-0.404594,0.306358,-0.354134,0.475949,;-0.032153,-0.192945,0.610854,-0.389772,0.179889,0.317004,-0.256510,-0.280909,0.214773,-0.045012,0.104085,0.681532,;-0.848197,0.176486,0.026624,-0.545093,-0.027669,0.314701,0.337747,-0.259993,-0.319847,0.517008,-0.265225,0.416867,;0.010912,0.721148,0.097743,0.507831,0.895889,0.772835,0.876103,0.036923,0.117606,0.158308,0.306839,0.862334,;-0.875003,0.145183,0.082304,-0.437107,0.303947,-0.154035,-0.407263,0.027220,-0.520496,0.599985,-0.356025,-0.165738,;-0.496725,-0.166843,0.162561,-0.202083,0.523545,0.210310,-0.433193,-0.030540,-0.438461,-0.195255,0.266082,-0.230628,;0.563112,0.587324,0.074884,0.473326,0.422080,0.443941,0.743990,0.221317,0.556526,0.569554,-0.169927,0.694350,;0.006716,0.308383,0.326144,-0.091652,-0.111705,-0.033455,0.260306,-0.142569,0.467789,0.025363,0.279269,-0.027594,;,0.549157,-0.112537,0.141361,-0.080572,-0.713063,-0.394102,-0.059948,0.007596,0.113107,-0.484446,0.673086,-0.577381,,-0.099010,0.734817,-0.035819,0.204669,0.365619,0.696314,0.311676,-0.509658,0.790780,-0.075849,0.064736,0.014966,;-0.061635,0.298754,-0.276793,0.127829,0.395734,-0.187984,0.593842,0.364751,0.588394,0.466699,-0.422912,0.347932,;-0.301280,0.104262,-0.131155,0.027248,0.388527,0.505958,0.626814,-0.158839,0.564070,0.435041,0.036730,-0.008114,;-0.320659,0.301354,0.457774,-0.131800,0.622778,-0.003840,0.155498,0.222111,0.434167,0.770199,-0.373050,0.360536,;0.146734,0.369366,-0.165930,0.536244,0.208066,-0.174685,0.133022,0.383607,0.050881,0.325060,-0.504201,0.055945,;-0.174062,0.092465,0.383407,0.073041,0.631239,0.124698,0.041695,0.546950,0.083019,0.466292,-0.472351,0.467327,;0.410340,-0.099848,0.603132,-0.200069,0.299052,0.377102,-0.040282,-0.509420,0.476869,0.063962,-0.132904,0.645183,;-0.225984,0.380827,0.343551,-0.285366,0.099500,0.402199,0.650425,-0.122347,0.075639,0.619297,-0.173235,0.428721,;0.012495,0.659889,0.086817,0.589949,0.823727,0.648357,0.742469,-0.307382,0.384660,0.207534,-0.217484,0.577655,;-0.275121,0.427639,0.201117,-0.042555,0.475917,0.043680,-0.061311,-0.033559,-0.097456,0.785595,-0.120030,-0.086256,;0.086814,0.144895,0.599314,0.011616,0.696316,0.388623,0.020372,0.055795,0.006570,0.008660,-0.039115,-0.124118,;0.310993,0.630406,-0.152946,0.579788,0.537294,0.353587,0.653350,-0.222734,0.630771,0.704911,-0.408699,0.550006,;0.434752,0.427372,0.391180,0.045585,-0.026011,0.041340,0.563000,-0.388690,0.778731,0.113785,-0.049008,-0.057707,;,0.773323,0.757322,0.521087,0.581895,0.281480,-0.152612,0.186916,0.581271,0.034239,0.953591,0.089194,0.592332,0.052982,
0.826802,-0.330764,0.391012,-0.208442,-0.151491,0.340225,-0.274614,;-0.307018,0.762745,0.139930,0.464675,0.794371,0.054264,0.467223,;0.154767,0.090758,0.301388,0.756089,1.120624,0.105529,0.277258,;0.706426,0.232080,0.367936,0.221546,0.266107,0.154770,0.376358,;0.521364,1.201936,1.007110,0.115201,0.544670,0.296734,0.262992,;0.508012,0.266161,0.573328,0.538836,-0.054690,0.548134,0.172720,;-0.239364,0.426776,-0.092191,0.725728,-0.042281,0.058262,0.134554,;-0.005225,0.486962,0.178868,0.647978,0.554166,0.000853,0.201667,;-0.240124,-0.238372,0.562313,-0.080513,0.791554,0.679649,0.168956,;0.372342,0.602639,0.695564,0.841441,0.440640,0.786732,0.893534,;0.099021,0.828871,0.857051,0.492726,0.594692,0.263197,0.034101,;-0.134650,0.926805,0.163854,0.971189,0.323808,0.615283,0.148357,;,1.390028,-0.340280,-0.470296,0.431737,-1.354178,-0.855754,-0.287742,-0.574375,0.225605,-1.196087,0.315731,-1.153543,,-0.073789,0.128100,-0.233630,0.092045,0.249295,-0.113672,0.390040,0.546654,0.471923,0.313764,-0.047834,0.447747,;-0.766169,-0.193341,-0.435500,-0.257074,0.210367,0.396693,0.297728,-0.304942,0.177844,0.254296,-0.147870,-0.080839,;-0.672028,0.363027,0.646179,-0.196405,0.609030,0.006177,0.038570,0.505147,0.319428,0.720004,0.034196,0.530165,;0.133400,0.202254,-0.176024,0.406670,0.125717,-0.160818,0.006688,0.571962,-0.170681,0.205406,-0.424441,0.105303,;-0.953598,-0.050990,-0.029684,-0.240656,0.534201,-0.004473,-0.211440,0.362586,-0.412892,0.305754,-0.349129,0.479170,;-0.039761,-0.191164,0.616292,-0.391229,0.180653,0.317110,-0.257459,-0.279333,0.217566,-0.042451,0.106155,0.682635,;-0.854985,0.176169,0.024844,-0.545043,-0.024863,0.316524,0.336017,-0.261185,-0.321143,0.522039,-0.264745,0.418072,;-0.009599,0.725668,0.090942,0.500071,0.901151,0.771467,0.881375,0.039579,0.101483,0.155812,0.315673,0.868960,;-0.875886,0.143665,0.080986,-0.436349,0.305345,-0.152112,-0.408195,0.026150,-0.521001,0.603088,-0.355988,-0.165304,;-0.495929,-0.172008,0.157483,-0.202743,0.524427,0.210723,-0.438230,-0.034720,-0.441226,-0.194629,0.261842,-0.233004,;0.560113,0.586311,0.075515,0.469534,0.417520,0.441300,0.743736,0.220383,0.557839,0.566938,-0.176043,0.692228,;0.002719,0.307654,0.327871,-0.091091,-0.109724,-0.033340,0.255815,-0.143629,0.469590,0.027745,0.279391,-0.028748,;,0.548610,-0.113882,0.139259,-0.080762,-0.718210,-0.398224,-0.065234,0.002877,0.110516,-0.488961,0.673769,-0.582582,,-0.095225,0.735311,-0.035012,0.206851,0.365712,0.697876,0.312163,-0.505939,0.790951,-0.075656,0.074015,0.016950,;-0.059661,0.299844,-0.275312,0.127856,0.396454,-0.189733,0.595362,0.381931,0.588847,0.467674,-0.424022,0.343946,;-0.303508,0.103644,-0.127062,0.024044,0.388442,0.505102,0.626589,-0.157944,0.563803,0.434552,0.029772,-0.008684,;-0.320537,0.301904,0.451266,-0.129928,0.622834,-0.004367,0.155598,0.221312,0.434300,0.770676,-0.371483,0.358694,;0.148007,0.369420,-0.168408,0.538077,0.207909,-0.173611,0.132744,0.381713,0.050827,0.325028,-0.497455,0.057063,;-0.179364,0.090675,0.393440,0.065468,0.630982,0.123378,0.040915,0.547326,0.082384,0.465265,-0.488654,0.467116,;0.409911,-0.100409,0.603078,-0.200311,0.298767,0.378007,-0.040934,-0.512406,0.476617,0.063710,-0.131341,0.647239,;-0.226503,0.380043,0.350541,-0.288048,0.099276,0.401774,0.649880,-0.119472,0.075259,0.618317,-0.173901,0.429683,;0.011258,0.659544,0.086535,0.589069,0.823588,0.647953,0.742091,-0.307695,0.384442,0.207311,-0.218869,0.576969,;-0.280453,0.427392,0.188081,-0.041280,0.475446,0.042772,-0.062309,-0.051615,-0.097731,0.785262,-0.124928,-0.089222,;0.089184,0.145476,0.609937,0.007887,0.697206,0.388012,0.022304,0.076283,0.007077,0.009803,-0.047798,-0.124838,;0.304390,0.629353,-0.162819,0.579348,0.536614,0.352365,0.651800,-0.237682,0.630099,0.704014,-0.413743,0.546855,;0.434547,0.426775,0.395039,0.044291,-0.026302,0.041303,0.562291,-0.389053,0.778393,0.112968,-0.047260,-0.056505,;,0.776130,0.756284,0.517232,0.583980,0.283778,-0.161051,0.187126,0.577230,0.033126,0.955367,0.085671,0.591487,0.050868,
0.818116,-0.350695,0.377023,-0.212837,-0.146358,0.330381,-0.277783,;-0.311146,0.776413,0.137565,0.467348,0.796521,0.051735,0.462105,;0.152611,0.095422,0.302911,0.760480,1.133557,0.104844,0.276326,;0.701391,0.236882,0.359051,0.220524,0.263287,0.148019,0.366211,;0.520069,1.221987,1.007393,0.120246,0.545030,0.295371,0.253819,;0.505340,0.280223,0.572496,0.541684,-0.058494,0.547907,0.168917,;-0.244985,0.438509,-0.096355,0.727398,-0.042971,0.055306,0.130430,;-0.006293,0.487500,0.177512,0.649561,0.559470,-0.002068,0.195992,;-0.244947,-0.248583,0.559267,-0.079217,0.805837,0.675800,0.169870,;0.370039,0.605886,0.698575,0.845198,0.444022,0.788233,0.894864,;0.098427,0.835455,0.854594,0.491393,0.599800,0.261288,0.031916,;-0.141072,0.943429,0.162700,0.980123,0.330895,0.611994,0.139987,;,1.397813,-0.341191,-0.469652,0.434038,-1.354927,-0.857778,-0.289060,-0.574068,0.226647,-1.200439,0.318591,-1.156126,,-0.076666,0.125463,-0.232073,0.089911,0.246723,-0.115640,0.385721,0.544599,0.474214,0.312818,-0.053344,0.444415,;-0.761464,-0.197854,-0.438925,-0.256466,0.210025,0.398389,0.295582,-0.307817,0.176863,0.255773,-0.151495,-0.082177,;-0.679213,0.370974,0.655224,-0.194710,0.612602,0.006003,0.040383,0.510487,0.325476,0.722328,0.044083,0.533479,;0.140870,0.198017,-0.178556,0.407537,0.125052,-0.159682,0.005189,0.569914,-0.172301,0.204812,-0.427146,0.103891,;-0.959248,-0.049172,-0.030756,-0.242163,0.538267,-0.003184,-0.208787,0.364689,-0.419133,0.305848,-0.341842,0.483168,;-0.047037,-0.189554,0.621519,-0.392827,0.181199,0.317139,-0.258321,-0.277827,0.220208,-0.040093,0.107920,0.683714,;-0.863165,0.175389,0.022272,-0.545991,-0.022313,0.317971,0.334014,-0.262816,-0.323470,0.526564,-0.265061,0.419046,;-0.023107,0.732793,0.086768,0.497239,0.907875,0.772065,0.889138,0.044357,0.088639,0.154693,0.328775,0.876966,;-0.881032,0.140788,0.078008,-0.438339,0.305970,-0.151253,-0.410321,0.023865,-0.523751,0.605203,-0.358354,-0.165582,;-0.486704,-0.174391,0.155253,-0.198143,0.526526,0.213080,-0.440454,-0.036461,-0.440184,-0.192489,0.262085,-0.233943,;0.552434,0.583459,0.074397,0.462611,0.412212,0.437505,0.741626,0.217903,0.557040,0.563500,-0.184944,0.689150,;0.001797,0.307705,0.330554,-0.088830,-0.107645,-0.032669,0.252201,-0.143976,0.472891,0.030555,0.280589,-0.029591,;,0.545345,-0.115331,0.138857,-0.080607,-0.720455,-0.402147,-0.071021,0.002318,0.105760,-0.488497,0.671409,-0.585946,,-0.098536,0.735220,-0.038416,0.205466,0.365600,0.697027,0.312187,-0.513600,0.790839,-0.076014,0.066449,0.015269,;-0.063187,0.300545,-0.277023,0.125203,0.397055,-0.193275,0.596555,0.391183,0.589123,0.468319,-0.437843,0.337192,;-0.302781,0.103299,-0.121246,0.022354,0.388457,0.505281,0.626591,-0.152216,0.563671,0.434302,0.029897,-0.007805,;-0.321371,0.302411,0.443996,-0.128395,0.622867,-0.005216,0.155646,0.218894,0.434408,0.771115,-0.372055,0.356414,;0.146526,0.369221,-0.172454,0.538432,0.207660,-0.173492,0.132279,0.374994,0.050655,0.324752,-0.497322,0.056778,;-0.173238,0.089848,0.409674,0.063965,0.631033,0.125985,0.040872,0.565780,0.082212,0.465144,-0.477421,0.472918,;0.406522,-0.101214,0.601166,-0.202175,0.298382,0.378019,-0.041770,-0.521300,0.476252,0.063152,-0.136753,0.647745,;-0.227910,0.379267,0.356336,-0.291044,0.099031,0.401161,0.649318,-0.119284,0.074886,0.617295,-0.176633,0.430138,;0.009763,0.659200,0.086332,0.588040,0.823465,0.647487,0.741731,-0.308076,0.384229,0.207097,-0.220994,0.576146,;-0.277565,0.427809,0.179771,-0.035718,0.475219,0.044387,-0.062771,-0.056482,-0.097689,0.785593,-0.111116,-0.088022,;0.089963,0.145946,0.619704,0.003464,0.698059,0.387044,0.024115,0.095539,0.007528,0.010840,-0.059246,-0.126316,;0.303800,0.628786,-0.168826,0.581916,0.536136,0.352926,0.650699,-0.242577,0.629674,0.703612,-0.405470,0.546729,;0.432801,0.426099,0.397818,0.042202,-0.026625,0.040818,0.561521,-0.392618,0.778022,0.112050,-0.049360,-0.056143,;,0.774950,0.752426,0.515103,0.585656,0.284446,-0.162663,0.185640,0.573048,0.031841,0.961551,0.081584,0.593711,0.047972,
0.810891,-0.370413,0.363624,-0.217119,-0.140650,0.321009,-0.279808,;-0.315922,0.790234,0.134901,0.469884,0.798291,0.049040,0.456571,;0.149985,0.099809,0.304218,0.764550,1.145954,0.103692,0.274996,;0.696036,0.241724,0.350352,0.219282,0.260441,0.141546,0.356294,;0.517361,1.241896,1.007367,0.124785,0.544523,0.293755,0.243949,;0.501822,0.294152,0.571533,0.544230,-0.062735,0.547680,0.164928,;-0.251063,0.450703,-0.100760,0.729156,-0.043825,0.052357,0.126087,;-0.007580,0.488319,0.176065,0.651188,0.564689,-0.005167,0.190034,;-0.249148,-0.258636,0.556176,-0.077714,0.820345,0.671691,0.170991,;0.367928,0.609338,0.701343,0.849199,0.447357,0.789445,0.896109,;0.097041,0.842252,0.852015,0.489707,0.604392,0.259275,0.029160,;-0.148409,0.960455,0.161199,0.988906,0.337265,0.608320,0.131035,;,1.408178,-0.343429,-0.470424,0.435151,-1.359289,-0.862025,-0.291085,-0.574199,0.229133,-1.204084,0.319396,-1.160952,,-0.075589,0.124348,-0.228965,0.090297,0.244933,-0.116638,0.382855,0.543918,0.478358,0.312742,-0.056260,0.442003,;-0.756205,-0.202016,-0.441937,-0.255442,0.209834,0.400247,0.293667,-0.310404,0.176327,0.257501,-0.154609,-0.083351,;-0.689496,0.377810,0.662956,-0.195156,0.615526,0.004948,0.041368,0.514918,0.329637,0.723654,0.052088,0.536224,;0.147890,0.193649,-0.181119,0.408079,0.124364,-0.158654,0.003441,0.567752,-0.173907,0.204221,-0.430019,0.102398,;-0.969722,-0.049230,-0.033773,-0.246891,0.541323,-0.003128,-0.207764,0.365165,-0.427857,0.304658,-0.337747,0.486116,;-0.054588,-0.188051,0.626591,-0.394698,0.181749,0.317045,-0.259226,-0.276358,0.222491,-0.037888,0.109573,0.684786,;-0.870048,0.175219,0.020395,-0.546023,-0.019545,0.319819,0.332583,-0.263956,-0.325001,0.531473,-0.264498,0.420342,;-0.046596,0.736741,0.078943,0.488234,0.912859,0.770440,0.894123,0.046223,0.071014,0.151308,0.336326,0.883323,;-0.882639,0.139115,0.076270,-0.438104,0.307156,-0.149531,-0.411204,0.022646,-0.524959,0.607994,-0.358756,-0.165203,;-0.480819,-0.178267,0.151675,-0.196018,0.527777,0.214462,-0.444082,-0.039458,-0.440629,-0.191239,0.259957,-0.235811,;0.548554,0.582059,0.074776,0.458364,0.407724,0.434663,0.740722,0.216656,0.558040,0.561083,-0.191544,0.686840,;0.001456,0.307190,0.332885,-0.086928,-0.105987,-0.032211,0.248331,-0.144647,0.476121,0.032899,0.281115,-0.030830,;,0.544362,-0.116368,0.136864,-0.080761,-0.725370,-0.406194,-0.075872,-0.003456,0.103134,-0.490008,0.671067,-0.589162,,-0.098155,0.735435,-0.039605,0.206031,0.365603,0.697346,0.312450,-0.515463,0.790879,-0.076070,0.067450,0.015387,;-0.065456,0.301454,-0.278325,0.123470,0.397706,-0.196421,0.597920,0.402809,0.589497,0.469090,-0.448676,0.331089,;-0.303661,0.102814,-0.116061,0.019736,0.388436,0.504997,0.626499,-0.148536,0.563479,0.433916,0.026282,-0.007722,;-0.320355,0.303143,0.437156,-0.125670,0.622961,-0.005561,0.155839,0.219056,0.434620,0.771760,-0.368209,0.354984,;0.147461,0.369209,-0.175034,0.539989,0.207472,-0.172539,0.131935,0.371796,0.050563,0.324659,-0.491560,0.057783,;-0.177340,0.088203,0.419440,0.057198,0.630790,0.125444,0.040151,0.566631,0.081654,0.464200,-0.490096,0.473449,;0.406710,-0.101700,0.600730,-0.201966,0.298104,0.379133,-0.042359,-0.524689,0.476040,0.062925,-0.133770,0.650042,;-0.227697,0.378639,0.363072,-0.293197,0.098833,0.401173,0.648876,-0.116852,0.074589,0.616408,-0.175654,0.431518,;0.008326,0.658875,0.086291,0.587038,0.823355,0.647030,0.741405,-0.308158,0.384029,0.206905,-0.223066,0.575355,;-0.278657,0.427838,0.169447,-0.032354,0.474857,0.044687,-0.063535,-0.068097,-0.097836,0.785572,-0.106538,-0.088805,;0.086598,0.146110,0.626973,-0.003167,0.698819,0.384679,0.025731,0.108770,0.007859,0.011523,-0.080561,-0.130053,;0.301344,0.628034,-0.175694,0.583409,0.535594,0.352950,0.649442,-0.250946,0.629156,0.703056,-0.401471,0.545724,;0.433198,0.425588,0.402236,0.041130,-0.026882,0.041076,0.560915,-0.392584,0.777736,0.111305,-0.046650,-0.054587,;,0.775785,0.749355,0.512062,0.588636,0.286437,-0.169630,0.186379,0.569876,0.030573,0.965326,0.075153,0.594821,0.046191,
0.803743,-0.391901,0.350675,-0.222131,-0.133900,0.312274,-0.280706,;-0.320615,0.803938,0.132180,0.472524,0.800426,0.046411,0.450980,;0.147366,0.103663,0.305527,0.768503,1.158437,0.102554,0.273668,;0.691112,0.245902,0.341802,0.218084,0.258487,0.135341,0.346826,;0.515183,1.262012,1.007241,0.129727,0.544144,0.292073,0.233832,;0.498594,0.308023,0.570478,0.546924,-0.066889,0.547416,0.160780,;-0.257128,0.462896,-0.105214,0.730986,-0.044353,0.049518,0.121715,;-0.008715,0.489321,0.174737,0.652973,0.570147,-0.008191,0.184200,;-0.253512,-0.269432,0.553365,-0.076563,0.835242,0.667937,0.172729,;0.365691,0.613061,0.704270,0.853125,0.450432,0.790731,0.897439,;0.095735,0.848924,0.849168,0.488151,0.609206,0.257244,0.026072,;-0.155440,0.977731,0.159806,0.997886,0.343775,0.604716,0.122021,;,1.417101,-0.344759,-0.470794,0.437289,-1.361256,-0.865015,-0.292515,-0.573641,0.230851,-1.207960,0.320867,-1.163968,,-0.075857,0.123037,-0.226244,0.089984,0.243205,-0.117814,0.379739,0.543050,0.481921,0.312703,-0.059396,0.439625,;-0.751364,-0.206172,-0.445188,-0.254593,0.209722,0.402089,0.291851,-0.312987,0.175306,0.259184,-0.157651,-0.084449,;-0.699206,0.384592,0.670753,-0.195504,0.618329,0.003911,0.042411,0.519350,0.334126,0.724896,0.060024,0.538927,;0.156198,0.189865,-0.183221,0.409619,0.124111,-0.157192,0.002260,0.566105,-0.175114,0.204035,-0.431818,0.101289,;-0.976192,-0.047827,-0.035370,-0.248857,0.545208,-0.001953,-0.205263,0.366880,-0.434800,0.304279,-0.331230,0.489894,;-0.061493,-0.186281,0.631809,-0.396167,0.182595,0.317175,-0.259845,-0.274655,0.225026,-0.035470,0.111832,0.686093,;-0.878849,0.174377,0.017603,-0.547320,-0.017070,0.321265,0.330718,-0.265681,-0.327776,0.535889,-0.264953,0.421346,;-0.064596,0.742863,0.073313,0.483105,0.918786,0.770342,0.901334,0.049881,0.056021,0.148870,0.347193,0.890857,;-0.885799,0.137221,0.074047,-0.438638,0.308349,-0.148008,-0.412289,0.021174,-0.526947,0.610649,-0.359510,-0.164852,;-0.473883,-0.182086,0.148150,-0.193466,0.528958,0.215990,-0.447386,-0.042300,-0.441054,-0.190059,0.258022,-0.237644,;0.542639,0.579925,0.074579,0.452809,0.402918,0.431264,0.738815,0.214720,0.558524,0.558454,-0.199418,0.684040,;0.001179,0.306353,0.334981,-0.085272,-0.104522,-0.031836,0.244322,-0.145496,0.479171,0.035118,0.281277,-0.032235,;,0.542652,-0.117475,0.135146,-0.080139,-0.727877,-0.409841,-0.081609,-0.005750,0.099859,-0.490894,0.669313,-0.592421,,-0.096999,0.735699,-0.039904,0.206857,0.365635,0.697857,0.312767,-0.515593,0.790944,-0.076061,0.069974,0.015932,;-0.066206,0.302484,-0.277644,0.122157,0.398452,-0.198895,0.599404,0.418913,0.589952,0.469959,-0.455445,0.325674,;-0.304857,0.102311,-0.110933,0.016917,0.388414,0.504698,0.626400,-0.145218,0.563282,0.433508,0.021923,-0.007760,;-0.319715,0.303856,0.429845,-0.122986,0.623041,-0.006097,0.156006,0.218287,0.434822,0.772398,-0.365315,0.353380,;0.148575,0.369213,-0.177809,0.541792,0.207277,-0.171620,0.131600,0.368477,0.050476,0.324596,-0.485517,0.058914,;-0.179071,0.086814,0.429669,0.052043,0.630588,0.125795,0.039575,0.570104,0.081203,0.463466,-0.496833,0.475301,;0.406682,-0.102240,0.600366,-0.202000,0.297811,0.380165,-0.042982,-0.528640,0.475795,0.062651,-0.131618,0.652271,;-0.230050,0.377865,0.367623,-0.296522,0.098564,0.400416,0.648302,-0.119657,0.074223,0.615342,-0.180664,0.431521,;0.005290,0.658433,0.085247,0.585199,0.823212,0.646024,0.741010,-0.310717,0.383782,0.206604,-0.228898,0.573674,;-0.278981,0.427936,0.159358,-0.028480,0.474523,0.045072,-0.064230,-0.078576,-0.097947,0.785645,-0.100341,-0.089254,;0.088996,0.146736,0.638558,-0.006910,0.699766,0.384468,0.027671,0.133073,0.008401,0.012635,-0.087897,-0.130777,;0.300774,0.627466,-0.181498,0.585995,0.535127,0.353369,0.648376,-0.255761,0.628729,0.702711,-0.393454,0.545626,;0.429035,0.424742,0.403438,0.037739,-0.027266,0.039865,0.560053,-0.400861,0.777298,0.110211,-0.054622,-0.055471,;,0.776820,0.747117,0.508874,0.591477,0.288540,-0.174819,0.186772,0.565586,0.028424,0.969494,0.071940,0.596890,0.042034,
0.796721,-0.413086,0.339298,-0.227395,-0.126646,0.303950,-0.280076,;-0.325157,0.817736,0.129506,0.475070,0.802281,0.043674,0.444963,;0.144878,0.107304,0.306383,0.772175,1.170496,0.101264,0.271959,;0.686180,0.250089,0.334157,0.216647,0.256659,0.129320,0.337773,;0.513025,1.281867,1.006796,0.134363,0.543072,0.290281,0.222957,;0.495476,0.321701,0.569486,0.549461,-0.071486,0.547120,0.156333,;-0.263006,0.475511,-0.109335,0.732900,-0.045056,0.046609,0.117089,;-0.009921,0.490574,0.173289,0.654788,0.575666,-0.011247,0.178167,;-0.257627,-0.279927,0.550682,-0.075364,0.850334,0.664179,0.174794,;0.363735,0.616960,0.706710,0.857298,0.453293,0.791951,0.898470,;0.094404,0.855818,0.846561,0.486266,0.613696,0.255082,0.022566,;-0.162324,0.995326,0.158034,1.006815,0.349676,0.600952,0.112309,;,1.424173,-0.345302,-0.470531,0.438664,-1.362770,-0.867689,-0.293195,-0.573028,0.233082,-1.210706,0.322530,-1.166242,,-0.076112,0.122205,-0.223060,0.089895,0.241673,-0.118919,0.376926,0.542573,0.485744,0.312900,-0.061901,0.437559,;-0.746909,-0.210354,-0.448446,-0.253998,0.209459,0.403829,0.290045,-0.315582,0.174113,0.260778,-0.160882,-0.085553,;-0.705918,0.391977,0.678909,-0.194381,0.621382,0.003397,0.044438,0.524385,0.339403,0.726198,0.069101,0.542035,;0.161867,0.185395,-0.185812,0.409558,0.123345,-0.156397,0.000233,0.563847,-0.177180,0.203439,-0.435042,0.099757,;-0.982908,-0.046973,-0.037492,-0.251314,0.548631,-0.001020,-0.203014,0.368166,-0.442194,0.303357,-0.325738,0.493348,;-0.069597,-0.184902,0.636523,-0.398542,0.183055,0.316902,-0.260675,-0.273258,0.226751,-0.033500,0.113191,0.687270,;-0.885983,0.174107,0.015460,-0.547602,-0.014456,0.323121,0.329529,-0.266893,-0.329806,0.540572,-0.264552,0.422647,;-0.082145,0.748688,0.067218,0.478151,0.924703,0.770424,0.908632,0.053287,0.040751,0.146030,0.357912,0.898233,;-0.888341,0.135583,0.072067,-0.438816,0.309495,-0.146345,-0.412976,0.019948,-0.528788,0.613328,-0.360001,-0.164328,;-0.467379,-0.186534,0.144200,-0.191626,0.529680,0.217182,-0.451209,-0.045615,-0.441681,-0.189259,0.255139,-0.239956,;0.537298,0.578184,0.074708,0.447864,0.398511,0.428156,0.737136,0.213084,0.559347,0.556313,-0.206594,0.681538,;0.001650,0.305143,0.336985,-0.083781,-0.103519,-0.031675,0.240106,-0.146545,0.482491,0.036999,0.280834,-0.033998,;,0.541103,-0.118653,0.135148,-0.080954,-0.730526,-0.414035,-0.086220,-0.007740,0.097122,-0.492137,0.667750,-0.595418,,-0.098007,0.735785,-0.041360,0.206532,0.365625,0.697574,0.312982,-0.518554,0.790936,-0.076223,0.067392,0.015250,;-0.064189,0.303822,-0.275821,0.122702,0.399288,-0.200511,0.601089,0.440290,0.590540,0.471176,-0.455755,0.321833,;-0.307118,0.101709,-0.106144,0.013358,0.388372,0.504148,0.626251,-0.143713,0.563053,0.432967,0.015058,-0.008409,;-0.317887,0.304736,0.422712,-0.119449,0.623162,-0.006271,0.156263,0.219094,0.435088,0.773175,-0.359591,0.352326,;0.147752,0.369013,-0.181434,0.542442,0.207013,-0.171274,0.131119,0.361539,0.050299,0.324324,-0.483987,0.059133,;-0.182267,0.085327,0.437987,0.046379,0.630320,0.125782,0.038862,0.569532,0.080707,0.462602,-0.506706,0.476368,;0.406452,-0.102795,0.599715,-0.202164,0.297511,0.381097,-0.043609,-0.533583,0.475545,0.062344,-0.130001,0.654296,;-0.230912,0.377246,0.372770,-0.298966,0.098338,0.400158,0.647835,-0.120306,0.073929,0.614424,-0.182137,0.432336,;0.004874,0.658238,0.085800,0.584738,0.823158,0.645884,0.740818,-0.309022,0.383654,0.206523,-0.228764,0.573303,;-0.280559,0.427914,0.148568,-0.025276,0.474145,0.045031,-0.065020,-0.091576,-0.098118,0.785616,-0.097129,-0.090299,;0.091879,0.147449,0.650114,-0.010240,0.700746,0.384319,0.029672,0.159338,0.008984,0.013834,-0.094201,-0.131392,;0.296210,0.626515,-0.189104,0.586238,0.534541,0.352619,0.647051,-0.267810,0.628139,0.701991,-0.394871,0.543595,;0.429049,0.424268,0.407149,0.036544,-0.027521,0.039999,0.559489,-0.402278,0.777035,0.109476,-0.052993,-0.054185,;,0.776588,0.746742,0.505042,0.595170,0.289406,-0.180353,0.187070,0.562318,0.027764,0.972837,0.069203,0.596460,0.040259,
0.790986,-0.435395,0.329001,-0.233173,-0.119068,0.296613,-0.278488,;-0.330156,0.831378,0.126897,0.477194,0.804004,0.040872,0.438800,;0.141585,0.110411,0.307081,0.775418,1.182787,0.099820,0.270222,;0.681433,0.253864,0.326978,0.214858,0.254903,0.123666,0.329105,;0.509935,1.301773,1.006075,0.138643,0.541741,0.288233,0.211842,;0.492155,0.335276,0.568436,0.551786,-0.076284,0.546828,0.151823,;-0.269028,0.488143,-0.113246,0.734473,-0.046011,0.043797,0.112364,;-0.011642,0.491949,0.171866,0.656432,0.581270,-0.014369,0.172144,;-0.261951,-0.291114,0.548336,-0.074565,0.865853,0.660702,0.177286,;0.361414,0.620757,0.709144,0.861203,0.456040,0.793112,0.899504,;0.092650,0.862892,0.843823,0.484310,0.618200,0.252778,0.018734,;-0.170214,1.012886,0.156261,1.015084,0.355271,0.597104,0.102433,;,1.432812,-0.347123,-0.472902,0.439802,-1.366816,-0.870771,-0.294129,-0.574091,0.233996,-1.214480,0.322960,-1.171420,,-0.075313,0.121875,-0.219491,0.090522,0.240484,-0.119700,0.374646,0.542567,0.489956,0.313405,-0.063436,0.435874,;-0.740922,-0.213726,-0.451011,-0.252300,0.209508,0.406000,0.289036,-0.317503,0.173648,0.262778,-0.162945,-0.086184,;-0.720550,0.397011,0.684765,-0.198133,0.623099,0.000899,0.043930,0.527290,0.341396,0.725918,0.073889,0.543770,;0.171125,0.182471,-0.186951,0.412028,0.123355,-0.154609,-0.000325,0.562906,-0.177573,0.203762,-0.435822,0.099125,;-0.994495,-0.047462,-0.041116,-0.256548,0.551297,-0.001182,-0.202104,0.368186,-0.451880,0.301443,-0.322857,0.496038,;-0.079893,-0.184041,0.640669,-0.402245,0.183205,0.316088,-0.262112,-0.272350,0.227612,-0.031904,0.113510,0.688182,;-0.888608,0.175239,0.014637,-0.545172,-0.011145,0.326075,0.329935,-0.266849,-0.330016,0.546005,-0.261700,0.424761,;-0.103167,0.753583,0.059835,0.471382,0.930189,0.769896,0.915182,0.055718,0.023681,0.142337,0.366872,0.905102,;-0.889727,0.134249,0.070260,-0.438375,0.310799,-0.144417,-0.413200,0.019011,-0.530354,0.616093,-0.359905,-0.163616,;-0.458811,-0.190077,0.141122,-0.188355,0.530702,0.218896,-0.454047,-0.048112,-0.441560,-0.188063,0.253560,-0.241753,;0.532103,0.576021,0.074666,0.442709,0.394012,0.424947,0.734901,0.211120,0.560447,0.554255,-0.214211,0.678742,;0.003602,0.304391,0.339543,-0.081463,-0.102428,-0.031268,0.236448,-0.147106,0.486325,0.039026,0.281090,-0.035532,;,0.540197,-0.118714,0.130761,-0.079546,-0.735669,-0.419376,-0.088117,-0.011300,0.095160,-0.491968,0.665787,-0.597497,,-0.100998,0.735715,-0.043937,0.205136,0.365557,0.696699,0.313053,-0.525003,0.790843,-0.076536,0.060511,0.013598,;-0.063930,0.305167,-0.275879,0.122645,0.400093,-0.202591,0.602703,0.458460,0.591122,0.472309,-0.459663,0.316772,;-0.307290,0.101291,-0.100211,0.010958,0.388389,0.504296,0.626237,-0.138728,0.562910,0.432613,0.013070,-0.007959,;-0.320210,0.305300,0.412854,-0.117924,0.623173,-0.007828,0.156274,0.213276,0.435209,0.773664,-0.363233,0.349124,;0.149738,0.369049,-0.183423,0.544629,0.206824,-0.170070,0.130804,0.358885,0.050227,0.324296,-0.476049,0.060856,;-0.184435,0.083866,0.447264,0.041089,0.630072,0.126195,0.038204,0.570742,0.080241,0.461759,-0.514218,0.478107,;0.403567,-0.103595,0.597401,-0.203700,0.297144,0.381148,-0.044410,-0.542604,0.475184,0.061826,-0.134549,0.654900,;-0.229305,0.376860,0.378957,-0.300053,0.098171,0.400738,0.647526,-0.118059,0.073744,0.613711,-0.178054,0.434490,;0.005680,0.658140,0.087447,0.584814,0.823152,0.646166,0.740717,-0.305039,0.383579,0.206530,-0.225958,0.573538,;-0.281209,0.427935,0.138657,-0.021621,0.473804,0.045112,-0.065709,-0.102818,-0.098257,0.785660,-0.092447,-0.090809,;0.084306,0.147323,0.655648,-0.019111,0.701449,0.381048,0.031019,0.170081,0.009178,0.014190,-0.123409,-0.137569,;0.294984,0.625843,-0.194265,0.588181,0.534083,0.352773,0.646025,-0.273951,0.627700,0.701547,-0.389449,0.543229,;0.432661,0.424090,0.413019,0.037158,-0.027682,0.041341,0.559144,-0.398589,0.776912,0.109015,-0.043314,-0.050972,;,0.775246,0.745808,0.502446,0.596689,0.291874,-0.185337,0.185860,0.560607,0.027715,0.976395,0.060776,0.597643,0.040516,
