0.607141,0.766497,0.790262,0.433667,0.944710,0.770832,0.364402,;0.931957,0.575957,0.816845,0.136984,0.197921,0.480186,0.196701,;0.550683,0.391654,0.612880,0.649115,0.126315,0.212322,0.128837,;0.723832,0.627779,0.372946,0.237145,0.105371,0.651251,0.595470,;0.135893,0.690174,0.310981,0.165851,0.043191,0.216178,0.669611,;0.860242,0.035862,0.953397,0.944588,0.030880,0.620772,0.443625,;0.330352,0.383472,0.651950,0.680756,0.612451,0.311767,0.677521,;0.985228,0.749341,0.324229,0.220076,0.091346,0.502308,0.276752,;0.626739,0.826124,0.387064,0.889298,0.801712,0.985174,0.375582,;0.906309,0.200317,0.788934,0.878677,0.092637,0.508468,0.228205,;,0.701729,0.964642,0.402533,0.075217,0.182682,0.012706,0.293764,0.276445,0.203165,0.587010,,0.023258,0.697870,0.291702,0.041575,0.142171,0.352860,0.836053,0.902256,0.395307,0.175701,;0.462999,0.841664,0.514870,0.881862,0.600201,0.435334,0.619487,0.957148,0.261279,0.126391,;0.921463,0.660838,0.553972,0.853091,0.530082,0.971310,0.361525,0.234184,0.869919,0.024875,;0.113283,0.503723,0.388349,0.491114,0.517889,0.764006,0.458116,0.539500,0.831137,0.042970,;0.069828,0.044917,0.074460,0.187319,0.984101,0.595328,0.872510,0.277236,0.337522,0.071192,;0.243547,0.286931,0.878433,0.816488,0.327384,0.541147,0.461875,0.749817,0.581074,0.973309,;0.395830,0.905881,0.947172,0.469767,0.363020,0.447100,0.436992,0.387380,0.159097,0.937724,;0.506526,0.863033,0.244079,0.139712,0.942878,0.248847,0.201985,0.015847,0.602909,0.111156,;0.944619,0.757355,0.140065,0.817092,0.494642,0.476302,0.950823,0.825341,0.878495,0.676987,;0.701729,0.964642,0.402533,0.075217,0.182682,0.012706,0.293764,0.276445,0.203165,0.587010,;,0.701729,0.964642,0.402533,0.075217,0.182682,0.012706,0.293764,0.276445,0.203165,0.587010,,0.829139,0.008665,0.398130,0.967664,0.629569,0.937582,0.040724,0.546685,0.976244,0.636028,;0.163804,0.022782,0.920013,0.873989,0.781691,0.943437,0.123454,0.413622,0.633347,0.131010,;0.065246,0.901200,0.915711,0.103339,0.201273,0.218671,0.173648,0.374710,0.428139,0.836270,;0.023258,0.697870,0.291702,0.041575,0.142171,0.352860,0.836053,0.902256,0.395307,0.175701,;0.462999,0.841664,0.514870,0.881862,0.600201,0.435334,0.619487,0.957148,0.261279,0.126391,;0.921463,0.660838,0.553972,0.853091,0.530082,0.971310,0.361525,0.234184,0.869919,0.024875,;0.113283,0.503723,0.388349,0.491114,0.517889,0.764006,0.458116,0.539500,0.831137,0.042970,;0.069828,0.044917,0.074460,0.187319,0.984101,0.595328,0.872510,0.277236,0.337522,0.071192,;0.243547,0.286931,0.878433,0.816488,0.327384,0.541147,0.461875,0.749817,0.581074,0.973309,;0.395830,0.905881,0.947172,0.469767,0.363020,0.447100,0.436992,0.387380,0.159097,0.937724,;0.506526,0.863033,0.244079,0.139712,0.942878,0.248847,0.201985,0.015847,0.602909,0.111156,;0.944619,0.757355,0.140065,0.817092,0.494642,0.476302,0.950823,0.825341,0.878495,0.676987,;0.701729,0.964642,0.402533,0.075217,0.182682,0.012706,0.293764,0.276445,0.203165,0.587010,;,0.825341,0.878495,0.676987,0.701729,0.964642,0.402533,0.075217,0.182682,0.012706,0.293764,0.276445,0.203165,0.587010,
0.518465,0.546519,0.703763,0.253622,0.787825,0.717292,0.211092,;0.657543,-0.092119,0.510423,-0.274917,-0.018631,0.292883,-0.158540,;0.327628,-0.086107,0.385770,0.299216,-0.097559,0.055616,-0.157790,;0.229409,0.051202,0.021421,-0.213678,-0.222307,0.362581,0.167948,;-0.415752,0.073202,-0.047660,-0.294110,-0.292966,0.007594,0.279817,;0.340099,-0.509436,0.581712,0.498344,-0.361703,0.348878,0.036222,;-0.136325,-0.230618,0.287069,0.282222,0.357528,0.089638,0.265101,;0.752022,0.178760,0.004896,-0.089492,-0.015938,0.332283,-0.118320,;0.240377,0.382146,0.195286,0.521189,0.377215,0.863628,0.055009,;0.900071,0.057646,0.733269,0.784945,0.038301,0.486836,0.126938,;,0.631480,0.709892,0.116508,-0.990779,-1.141437,-1.241176,-0.585719,0.294660,-0.821645,0.796778,,-0.275517,0.446123,0.025917,-0.170139,0.033888,0.170356,0.585020,0.567497,0.022721,-0.049319,;-0.029428,0.335749,0.066005,0.647586,0.564751,0.214781,0.304020,0.464924,-0.232363,-0.314982,;0.413098,0.246763,0.224365,0.727297,0.551907,0.836397,0.032694,-0.102857,0.394076,-0.375319,;-0.418153,0.088336,0.061419,0.377571,0.536177,0.662752,0.164495,0.173871,0.382881,-0.374161,;-0.207525,-0.212886,-0.215096,-0.067876,0.806582,0.321548,0.538937,-0.035900,-0.072031,-0.137995,;0.112001,0.204988,0.607204,0.397617,-0.053186,0.094213,-0.009547,0.474886,0.024769,0.948890,;0.195047,0.734772,0.704664,0.259156,0.206835,0.223751,0.177579,0.154953,-0.210241,0.788001,;-0.162323,0.314144,-0.106639,0.164042,1.138382,0.298136,-0.002580,-0.361001,0.222259,-0.459138,;0.836039,0.700024,-0.110004,0.414514,0.129797,0.058830,0.524399,0.533739,0.371853,0.655407,;0.280794,0.707100,0.179833,-0.013601,0.168153,-0.065998,0.045524,0.066319,-0.234618,0.309839,;,0.589521,0.613241,0.047764,-0.299378,0.073040,0.203481,0.236053,-0.337052,0.411265,0.346195,,0.741374,-0.002642,0.444252,1.043485,0.707116,0.823985,-0.067617,0.621844,0.834629,0.525970,;0.192894,-0.003615,0.820674,0.767356,0.677816,0.945372,0.175923,0.332026,0.668760,0.206610,;0.000533,0.849449,0.912335,0.130137,0.237283,0.180356,0.107275,0.383170,0.364608,0.765709,;-0.055721,0.664122,0.326712,0.107828,0.213832,0.297583,0.744868,0.948293,0.309973,0.075739,;0.475109,0.767439,0.394435,0.771155,0.504064,0.464396,0.661364,0.843066,0.302373,0.187255,;0.867354,0.603049,0.551393,0.862505,0.544187,0.912131,0.307050,0.245444,0.817728,-0.018958,;0.103537,0.456072,0.331117,0.438612,0.472938,0.722571,0.450421,0.501405,0.812692,0.055180,;0.031156,0.033989,0.087513,0.206361,1.005726,0.523453,0.817305,0.303072,0.271546,0.022814,;0.241863,0.234937,0.786923,0.735060,0.257384,0.531696,0.476298,0.672528,0.584043,1.006341,;0.381629,0.851507,0.869761,0.411244,0.316364,0.435213,0.433631,0.323958,0.148773,0.946224,;0.564580,0.807476,0.106105,-0.015800,0.793790,0.293224,0.300856,-0.112920,0.688161,0.243353,;0.871697,0.740952,0.171799,0.876908,0.558709,0.392300,0.858491,0.877530,0.771315,0.582238,;0.623034,0.937589,0.448529,0.146967,0.260594,-0.038797,0.202783,0.325606,0.121490,0.484379,;,0.703629,0.975294,0.602339,0.587345,1.050485,0.356097,0.098978,0.129316,0.065601,0.316628,0.441023,0.098999,0.469682,
0.494156,0.588225,0.689023,0.257708,0.784950,0.706304,0.190338,;0.637896,-0.171487,0.406240,-0.321298,-0.053526,0.223644,-0.193583,;0.315580,-0.068297,0.332544,0.277746,-0.107973,0.017015,-0.166837,;0.181763,0.092573,-0.073322,-0.218532,-0.223237,0.280218,0.124100,;-0.441808,0.035592,-0.161851,-0.332171,-0.348178,-0.063076,0.251467,;0.301613,-0.507079,0.485482,0.481495,-0.416090,0.283881,-0.005003,;-0.194347,-0.220072,0.175938,0.319892,0.408321,0.015541,0.231993,;0.694786,0.203060,-0.089522,-0.037838,0.072768,0.274317,-0.163836,;0.224080,0.422088,0.171818,0.541727,0.329545,0.838538,0.011179,;0.871943,0.101383,0.718714,0.804941,0.054891,0.477440,0.113420,;,0.617087,0.759010,0.138726,-0.993082,-1.090886,-1.251215,-0.568654,0.317160,-0.810510,0.786683,,-0.308273,0.428603,0.008283,-0.200595,0.018560,0.148642,0.581270,0.538360,-0.029469,-0.059224,;-0.017522,0.287450,0.010275,0.623959,0.562685,0.176809,0.337772,0.432694,-0.230482,-0.341859,;0.374026,0.229215,0.201003,0.717237,0.552744,0.805168,-0.026530,-0.112103,0.332408,-0.394995,;-0.493580,0.075120,0.046293,0.374118,0.543737,0.656994,0.116713,0.152615,0.293568,-0.405074,;-0.225439,-0.258947,-0.246483,-0.069698,0.820809,0.308866,0.536469,-0.069361,-0.072365,-0.162842,;0.096369,0.159197,0.580294,0.383507,-0.047718,0.065175,-0.037366,0.448440,0.009531,0.924984,;0.208163,0.738579,0.678878,0.245027,0.193998,0.193884,0.174031,0.156391,-0.236682,0.790730,;-0.216625,0.336809,-0.119988,0.147216,1.122627,0.272880,-0.059515,-0.361702,0.108588,-0.464987,;0.816414,0.661750,-0.132463,0.394066,0.129341,0.032665,0.506749,0.504008,0.345097,0.633215,;0.164001,0.740763,0.169800,-0.016040,0.164906,-0.070102,-0.033906,0.060104,-0.402317,0.283726,;,0.604409,0.606005,0.057549,-0.300159,0.061959,0.199885,0.253159,-0.307399,0.411270,0.368437,,0.739200,0.006331,0.444123,1.045303,0.709319,0.818322,-0.068997,0.623965,0.820864,0.524466,;0.176860,-0.003592,0.827988,0.776177,0.684109,0.937354,0.165545,0.340970,0.657883,0.197514,;0.004641,0.843709,0.904207,0.122370,0.230216,0.185613,0.112820,0.375504,0.369349,0.772196,;-0.058343,0.657010,0.324820,0.105888,0.211386,0.299858,0.744877,0.946261,0.313021,0.076777,;0.476383,0.763830,0.388210,0.765093,0.498331,0.469353,0.666326,0.837016,0.306409,0.192521,;0.857423,0.586825,0.558674,0.869065,0.550177,0.905816,0.298939,0.251906,0.821121,-0.026993,;0.106402,0.452575,0.332173,0.440308,0.475678,0.718323,0.447717,0.503142,0.812544,0.053757,;0.034199,0.032210,0.086329,0.203934,1.004599,0.523848,0.817960,0.300683,0.276611,0.024177,;0.242967,0.237128,0.781299,0.730276,0.253310,0.533445,0.479417,0.668013,0.584239,1.010554,;0.384549,0.855977,0.867422,0.410002,0.315395,0.436312,0.434917,0.322766,0.146230,0.948081,;0.552980,0.800156,0.115891,-0.005148,0.802975,0.283687,0.289387,-0.102390,0.679904,0.232013,;0.874489,0.749328,0.169607,0.875704,0.557888,0.393761,0.860824,0.876376,0.767729,0.584826,;0.629122,0.932982,0.439950,0.137119,0.252689,-0.032088,0.209898,0.315878,0.132193,0.492424,;,0.702100,0.966119,0.610281,0.589208,1.056596,0.348842,0.097041,0.131848,0.070475,0.317993,0.429940,0.100336,0.479784,
0.460209,0.650620,0.685137,0.271164,0.805514,0.701453,0.176506,;0.628320,-0.248697,0.355001,-0.369236,-0.099823,0.184550,-0.204131,;0.313389,-0.046594,0.310782,0.257947,-0.122921,-0.001365,-0.163738,;0.158415,0.143831,-0.114605,-0.216660,-0.223080,0.236972,0.104798,;-0.447421,0.007870,-0.215967,-0.362455,-0.405055,-0.099850,0.251334,;0.286502,-0.498134,0.441840,0.472332,-0.465156,0.250224,-0.023519,;-0.226957,-0.189898,0.134725,0.373987,0.484241,-0.023817,0.234899,;0.651399,0.232299,-0.127775,0.010618,0.152437,0.239654,-0.186450,;0.217256,0.494003,0.166705,0.584801,0.322460,0.824597,-0.023714,;0.845008,0.151170,0.710627,0.828193,0.076843,0.469866,0.102449,;,0.572452,0.763784,0.151560,-0.969936,-1.032181,-1.231930,-0.522864,0.316391,-0.765184,0.771713,,-0.342135,0.412799,0.000975,-0.212579,0.017505,0.152949,0.600664,0.515437,-0.053637,-0.071909,;0.019277,0.259312,-0.020900,0.607147,0.552780,0.152402,0.391287,0.429358,-0.199594,-0.345028,;0.351856,0.220776,0.192162,0.713891,0.553724,0.784072,-0.075020,-0.113157,0.302689,-0.403639,;-0.552105,0.082794,0.047916,0.367786,0.544184,0.653914,0.071241,0.141670,0.220252,-0.418660,;-0.221220,-0.292217,-0.263944,-0.074121,0.824698,0.295417,0.540078,-0.086850,-0.058244,-0.168677,;0.101375,0.124584,0.569683,0.372425,-0.049418,0.040479,-0.055105,0.440803,0.015997,0.918495,;0.231607,0.750938,0.663379,0.231720,0.178567,0.168657,0.177218,0.165070,-0.251771,0.802813,;-0.267509,0.372083,-0.120873,0.135719,1.112659,0.261142,-0.110009,-0.363948,0.012956,-0.466724,;0.816614,0.633959,-0.140551,0.376549,0.122903,0.011021,0.501713,0.493145,0.340428,0.626742,;0.030939,0.775353,0.165688,0.002527,0.189483,-0.042186,-0.101469,0.034434,-0.540597,0.240131,;,0.602815,0.606042,0.068614,-0.289928,0.062271,0.204202,0.273339,-0.280756,0.417370,0.364590,,0.736421,0.016051,0.448920,1.051750,0.715772,0.809490,-0.073659,0.630943,0.804197,0.522250,;0.164582,-0.007463,0.825700,0.773778,0.679448,0.939962,0.166101,0.338854,0.658006,0.199146,;0.006214,0.840686,0.902561,0.121117,0.229233,0.185814,0.113080,0.374299,0.368960,0.772947,;-0.061038,0.651732,0.323589,0.104238,0.209057,0.302316,0.745135,0.944449,0.316101,0.077319,;0.475556,0.762979,0.389544,0.766606,0.499716,0.468407,0.664861,0.838463,0.304402,0.191611,;0.850083,0.574375,0.562824,0.872914,0.554057,0.902639,0.292911,0.255065,0.827329,-0.037426,;0.115292,0.449769,0.326083,0.434582,0.471612,0.720729,0.452410,0.497432,0.819329,0.059046,;0.032511,0.034111,0.092124,0.209326,1.011142,0.517358,0.811422,0.305966,0.274505,0.017038,;0.243018,0.240699,0.781203,0.730925,0.254231,0.530981,0.478248,0.668957,0.580519,1.010717,;0.391439,0.857289,0.859931,0.402610,0.308364,0.443162,0.442518,0.315653,0.149446,0.957211,;0.546028,0.791770,0.116766,-0.004058,0.803136,0.283365,0.286583,-0.101616,0.681146,0.228131,;0.882173,0.753604,0.162511,0.868624,0.551244,0.400401,0.869139,0.869683,0.769367,0.595494,;0.628243,0.934121,0.443574,0.140315,0.257266,-0.036454,0.205530,0.319043,0.131412,0.487431,;,0.696115,0.968479,0.611643,0.590797,1.055097,0.344086,0.102616,0.126259,0.069939,0.325820,0.428536,0.107911,0.476486,
0.411500,0.734658,0.685376,0.295757,0.849218,0.698094,0.166347,;0.620171,-0.307486,0.321199,-0.420764,-0.156872,0.177192,-0.214518,;0.311445,-0.020133,0.297281,0.236326,-0.144261,-0.005078,-0.163047,;0.146167,0.215058,-0.138738,-0.210869,-0.225888,0.223465,0.086871,;-0.442110,0.001729,-0.249874,-0.391385,-0.468533,-0.105781,0.252180,;0.283061,-0.477792,0.414121,0.465172,-0.515038,0.240041,-0.038264,;-0.247565,-0.133246,0.119033,0.436090,0.582101,-0.033079,0.245708,;0.611085,0.272344,-0.146799,0.052728,0.223815,0.225766,-0.207231,;0.216411,0.594712,0.168436,0.646712,0.352644,0.807323,-0.052003,;0.812477,0.201158,0.704049,0.848526,0.101181,0.462858,0.092307,;,0.490186,0.727303,0.144557,-0.938832,-0.971661,-1.196950,-0.461923,0.293456,-0.676209,0.734548,,-0.369996,0.407945,-0.001627,-0.227734,0.009937,0.154865,0.616462,0.502857,-0.067375,-0.075151,;0.066981,0.226474,-0.044775,0.598911,0.541758,0.136111,0.452635,0.441330,-0.127507,-0.341514,;0.360775,0.225955,0.196532,0.696553,0.532782,0.744817,-0.132431,-0.095269,0.296432,-0.383827,;-0.610976,0.096129,0.053858,0.365180,0.547713,0.655450,0.019836,0.130918,0.160778,-0.430521,;-0.195011,-0.313837,-0.272684,-0.089103,0.811256,0.267575,0.538198,-0.086952,-0.035443,-0.153727,;0.115793,0.086753,0.563672,0.368468,-0.051051,0.019654,-0.067921,0.443224,0.047828,0.916673,;0.239502,0.747024,0.645045,0.240203,0.185147,0.167331,0.191377,0.164245,-0.243857,0.795370,;-0.332693,0.406163,-0.120095,0.137324,1.118787,0.266078,-0.165021,-0.377179,-0.069430,-0.479994,;0.821869,0.597868,-0.147579,0.370329,0.122359,-0.001287,0.507546,0.488992,0.364000,0.618581,;-0.115415,0.813945,0.165728,0.028309,0.226753,-0.000639,-0.180266,-0.003041,-0.661582,0.190570,;,0.608611,0.601190,0.105394,-0.280712,0.082574,0.207357,0.266092,-0.269912,0.414300,0.350389,,0.737361,0.020531,0.448142,1.052562,0.716310,0.804826,-0.072519,0.633150,0.791441,0.532154,;0.151198,-0.014076,0.823352,0.769996,0.673094,0.945602,0.168289,0.335142,0.660851,0.200879,;0.010119,0.836298,0.898025,0.116785,0.225352,0.188974,0.116230,0.370059,0.371672,0.775709,;-0.068624,0.649385,0.327114,0.107222,0.210933,0.301372,0.741454,0.947049,0.315529,0.072059,;0.473636,0.762662,0.392362,0.769646,0.502264,0.466285,0.662415,0.841496,0.300738,0.190434,;0.846226,0.568116,0.563649,0.873422,0.555894,0.903230,0.288925,0.253918,0.838273,-0.055611,;0.119944,0.453322,0.330988,0.441332,0.479616,0.711861,0.445460,0.503808,0.814867,0.053957,;0.034510,0.036601,0.091017,0.207731,1.011536,0.516271,0.811136,0.304318,0.278454,0.013997,;0.243572,0.240809,0.778655,0.728605,0.252320,0.531634,0.479565,0.666967,0.580385,1.013017,;0.396466,0.857109,0.857138,0.400101,0.305483,0.445609,0.446077,0.313774,0.147846,0.964389,;0.541319,0.783466,0.113726,-0.007476,0.799235,0.287868,0.287726,-0.105816,0.687719,0.224289,;0.884834,0.758333,0.165516,0.872217,0.553933,0.397454,0.868476,0.874155,0.760230,0.602146,;0.630667,0.933122,0.439258,0.134920,0.254091,-0.033313,0.208787,0.313677,0.138371,0.487358,;,0.696311,0.972326,0.616212,0.587555,1.052111,0.342168,0.095338,0.127612,0.072429,0.328927,0.431535,0.104978,0.481824,
0.345958,0.839860,0.688341,0.325297,0.912457,0.692573,0.159238,;0.619617,-0.348209,0.289885,-0.449024,-0.193681,0.188560,-0.217565,;0.307476,0.005307,0.284947,0.217649,-0.167291,-0.003053,-0.162567,;0.138209,0.295794,-0.159130,-0.196912,-0.222355,0.218912,0.071771,;-0.429231,0.001531,-0.279633,-0.410978,-0.527276,-0.100606,0.256818,;0.284190,-0.455162,0.390527,0.464098,-0.559472,0.237596,-0.050194,;-0.257493,-0.067974,0.113603,0.503513,0.696444,-0.037657,0.265370,;0.573761,0.312864,-0.160469,0.092553,0.289913,0.216504,-0.225756,;0.218483,0.715370,0.175237,0.710796,0.395922,0.780219,-0.082276,;0.781310,0.245601,0.697855,0.864997,0.120176,0.455676,0.082282,;,0.379747,0.692855,0.123967,-0.901261,-0.903092,-1.161442,-0.379001,0.266400,-0.550513,0.702200,,-0.405051,0.398809,-0.004739,-0.241811,0.003252,0.161823,0.638113,0.491737,-0.069237,-0.079110,;0.123476,0.185114,-0.067502,0.591010,0.525512,0.117681,0.528502,0.460748,-0.032759,-0.333645,;0.377151,0.209815,0.200941,0.693107,0.521843,0.716205,-0.169763,-0.077417,0.338362,-0.368530,;-0.676397,0.110797,0.062717,0.361431,0.551065,0.658734,-0.038392,0.119745,0.108198,-0.439895,;-0.167474,-0.332923,-0.277030,-0.103601,0.795521,0.238376,0.535401,-0.084072,-0.005775,-0.134266,;0.130373,0.049047,0.562312,0.369836,-0.051610,0.002141,-0.081857,0.448862,0.091213,0.916003,;0.237690,0.744885,0.627686,0.249895,0.194762,0.169311,0.199584,0.158271,-0.247580,0.784028,;-0.408565,0.452635,-0.114923,0.128341,1.118227,0.264553,-0.238705,-0.392307,-0.166596,-0.486151,;0.844625,0.574903,-0.147164,0.350981,0.102377,-0.030581,0.509511,0.500179,0.393370,0.630228,;-0.255620,0.834353,0.163354,0.051610,0.263399,0.043711,-0.243133,-0.037797,-0.732512,0.147163,;,0.610129,0.597601,0.127945,-0.270795,0.108137,0.210691,0.256559,-0.247998,0.434122,0.329519,,0.744572,0.013778,0.439952,1.046953,0.709763,0.804775,-0.065650,0.629941,0.782657,0.556569,;0.131231,-0.018369,0.828929,0.772061,0.671226,0.947658,0.165482,0.337054,0.660364,0.200966,;0.013453,0.832905,0.893557,0.112519,0.221825,0.192018,0.119298,0.365887,0.374660,0.774512,;-0.075570,0.646261,0.328717,0.107034,0.209580,0.303621,0.740881,0.946458,0.317525,0.069509,;0.471491,0.760218,0.394923,0.772728,0.504374,0.463926,0.660108,0.844760,0.295761,0.193116,;0.839391,0.574968,0.569903,0.878500,0.563988,0.901483,0.280529,0.255988,0.846676,-0.095311,;0.131242,0.456356,0.326917,0.440453,0.480446,0.707670,0.446000,0.502845,0.815512,0.060238,;0.035734,0.041559,0.091245,0.207883,1.014464,0.513164,0.809333,0.304458,0.280353,0.006403,;0.248959,0.238617,0.769982,0.719247,0.244421,0.539043,0.486501,0.657754,0.588723,1.012614,;0.397351,0.855673,0.859806,0.404274,0.308300,0.442222,0.443481,0.318844,0.139782,0.967315,;0.540354,0.777663,0.103992,-0.020523,0.787142,0.302021,0.297181,-0.120356,0.705669,0.218732,;0.884893,0.756223,0.171222,0.880385,0.559365,0.389667,0.863913,0.884024,0.744355,0.615659,;0.630634,0.935566,0.439640,0.134724,0.256439,-0.034913,0.207283,0.313589,0.140299,0.477819,;,0.703821,0.970257,0.620674,0.587599,1.049272,0.334705,0.095796,0.126987,0.081940,0.325414,0.444020,0.097933,0.481728,
0.253751,0.962528,0.692714,0.348427,0.987801,0.684259,0.151214,;0.628656,-0.376957,0.269185,-0.449160,-0.214347,0.205970,-0.216154,;0.308713,0.030149,0.273788,0.205793,-0.191114,0.000454,-0.164585,;0.130540,0.370651,-0.172679,-0.182921,-0.225103,0.214575,0.052450,;-0.412618,-0.009983,-0.300241,-0.428413,-0.593252,-0.094266,0.256837,;0.289778,-0.439063,0.373927,0.465785,-0.602293,0.236435,-0.063055,;-0.284222,-0.043487,0.121962,0.536187,0.791515,-0.045903,0.277077,;0.530379,0.329223,-0.167198,0.112576,0.338066,0.206219,-0.253871,;0.205561,0.836368,0.179031,0.752913,0.436736,0.748641,-0.123106,;0.745805,0.282144,0.689248,0.874222,0.134702,0.448765,0.069782,;,0.213880,0.689344,0.124695,-0.851425,-0.813993,-1.107022,-0.349465,0.225720,-0.438213,0.661702,,-0.469853,0.394091,-0.008998,-0.257676,0.001158,0.175559,0.654574,0.471343,-0.096025,-0.092004,;0.155909,0.147970,-0.087541,0.589090,0.517214,0.111874,0.596259,0.468768,0.036921,-0.337878,;0.415973,0.192213,0.210867,0.683107,0.498039,0.675305,-0.196513,-0.049761,0.409349,-0.337486,;-0.751100,0.138866,0.077229,0.341729,0.540898,0.648098,-0.109448,0.111695,0.045071,-0.435891,;-0.168488,-0.363165,-0.286822,-0.098901,0.803907,0.231669,0.534150,-0.098187,0.018120,-0.139757,;0.129758,0.014285,0.560907,0.376045,-0.046340,-0.010530,-0.102446,0.449098,0.126395,0.907025,;0.224107,0.759131,0.615978,0.249211,0.196844,0.164324,0.189327,0.150444,-0.280441,0.778745,;-0.505274,0.515715,-0.101786,0.101917,1.105801,0.251083,-0.333619,-0.408750,-0.285865,-0.479308,;0.846472,0.541045,-0.152571,0.347899,0.100839,-0.041767,0.518565,0.499776,0.425056,0.620387,;-0.351622,0.837711,0.169000,0.052155,0.270106,0.065457,-0.272325,-0.048603,-0.739737,0.142213,;,0.607033,0.585416,0.165484,-0.240709,0.109166,0.211328,0.260283,-0.205489,0.432842,0.332447,,0.750989,0.001374,0.435496,1.049023,0.709202,0.797634,-0.065282,0.636015,0.765310,0.583228,;0.107761,-0.024201,0.838791,0.774300,0.668790,0.952178,0.162219,0.337946,0.662557,0.200236,;0.015502,0.832524,0.892691,0.112188,0.222433,0.191978,0.118377,0.365427,0.374255,0.765502,;-0.088109,0.644356,0.337950,0.113264,0.213495,0.301226,0.734938,0.952032,0.313274,0.065368,;0.469573,0.752540,0.396932,0.776594,0.505931,0.460534,0.657660,0.849508,0.287927,0.204008,;0.837906,0.590257,0.569894,0.875023,0.565249,0.905615,0.279258,0.248835,0.861334,-0.136906,;0.144433,0.457999,0.321019,0.441667,0.483923,0.699323,0.444201,0.504326,0.812610,0.074214,;0.038628,0.049274,0.090608,0.208194,1.018711,0.508854,0.807269,0.304840,0.281468,-0.002023,;0.254273,0.243491,0.762179,0.708786,0.237278,0.547928,0.493415,0.646522,0.600905,0.994091,;0.402707,0.848896,0.854111,0.400220,0.303237,0.446066,0.448576,0.316863,0.138658,0.975028,;0.530014,0.783160,0.110906,-0.019410,0.788566,0.305786,0.292959,-0.123080,0.713591,0.192689,;0.889953,0.740658,0.165850,0.879091,0.554294,0.389781,0.868960,0.886731,0.734512,0.646977,;0.631467,0.940412,0.439501,0.134418,0.259515,-0.037361,0.206148,0.313857,0.140881,0.466013,;,0.704737,0.967851,0.621053,0.581119,1.046267,0.335058,0.094204,0.125970,0.091768,0.330788,0.441147,0.101813,0.481643,
0.156543,1.095228,0.694497,0.364773,1.060626,0.672281,0.138878,;0.647538,-0.388731,0.255974,-0.437072,-0.202044,0.209442,-0.210768,;0.307155,0.056857,0.262616,0.195737,-0.206440,-0.003457,-0.168711,;0.125168,0.440890,-0.184891,-0.176167,-0.224367,0.190213,0.029505,;-0.385384,-0.018817,-0.315422,-0.444460,-0.640142,-0.105252,0.258291,;0.296880,-0.422435,0.360750,0.467706,-0.631926,0.224118,-0.074645,;-0.306650,-0.033133,0.139259,0.551872,0.891366,-0.062276,0.291333,;0.485064,0.341343,-0.169677,0.122144,0.388041,0.186006,-0.284504,;0.175040,0.953282,0.177501,0.783608,0.458484,0.720792,-0.171517,;0.705787,0.315714,0.679527,0.881953,0.151339,0.443492,0.056897,;,0.076394,0.685909,0.106752,-0.807252,-0.719131,-1.065023,-0.319747,0.168933,-0.343138,0.610780,,-0.521514,0.378636,-0.015831,-0.269392,0.000116,0.193398,0.689176,0.454561,-0.112978,-0.107366,;0.178543,0.132706,-0.103265,0.576961,0.501334,0.095273,0.644135,0.475496,0.051436,-0.341137,;0.454795,0.165472,0.219602,0.685237,0.484969,0.641831,-0.217528,-0.027971,0.484490,-0.317136,;-0.829160,0.147713,0.087855,0.335549,0.544351,0.651686,-0.162948,0.099440,0.003164,-0.443288,;-0.160540,-0.384785,-0.293916,-0.099911,0.805572,0.217302,0.530026,-0.109894,0.034730,-0.138482,;0.127804,-0.024186,0.558337,0.390787,-0.033275,-0.015119,-0.120870,0.445437,0.159395,0.888412,;0.210797,0.771074,0.603358,0.249697,0.201222,0.160102,0.183775,0.141545,-0.319853,0.770069,;-0.612538,0.586851,-0.084709,0.061618,1.082202,0.224882,-0.427759,-0.419825,-0.405331,-0.458753,;0.859282,0.507604,-0.158758,0.345923,0.097310,-0.054388,0.533721,0.502180,0.458278,0.609714,;-0.407320,0.813172,0.171101,0.057083,0.272490,0.086166,-0.256608,-0.044845,-0.700186,0.143561,;,0.593008,0.585003,0.190817,-0.231466,0.119411,0.200996,0.259521,-0.146717,0.430390,0.324400,,0.757112,-0.011706,0.431895,1.055718,0.712469,0.788053,-0.068140,0.648643,0.744232,0.601231,;0.077861,-0.030509,0.855950,0.778175,0.667603,0.957676,0.156607,0.337494,0.666402,0.198487,;0.019263,0.832041,0.890272,0.112809,0.223503,0.189957,0.117485,0.367501,0.370544,0.760422,;-0.100339,0.640068,0.345964,0.116981,0.214621,0.301218,0.731510,0.954770,0.311484,0.067261,;0.465089,0.744850,0.402506,0.786467,0.512057,0.453099,0.651136,0.860748,0.274974,0.214222,;0.834506,0.610416,0.572334,0.873313,0.568236,0.905572,0.276068,0.242587,0.871261,-0.173718,;0.164999,0.454201,0.306211,0.440772,0.485395,0.688859,0.444978,0.505236,0.808064,0.102254,;0.044158,0.057636,0.086547,0.205311,1.021170,0.505610,0.807930,0.302139,0.284863,-0.007635,;0.254947,0.259141,0.761598,0.701168,0.235125,0.555485,0.495499,0.635352,0.614607,0.956097,;0.410275,0.840537,0.846867,0.396561,0.297502,0.449755,0.453883,0.317984,0.135470,0.982045,;0.517686,0.792354,0.118831,-0.023945,0.786146,0.315089,0.291504,-0.136040,0.729666,0.164011,;0.895648,0.722248,0.160014,0.879557,0.549112,0.390212,0.873973,0.894653,0.722586,0.675152,;0.632409,0.943732,0.437592,0.131946,0.260854,-0.038558,0.207330,0.313461,0.142163,0.458747,;,0.701949,0.962924,0.621099,0.577223,1.037573,0.332629,0.095381,0.127877,0.096887,0.336976,0.442179,0.105537,0.484014,
0.067352,1.222820,0.687238,0.365048,1.117239,0.656567,0.119174,;0.661405,-0.391307,0.267132,-0.406771,-0.167263,0.205450,-0.191720,;0.302688,0.079984,0.257528,0.189059,-0.218863,-0.012809,-0.169907,;0.105237,0.496827,-0.185675,-0.170378,-0.228040,0.154628,0.010605,;-0.375383,-0.025946,-0.309044,-0.444438,-0.669196,-0.123374,0.272344,;0.299918,-0.410682,0.359668,0.475240,-0.654255,0.207833,-0.079371,;-0.328175,-0.027879,0.169010,0.565077,0.998967,-0.077493,0.308811,;0.435972,0.349260,-0.161932,0.128499,0.440257,0.162460,-0.316198,;0.130901,1.053974,0.159451,0.793509,0.456005,0.693758,-0.233088,;0.665779,0.343648,0.668396,0.885025,0.167987,0.439312,0.043810,;,-0.002538,0.678102,0.087173,-0.784038,-0.652809,-1.028608,-0.271660,0.125692,-0.262527,0.569098,,-0.540451,0.375089,-0.019550,-0.295436,-0.021594,0.194211,0.736991,0.452254,-0.123752,-0.103332,;0.217784,0.116105,-0.116334,0.566572,0.486314,0.085924,0.701740,0.476271,0.057501,-0.345178,;0.474033,0.137745,0.227641,0.695985,0.488106,0.623992,-0.244690,-0.024329,0.531942,-0.312886,;-0.891103,0.155483,0.098807,0.325576,0.542530,0.651823,-0.204659,0.090283,-0.026407,-0.444436,;-0.153704,-0.397822,-0.300418,-0.106359,0.805756,0.199940,0.524794,-0.126389,0.039447,-0.135010,;0.117204,-0.050394,0.556778,0.398589,-0.022611,-0.023703,-0.146062,0.438328,0.171569,0.869763,;0.224763,0.769103,0.589025,0.255356,0.207630,0.161709,0.201364,0.132060,-0.340007,0.760819,;-0.697424,0.631875,-0.072511,0.031402,1.066903,0.213961,-0.485505,-0.435571,-0.485953,-0.443506,;0.878356,0.470283,-0.168241,0.348900,0.099285,-0.060988,0.558589,0.501678,0.489365,0.590724,;-0.425024,0.780980,0.175658,0.061302,0.268395,0.109225,-0.214518,-0.038848,-0.648383,0.154065,;,0.597821,0.577627,0.202367,-0.218219,0.136017,0.198685,0.247639,-0.108853,0.418741,0.313097,,0.767505,-0.021909,0.422829,1.057164,0.710674,0.783749,-0.066047,0.659915,0.727924,0.614457,;0.043604,-0.040788,0.879762,0.784933,0.668034,0.962649,0.148021,0.336243,0.669139,0.201682,;0.024686,0.829355,0.886263,0.116308,0.226417,0.184846,0.114959,0.374527,0.362014,0.762624,;-0.117428,0.638828,0.360379,0.121556,0.217463,0.302523,0.725928,0.953155,0.313334,0.060070,;0.457905,0.740245,0.410454,0.796120,0.518756,0.448056,0.643925,0.868211,0.266404,0.216447,;0.840033,0.622628,0.565190,0.865284,0.565157,0.907941,0.279270,0.232404,0.881625,-0.191476,;0.187286,0.449607,0.287231,0.448267,0.494477,0.667255,0.439472,0.517415,0.792955,0.135023,;0.051438,0.066401,0.080214,0.203853,1.025579,0.497953,0.807735,0.302457,0.285081,-0.008560,;0.253279,0.283105,0.767261,0.695500,0.237717,0.560950,0.494113,0.620311,0.630010,0.910859,;0.419726,0.830547,0.837126,0.393132,0.290196,0.453271,0.460868,0.326450,0.128762,0.993130,;0.508359,0.799423,0.124830,-0.039574,0.775300,0.334923,0.297888,-0.167577,0.758993,0.139315,;0.898021,0.706118,0.156669,0.879480,0.542111,0.394347,0.880065,0.905953,0.712918,0.692410,;0.628444,0.950167,0.441932,0.137922,0.269907,-0.048484,0.201677,0.322727,0.134800,0.451051,;,0.705648,0.954744,0.619143,0.570761,1.027832,0.337778,0.088620,0.128343,0.097493,0.345091,0.453062,0.110593,0.477340,
-0.016429,1.334348,0.676434,0.344762,1.152993,0.637865,0.096580,;0.674208,-0.392105,0.272100,-0.362864,-0.136023,0.206285,-0.178955,;0.299867,0.099657,0.248963,0.188621,-0.231470,-0.022205,-0.174492,;0.079985,0.536482,-0.195990,-0.157927,-0.248227,0.121821,-0.013920,;-0.371677,-0.029864,-0.310680,-0.417693,-0.697813,-0.137152,0.283088,;0.305044,-0.403374,0.354605,0.493944,-0.676068,0.194901,-0.084666,;-0.363963,-0.032145,0.189600,0.575586,1.084531,-0.084363,0.322914,;0.376765,0.350413,-0.164358,0.136212,0.474806,0.141330,-0.354497,;0.074340,1.136937,0.137359,0.790857,0.436322,0.664826,-0.294750,;0.621712,0.368243,0.656061,0.885553,0.186355,0.434360,0.029514,;,-0.038927,0.664087,0.074995,-0.760243,-0.594540,-0.981644,-0.253560,0.072605,-0.188042,0.524999,,-0.555016,0.365071,-0.025802,-0.314600,-0.039081,0.201968,0.790722,0.451227,-0.131037,-0.103560,;0.231496,0.092552,-0.126963,0.572211,0.489289,0.099128,0.737474,0.468009,0.050950,-0.363394,;0.467783,0.127289,0.238894,0.695241,0.487915,0.601700,-0.292707,-0.028123,0.555279,-0.304202,;-0.934609,0.167732,0.111891,0.308077,0.529053,0.642163,-0.240612,0.087974,-0.038849,-0.431948,;-0.150198,-0.407996,-0.307079,-0.114246,0.808111,0.183260,0.515292,-0.148017,0.040541,-0.131490,;0.102621,-0.072374,0.555794,0.402413,-0.013657,-0.034426,-0.174417,0.430968,0.180893,0.852773,;0.255028,0.756808,0.574934,0.270137,0.217550,0.171271,0.225663,0.125424,-0.345934,0.749650,;-0.749692,0.663250,-0.060440,0.005643,1.046597,0.208547,-0.517812,-0.443116,-0.527057,-0.420418,;0.898993,0.425960,-0.180375,0.358555,0.108014,-0.061009,0.587374,0.500905,0.522459,0.564126,;-0.428010,0.755502,0.179423,0.058537,0.252302,0.126581,-0.166792,-0.024695,-0.596957,0.174870,;,0.593008,0.549944,0.228872,-0.191794,0.154592,0.201596,0.223652,-0.078300,0.397642,0.309206,,0.776761,-0.027595,0.415127,1.056331,0.708397,0.783507,-0.063185,0.667465,0.716823,0.617600,;0.009196,-0.059158,0.902196,0.784821,0.661916,0.973992,0.144344,0.326438,0.679988,0.210963,;0.034477,0.824136,0.876810,0.119447,0.228488,0.178858,0.113438,0.384523,0.351039,0.771301,;-0.136209,0.638669,0.378950,0.123370,0.219011,0.307322,0.721559,0.942452,0.322295,0.049963,;0.448144,0.738620,0.421315,0.803060,0.523870,0.447332,0.637825,0.866759,0.265816,0.211702,;0.845669,0.631510,0.558947,0.868882,0.570511,0.899035,0.275070,0.240494,0.874204,-0.198908,;0.216302,0.446087,0.257887,0.453234,0.501620,0.644167,0.436360,0.528961,0.778707,0.171165,;0.062877,0.072888,0.067367,0.198290,1.027771,0.490975,0.811267,0.300969,0.287634,-0.003940,;0.261464,0.306150,0.762951,0.678447,0.231573,0.573032,0.502328,0.594606,0.654665,0.874742,;0.424795,0.824253,0.833182,0.399198,0.290525,0.449939,0.460086,0.345400,0.112617,0.999401,;0.491674,0.808901,0.142071,-0.047553,0.771900,0.349125,0.296634,-0.197907,0.784529,0.110333,;0.891951,0.695688,0.163740,0.884961,0.539166,0.397521,0.880668,0.919887,0.701597,0.697487,;0.631392,0.946999,0.435396,0.132210,0.267241,-0.049723,0.207685,0.326964,0.133868,0.457870,;,0.711288,0.953318,0.618960,0.565270,1.018815,0.333273,0.084711,0.133414,0.109852,0.343828,0.454125,0.108947,0.484999,
-0.072515,1.436244,0.662235,0.329572,1.172782,0.618355,0.069410,;0.683814,-0.399731,0.279127,-0.347401,-0.108074,0.210627,-0.168166,;0.302686,0.114463,0.239950,0.178151,-0.244633,-0.031708,-0.180017,;0.063081,0.563791,-0.206392,-0.165778,-0.273237,0.093049,-0.042849,;-0.370426,-0.037320,-0.310176,-0.414173,-0.716945,-0.145873,0.293535,;0.309753,-0.399395,0.350995,0.498621,-0.693808,0.185865,-0.088984,;-0.386462,-0.037810,0.213224,0.567016,1.170574,-0.082159,0.329849,;0.328621,0.352511,-0.166320,0.124948,0.506113,0.122377,-0.402480,;0.019656,1.215401,0.112834,0.790668,0.409279,0.635493,-0.359941,;0.585058,0.388921,0.642374,0.882121,0.204168,0.428316,0.015155,;,0.025332,0.620367,0.070087,-0.715689,-0.554717,-0.947963,-0.204734,0.046140,-0.096223,0.498828,,-0.557997,0.348744,-0.036675,-0.321631,-0.049414,0.214953,0.848125,0.454362,-0.140956,-0.114862,;0.236542,0.102173,-0.130205,0.557655,0.473291,0.086831,0.737861,0.464736,0.025701,-0.364752,;0.451936,0.126846,0.249212,0.693188,0.491574,0.577627,-0.355256,-0.037142,0.565496,-0.300634,;-0.966504,0.170774,0.120292,0.302714,0.524672,0.640883,-0.268397,0.086803,-0.045746,-0.431154,;-0.147004,-0.416291,-0.317322,-0.120803,0.814828,0.166950,0.506469,-0.172240,0.034651,-0.133681,;0.088905,-0.087535,0.553449,0.405114,-0.005822,-0.049975,-0.205514,0.428436,0.185810,0.832931,;0.281710,0.758420,0.563214,0.275692,0.219212,0.169585,0.236872,0.119514,-0.365235,0.745098,;-0.790837,0.671709,-0.057587,0.000847,1.044907,0.226314,-0.529566,-0.454996,-0.563676,-0.419943,;0.917528,0.387190,-0.193250,0.368992,0.117328,-0.065026,0.608800,0.504893,0.548186,0.533643,;-0.432666,0.730954,0.178179,0.064536,0.245115,0.147718,-0.127951,-0.013546,-0.566770,0.183199,;,0.572156,0.557165,0.259415,-0.181831,0.169983,0.207026,0.213383,-0.084414,0.377108,0.294328,,0.778018,-0.022587,0.418406,1.065719,0.715528,0.777462,-0.068997,0.678985,0.701759,0.607892,;-0.023402,-0.079433,0.926847,0.780187,0.653190,0.989096,0.142437,0.310424,0.696634,0.218943,;0.048866,0.815967,0.861371,0.118676,0.226785,0.175430,0.115458,0.393404,0.341668,0.785425,;-0.157864,0.638114,0.400636,0.127790,0.223339,0.309889,0.714597,0.932142,0.330586,0.038948,;0.434956,0.740488,0.437045,0.810599,0.530561,0.447385,0.630198,0.859911,0.269628,0.200699,;0.858379,0.636238,0.543056,0.869584,0.571969,0.890466,0.274278,0.251532,0.864445,-0.196397,;0.250409,0.440866,0.221689,0.454627,0.506617,0.621702,0.435608,0.537526,0.766358,0.208263,;0.073396,0.081137,0.054968,0.197646,1.035090,0.477819,0.811451,0.305519,0.284525,0.000797,;0.265324,0.331876,0.762965,0.674366,0.236578,0.572051,0.501363,0.582658,0.665492,0.842629,;0.433435,0.816465,0.824003,0.399234,0.284217,0.451991,0.464904,0.360741,0.100732,1.008902,;0.475088,0.814348,0.160096,-0.057273,0.766636,0.365021,0.296365,-0.230074,0.812015,0.086296,;0.887393,0.680485,0.167486,0.880148,0.525479,0.411352,0.889845,0.925524,0.698961,0.705839,;0.626142,0.946449,0.437897,0.136430,0.273931,-0.058290,0.205619,0.339426,0.124796,0.459736,;,0.704173,0.956093,0.624490,0.555608,1.006515,0.333788,0.084858,0.133264,0.108146,0.350377,0.456492,0.119592,0.481692,
-0.146830,1.534240,0.651385,0.309603,1.183107,0.598619,0.039859,;0.702936,-0.409356,0.277391,-0.335392,-0.090454,0.214660,-0.159048,;0.310534,0.121289,0.229449,0.164042,-0.263236,-0.042141,-0.185450,;0.043047,0.581645,-0.221766,-0.175878,-0.305088,0.064978,-0.069640,;-0.367105,-0.046771,-0.318187,-0.406863,-0.735655,-0.152689,0.308664,;0.319279,-0.401052,0.342851,0.503396,-0.712194,0.178730,-0.089411,;-0.405410,-0.031499,0.226273,0.559949,1.254809,-0.074978,0.338277,;0.283937,0.358585,-0.175750,0.113569,0.530985,0.103999,-0.450526,;-0.051209,1.289162,0.092803,0.789286,0.379905,0.606851,-0.422565,;0.551127,0.405217,0.628993,0.874506,0.217982,0.422322,-0.000026,;,0.045285,0.584200,0.071202,-0.682880,-0.510777,-0.909667,-0.158991,0.023524,-0.035342,0.477933,,-0.558554,0.347182,-0.043956,-0.338670,-0.073116,0.210237,0.894326,0.464999,-0.151713,-0.111715,;0.243808,0.101616,-0.132510,0.556341,0.466016,0.084820,0.737000,0.461952,0.009574,-0.371862,;0.426369,0.118469,0.255955,0.699214,0.508906,0.567835,-0.418831,-0.056070,0.567870,-0.310324,;-0.997530,0.181979,0.129466,0.290274,0.513539,0.631606,-0.300348,0.086244,-0.053442,-0.423397,;-0.141637,-0.426168,-0.330678,-0.125989,0.825494,0.151758,0.499432,-0.200111,0.026158,-0.139555,;0.073576,-0.096004,0.550840,0.402135,-0.001543,-0.070455,-0.237313,0.426155,0.186845,0.815726,;0.297554,0.763029,0.553757,0.282982,0.223321,0.168573,0.233645,0.109881,-0.391146,0.739304,;-0.827900,0.687337,-0.054509,-0.012713,1.032549,0.236511,-0.538002,-0.463266,-0.598116,-0.409527,;0.938789,0.345276,-0.206796,0.384089,0.130163,-0.067119,0.629349,0.512157,0.576628,0.500022,;-0.451275,0.714086,0.175305,0.065555,0.234593,0.163874,-0.101523,-0.001714,-0.553153,0.192155,;,0.573407,0.550645,0.274503,-0.159571,0.182872,0.220611,0.203700,-0.079376,0.352538,0.286042,,0.785033,-0.020122,0.415166,1.061469,0.712925,0.782256,-0.065700,0.675148,0.702401,0.600481,;-0.063476,-0.096033,0.961272,0.785957,0.653598,0.996311,0.131753,0.301943,0.704692,0.220940,;0.061458,0.813649,0.848880,0.124155,0.231738,0.166670,0.112195,0.405054,0.328360,0.793961,;-0.174407,0.634020,0.417541,0.123321,0.220511,0.318387,0.714355,0.913716,0.347064,0.033084,;0.420419,0.742887,0.454980,0.815918,0.536290,0.449632,0.622779,0.846855,0.279990,0.186945,;0.876212,0.639233,0.520720,0.870553,0.572773,0.880630,0.275218,0.267353,0.850114,-0.187987,;0.287202,0.441487,0.181697,0.456175,0.513623,0.596203,0.434380,0.543957,0.755093,0.241702,;0.083488,0.089029,0.041597,0.198168,1.044665,0.461818,0.811063,0.312238,0.279714,0.007116,;0.277271,0.350725,0.752477,0.665104,0.236734,0.572245,0.505840,0.572230,0.676511,0.824727,;0.441656,0.810190,0.815383,0.400957,0.278698,0.454075,0.468406,0.376821,0.086813,1.015523,;0.457131,0.819082,0.181042,-0.068528,0.760180,0.382455,0.296259,-0.264669,0.842678,0.062705,;0.875519,0.662768,0.179489,0.880031,0.512539,0.425733,0.895328,0.935380,0.690836,0.711609,;0.615460,0.945762,0.444761,0.143047,0.282138,-0.067824,0.202658,0.354305,0.113922,0.460813,;,0.710802,0.946645,0.622465,0.555190,0.994316,0.335962,0.083306,0.131548,0.113905,0.356125,0.459377,0.127115,0.475343,
-0.226366,1.636939,0.635749,0.292929,1.192883,0.579496,0.009860,;0.717427,-0.419797,0.287087,-0.321457,-0.072895,0.223787,-0.157881,;0.314904,0.127981,0.223297,0.153838,-0.275579,-0.049971,-0.191295,;0.014975,0.596782,-0.226588,-0.175205,-0.326189,0.042820,-0.098521,;-0.371820,-0.061719,-0.310725,-0.387848,-0.744707,-0.154146,0.319397,;0.329460,-0.404625,0.344770,0.514950,-0.723620,0.175736,-0.089759,;-0.423259,-0.028937,0.248768,0.554445,1.329871,-0.064822,0.334906,;0.235509,0.363346,-0.176546,0.105519,0.553593,0.086018,-0.505368,;-0.126429,1.362311,0.068216,0.792415,0.353201,0.577253,-0.480669,;0.517752,0.420184,0.613910,0.864856,0.228708,0.416023,-0.016811,;,0.048692,0.532909,0.055959,-0.667412,-0.477673,-0.868237,-0.111759,-0.008772,0.018817,0.447790,,-0.575650,0.353289,-0.046495,-0.358868,-0.095953,0.205708,0.927549,0.470415,-0.174088,-0.107294,;0.269526,0.092675,-0.133283,0.558620,0.456116,0.093638,0.755547,0.464638,0.011996,-0.375689,;0.433462,0.105291,0.261139,0.702916,0.518218,0.558628,-0.456280,-0.068319,0.594211,-0.310974,;-1.029074,0.194104,0.138937,0.276685,0.503154,0.625421,-0.330040,0.081740,-0.063244,-0.415566,;-0.131350,-0.425285,-0.341487,-0.142880,0.825881,0.128375,0.494870,-0.228675,0.020395,-0.133693,;0.063935,-0.113176,0.545872,0.405433,0.007524,-0.080087,-0.255880,0.425136,0.192501,0.792403,;0.318631,0.765104,0.546681,0.293412,0.227695,0.173006,0.230511,0.101310,-0.410932,0.734414,;-0.865213,0.701426,-0.053242,-0.027367,1.020273,0.252942,-0.538178,-0.474035,-0.636037,-0.400310,;0.957677,0.303363,-0.219570,0.399373,0.142416,-0.067795,0.647102,0.522932,0.608519,0.466161,;-0.448263,0.695803,0.171883,0.067557,0.218861,0.178951,-0.065085,0.017462,-0.527562,0.206345,;,0.579903,0.531754,0.288233,-0.138164,0.211769,0.219456,0.188282,-0.080315,0.327300,0.276041,,0.792938,-0.022297,0.410824,1.056327,0.707928,0.788975,-0.061631,0.670687,0.700655,0.598772,;-0.098823,-0.109817,0.992954,0.782141,0.649341,1.006834,0.126878,0.283027,0.723880,0.220986,;0.073312,0.815596,0.837467,0.132817,0.240102,0.155859,0.106337,0.415768,0.315236,0.798208,;-0.188002,0.629844,0.433303,0.119912,0.219530,0.324020,0.711918,0.896186,0.362902,0.027480,;0.406075,0.744455,0.471877,0.818140,0.540647,0.453016,0.616111,0.829874,0.295973,0.174101,;0.893015,0.643256,0.498743,0.881242,0.580424,0.864203,0.271182,0.294450,0.824337,-0.179186,;0.318048,0.446113,0.145660,0.464517,0.527241,0.566381,0.427728,0.553695,0.740448,0.270474,;0.095891,0.096804,0.025122,0.194122,1.051939,0.447925,0.814276,0.313932,0.278960,0.013934,;0.293570,0.367087,0.735956,0.657803,0.238068,0.568987,0.509359,0.568221,0.681999,0.813118,;0.444437,0.812964,0.814248,0.407335,0.278133,0.454508,0.467942,0.390415,0.075402,1.010113,;0.441228,0.820621,0.202009,-0.082224,0.750575,0.402064,0.296529,-0.300060,0.875022,0.042146,;0.858885,0.642549,0.196872,0.878362,0.496046,0.444760,0.903173,0.943926,0.683776,0.716959,;0.609247,0.940276,0.446332,0.139872,0.282689,-0.070628,0.207899,0.362082,0.109542,0.465755,;,0.720943,0.944875,0.615541,0.553175,0.983244,0.328962,0.072503,0.134201,0.119511,0.353871,0.465515,0.137385,0.480712,
-0.315393,1.730737,0.622141,0.275769,1.186140,0.560767,-0.032246,;0.744668,-0.428228,0.291283,-0.314095,-0.061067,0.231117,-0.143112,;0.330419,0.132982,0.217232,0.141685,-0.292187,-0.060272,-0.191483,;-0.010379,0.600294,-0.233471,-0.179958,-0.357557,0.019984,-0.117532,;-0.370491,-0.080655,-0.309332,-0.373563,-0.756453,-0.155744,0.351847,;0.345007,-0.410782,0.344836,0.525248,-0.735291,0.173460,-0.079445,;-0.451286,-0.021233,0.264653,0.548853,1.405632,-0.052191,0.334710,;0.186115,0.371327,-0.178955,0.098857,0.573099,0.066445,-0.555405,;-0.218310,1.427675,0.050388,0.797635,0.320306,0.547588,-0.542456,;0.488374,0.435909,0.599774,0.853547,0.234797,0.408375,-0.032350,;,0.022887,0.509696,0.068839,-0.651405,-0.433199,-0.819102,-0.108304,-0.053963,0.022931,0.421255,,-0.573438,0.352144,-0.051650,-0.373992,-0.118763,0.200138,0.972213,0.479590,-0.184220,-0.102251,;0.284710,0.084153,-0.134459,0.563203,0.451580,0.105629,0.766194,0.462782,0.006748,-0.383417,;0.433784,0.094374,0.264759,0.705150,0.534207,0.553919,-0.501387,-0.092505,0.609274,-0.315136,;-1.054224,0.208052,0.146889,0.259749,0.490685,0.616822,-0.352521,0.074346,-0.073135,-0.405130,;-0.127811,-0.440463,-0.359174,-0.145075,0.846324,0.123170,0.492228,-0.268267,0.002768,-0.147477,;0.056247,-0.128625,0.540678,0.407539,0.017978,-0.089465,-0.274098,0.419490,0.193624,0.769687,;0.332217,0.781936,0.544745,0.294914,0.225351,0.165462,0.209509,0.088490,-0.436169,0.737832,;-0.904852,0.727741,-0.050776,-0.052443,1.000610,0.258313,-0.539627,-0.488539,-0.681219,-0.383205,;0.976453,0.248186,-0.235655,0.428864,0.169175,-0.054651,0.664336,0.531064,0.637686,0.420216,;-0.441498,0.683637,0.165916,0.063609,0.200265,0.180694,-0.035354,0.031677,-0.509829,0.223895,;,0.581206,0.509551,0.300635,-0.112979,0.212690,0.218270,0.193749,-0.063809,0.278558,0.279983,,0.790968,-0.018787,0.416418,1.062481,0.712516,0.788602,-0.067192,0.674158,0.693121,0.588052,;-0.128386,-0.125220,1.020301,0.773415,0.642931,1.017736,0.125241,0.259187,0.746987,0.223870,;0.084610,0.818345,0.825223,0.141762,0.249297,0.144523,0.100102,0.425807,0.303193,0.801485,;-0.202787,0.625698,0.449779,0.123056,0.222917,0.323804,0.705677,0.887113,0.370778,0.024614,;0.391114,0.746146,0.489488,0.823640,0.546369,0.453740,0.607439,0.816175,0.309500,0.162758,;0.915261,0.647101,0.469987,0.885947,0.584358,0.851828,0.271990,0.315045,0.804397,-0.169046,;0.351979,0.448114,0.104682,0.464165,0.534603,0.541379,0.427709,0.556016,0.731771,0.302489,;0.104056,0.103870,0.012168,0.191301,1.061699,0.433413,0.816359,0.316720,0.277314,0.018856,;0.310816,0.381631,0.716451,0.652040,0.241314,0.562896,0.512568,0.569478,0.683255,0.807536,;0.448551,0.815730,0.811494,0.410008,0.274814,0.457794,0.469621,0.398545,0.068775,1.004833,;0.418697,0.823875,0.229664,-0.085079,0.747623,0.414527,0.288310,-0.324519,0.898666,0.019106,;0.843986,0.620728,0.215830,0.871137,0.473790,0.469655,0.914054,0.944732,0.681975,0.721858,;0.600406,0.934165,0.451333,0.135841,0.284495,-0.072266,0.213697,0.368818,0.106473,0.468942,;,0.716572,0.947630,0.607525,0.544461,0.968145,0.328475,0.071002,0.134910,0.124986,0.355251,0.459000,0.154783,0.486730,
-0.367929,1.824581,0.605791,0.259005,1.175855,0.544435,-0.074709,;0.762584,-0.436262,0.288823,-0.312144,-0.053653,0.237895,-0.136228,;0.340142,0.134925,0.210862,0.126019,-0.307240,-0.070267,-0.192429,;-0.028931,0.598038,-0.247618,-0.188629,-0.384408,-0.000302,-0.143474,;-0.377751,-0.103963,-0.315290,-0.362838,-0.759102,-0.154783,0.371117,;0.353812,-0.421515,0.340602,0.531361,-0.743833,0.171894,-0.072940,;-0.455158,-0.005957,0.266741,0.538313,1.472042,-0.041479,0.315739,;0.156704,0.382920,-0.192258,0.086825,0.585349,0.043386,-0.618738,;-0.288396,1.491617,0.031933,0.801553,0.291117,0.518687,-0.605105,;0.471779,0.453488,0.585537,0.840616,0.239142,0.400986,-0.050123,;,0.095971,0.453426,0.054914,-0.618993,-0.404483,-0.794367,-0.044750,-0.054978,0.085088,0.418759,,-0.582082,0.345381,-0.056553,-0.377730,-0.132206,0.199431,1.004382,0.491628,-0.196283,-0.106989,;0.287435,0.084237,-0.133231,0.562341,0.440748,0.107654,0.764355,0.467064,0.003379,-0.387281,;0.432113,0.080771,0.263796,0.709063,0.552818,0.551495,-0.541046,-0.114503,0.619421,-0.325125,;-1.081564,0.209380,0.149531,0.254758,0.489047,0.620830,-0.367342,0.068453,-0.085557,-0.408332,;-0.116062,-0.442235,-0.374667,-0.159618,0.852884,0.101947,0.492668,-0.301173,-0.009944,-0.148459,;0.046254,-0.133459,0.538221,0.402879,0.019447,-0.108116,-0.293259,0.422088,0.194848,0.753240,;0.339432,0.790323,0.541971,0.306411,0.231963,0.167299,0.183291,0.073793,-0.463310,0.730970,;-0.941002,0.732737,-0.057463,-0.061664,0.994183,0.281748,-0.524454,-0.500599,-0.723011,-0.383659,;0.993174,0.225741,-0.240053,0.433693,0.168794,-0.074729,0.661027,0.550786,0.674699,0.401253,;-0.438664,0.663675,0.155467,0.067182,0.187577,0.185090,-0.010068,0.047762,-0.495304,0.232282,;,0.572066,0.501458,0.306321,-0.109809,0.234567,0.229497,0.184487,-0.079151,0.280647,0.274182,,0.792681,-0.017190,0.418301,1.059546,0.710230,0.794505,-0.067171,0.667383,0.694890,0.580382,;-0.158442,-0.136257,1.049473,0.772788,0.644745,1.019466,0.118556,0.244253,0.761582,0.224408,;0.100246,0.820741,0.808176,0.144829,0.254705,0.137436,0.097711,0.429482,0.297503,0.806019,;-0.210200,0.620165,0.458299,0.118522,0.221352,0.326439,0.705336,0.871636,0.383992,0.025867,;0.378994,0.746409,0.504607,0.825585,0.550090,0.456440,0.600139,0.797722,0.327801,0.153689,;0.938740,0.652361,0.439230,0.894762,0.590844,0.837430,0.271503,0.340915,0.779354,-0.158759,;0.385103,0.448385,0.064137,0.459838,0.538836,0.520668,0.430789,0.553555,0.725960,0.333277,;0.109842,0.113057,0.001477,0.187458,1.072283,0.419332,0.817857,0.316433,0.279909,0.019823,;0.327399,0.397028,0.696362,0.649732,0.246976,0.553684,0.512991,0.574333,0.680873,0.802694,;0.454088,0.819930,0.806962,0.410836,0.269750,0.462223,0.472357,0.405474,0.064579,0.998806,;0.403362,0.820053,0.251112,-0.096695,0.734868,0.434766,0.288333,-0.352201,0.924063,0.005158,;0.819943,0.598321,0.245033,0.873260,0.456862,0.490881,0.918478,0.953934,0.672148,0.723167,;0.581291,0.931361,0.466998,0.142518,0.295203,-0.081368,0.210270,0.382721,0.097305,0.465796,;,0.721781,0.940354,0.605863,0.544306,0.956177,0.324484,0.073718,0.134416,0.126735,0.358728,0.465870,0.163230,0.478769,
-0.443487,1.911841,0.584632,0.238665,1.160980,0.526686,-0.114105,;0.792462,-0.441425,0.294586,-0.314674,-0.045968,0.249977,-0.132449,;0.358213,0.137205,0.208287,0.109348,-0.320198,-0.077541,-0.194031,;-0.048950,0.590234,-0.254494,-0.202549,-0.406721,-0.013913,-0.167551,;-0.383602,-0.132742,-0.311326,-0.358753,-0.756245,-0.143907,0.386364,;0.370571,-0.433360,0.345029,0.535624,-0.747964,0.176472,-0.063695,;-0.481804,0.016917,0.273228,0.530610,1.539875,-0.025300,0.294651,;0.120041,0.401877,-0.199427,0.077560,0.602714,0.022773,-0.681732,;-0.372748,1.548473,0.010867,0.804133,0.264551,0.488223,-0.663100,;0.453636,0.470099,0.570138,0.824729,0.241077,0.394279,-0.070888,;,0.084669,0.431741,0.055368,-0.606801,-0.385294,-0.754751,-0.039939,-0.079629,0.084759,0.393964,,-0.573905,0.343588,-0.058383,-0.386449,-0.153946,0.190469,1.042195,0.507755,-0.192599,-0.100430,;0.306500,0.077687,-0.134653,0.564917,0.431036,0.114204,0.776908,0.471940,0.010877,-0.391534,;0.433415,0.072501,0.260173,0.708005,0.568284,0.549712,-0.575399,-0.138271,0.625128,-0.334300,;-1.100037,0.219512,0.153622,0.241819,0.477999,0.618381,-0.375712,0.065015,-0.093670,-0.402489,;-0.112154,-0.461528,-0.397269,-0.155112,0.878409,0.106069,0.498254,-0.335312,-0.031784,-0.171870,;0.046138,-0.146839,0.531929,0.408101,0.024942,-0.115489,-0.299460,0.432498,0.201287,0.729514,;0.352365,0.802112,0.542698,0.318066,0.235322,0.167898,0.150755,0.059039,-0.483484,0.727821,;-0.973732,0.758996,-0.058013,-0.089445,0.969794,0.287308,-0.513364,-0.512743,-0.762709,-0.366181,;1.015381,0.188164,-0.249190,0.455000,0.179694,-0.078709,0.666422,0.577668,0.716394,0.369057,;-0.442595,0.657295,0.145975,0.061581,0.170565,0.181203,0.004906,0.058762,-0.490614,0.243236,;,0.573716,0.482845,0.312300,-0.096010,0.216256,0.219559,0.178495,-0.063194,0.253213,0.282673,,0.794728,-0.018061,0.420392,1.058799,0.707595,0.800798,-0.067592,0.664077,0.692754,0.575995,;-0.181244,-0.145630,1.071762,0.767642,0.645441,1.020540,0.115049,0.225425,0.780034,0.226204,;0.112370,0.824777,0.793406,0.152352,0.263700,0.126962,0.091578,0.436127,0.289343,0.808330,;-0.217402,0.615488,0.465670,0.117654,0.223367,0.325514,0.702519,0.860954,0.392600,0.027387,;0.368529,0.744590,0.517532,0.827855,0.552337,0.458445,0.593981,0.782072,0.342910,0.148151,;0.961856,0.661532,0.408372,0.900994,0.596968,0.825160,0.271506,0.360478,0.762181,-0.153926,;0.406282,0.452797,0.034475,0.466238,0.551563,0.493856,0.425548,0.558145,0.715245,0.357132,;0.110752,0.120867,-0.004008,0.187378,1.085384,0.403972,0.816823,0.319553,0.279403,0.019209,;0.349121,0.408154,0.670636,0.641587,0.249485,0.548001,0.517350,0.575453,0.681103,0.802782,;0.456655,0.827858,0.804900,0.414078,0.267140,0.464145,0.471855,0.411718,0.062084,0.989499,;0.385773,0.817728,0.275579,-0.102530,0.724892,0.452165,0.283775,-0.374541,0.945720,-0.010217,;0.799343,0.575452,0.272948,0.867693,0.432674,0.517608,0.929043,0.955351,0.667531,0.725541,;0.566263,0.924153,0.479420,0.142104,0.301878,-0.085490,0.212510,0.391164,0.092384,0.465274,;,0.727359,0.936847,0.598218,0.540483,0.944929,0.320164,0.061710,0.129740,0.136841,0.357131,0.466528,0.180549,0.479772,
-0.493775,2.000706,0.563497,0.217360,1.140189,0.510856,-0.149444,;0.812581,-0.449115,0.294899,-0.304007,-0.034480,0.256186,-0.128723,;0.377056,0.142960,0.204425,0.100681,-0.331155,-0.088329,-0.193365,;-0.053804,0.583707,-0.265902,-0.201488,-0.428419,-0.031710,-0.189300,;-0.381396,-0.163079,-0.314287,-0.332680,-0.747405,-0.138104,0.400030,;0.390773,-0.447361,0.345331,0.550741,-0.749790,0.177933,-0.054243,;-0.498430,0.020248,0.273721,0.516303,1.599306,-0.012183,0.268114,;0.097836,0.415243,-0.210731,0.069779,0.610963,-0.004031,-0.744333,;-0.433183,1.608921,-0.008069,0.805474,0.229490,0.458938,-0.717560,;0.442773,0.490267,0.554664,0.812120,0.241161,0.386532,-0.088649,;,0.144304,0.366874,0.053063,-0.567475,-0.363366,-0.717971,-0.036311,-0.084454,0.152365,0.382656,,-0.588673,0.336425,-0.060891,-0.385336,-0.162993,0.195099,1.068543,0.519996,-0.204301,-0.107528,;0.304197,0.074239,-0.135524,0.564843,0.420679,0.125792,0.789914,0.478268,0.006260,-0.396880,;0.443285,0.074824,0.262853,0.696129,0.571150,0.538190,-0.611370,-0.161926,0.640177,-0.325597,;-1.119897,0.227581,0.157625,0.229468,0.467188,0.620852,-0.379215,0.061008,-0.102276,-0.395936,;-0.109482,-0.460751,-0.413347,-0.169801,0.885786,0.093423,0.500993,-0.368503,-0.051427,-0.175145,;0.045820,-0.146593,0.533385,0.401938,0.017866,-0.132544,-0.311405,0.442558,0.211802,0.722761,;0.361997,0.811698,0.543219,0.328135,0.235812,0.171848,0.126916,0.046357,-0.504297,0.727057,;-1.006160,0.765112,-0.064736,-0.101659,0.957152,0.313515,-0.486974,-0.520512,-0.799896,-0.361775,;1.035194,0.165132,-0.251260,0.465113,0.178837,-0.092190,0.664406,0.605268,0.762741,0.353089,;-0.444086,0.630997,0.134333,0.071309,0.163864,0.188756,0.021335,0.073434,-0.479011,0.245549,;,0.557642,0.461959,0.341977,-0.085558,0.231456,0.233579,0.168886,-0.081131,0.249650,0.269014,,0.788304,-0.016114,0.430805,1.067618,0.711106,0.801923,-0.076657,0.666596,0.686292,0.567555,;-0.196150,-0.155553,1.086590,0.753914,0.642857,1.023243,0.118359,0.200080,0.803459,0.230923,;0.124808,0.829647,0.779152,0.155980,0.270082,0.119784,0.087220,0.437308,0.286671,0.809302,;-0.224239,0.613083,0.472002,0.119991,0.228860,0.320520,0.697510,0.851911,0.400315,0.028696,;0.361410,0.741707,0.527396,0.829068,0.553364,0.460472,0.588742,0.764483,0.358616,0.145671,;0.986623,0.668765,0.375171,0.906369,0.601364,0.813684,0.274210,0.381610,0.742539,-0.145235,;0.427683,0.452978,0.005016,0.463176,0.557579,0.475207,0.426590,0.553115,0.713395,0.381123,;0.112601,0.127698,-0.009700,0.183204,1.095600,0.392107,0.818395,0.318999,0.281900,0.018465,;0.364506,0.420028,0.650278,0.641269,0.257420,0.537867,0.516204,0.584276,0.674712,0.801901,;0.460033,0.835877,0.801689,0.415665,0.262643,0.468291,0.472263,0.415985,0.062092,0.979705,;0.368933,0.814482,0.299620,-0.105448,0.714033,0.468742,0.278550,-0.392313,0.962753,-0.022871,;0.779723,0.554029,0.300500,0.863432,0.409933,0.543416,0.938594,0.957171,0.662445,0.725069,;0.553385,0.914264,0.490487,0.139124,0.307565,-0.088651,0.217402,0.398957,0.086514,0.468125,;,0.720614,0.942366,0.593656,0.531831,0.935445,0.318787,0.060074,0.129417,0.138435,0.357095,0.466180,0.196206,0.484922,
-0.552981,2.088308,0.539464,0.203881,1.116089,0.496714,-0.183926,;0.836789,-0.445826,0.300730,-0.300706,-0.024635,0.262751,-0.123746,;0.394426,0.146496,0.205029,0.086482,-0.340745,-0.098936,-0.190867,;-0.069069,0.578567,-0.267841,-0.206344,-0.452844,-0.047218,-0.207524,;-0.385537,-0.184227,-0.303657,-0.312395,-0.740644,-0.129355,0.416995,;0.406764,-0.459971,0.355563,0.558509,-0.752531,0.180451,-0.041728,;-0.522684,0.052674,0.279125,0.513749,1.652320,-0.002575,0.239885,;0.065174,0.440951,-0.212172,0.063361,0.615871,-0.035537,-0.804515,;-0.507309,1.661915,-0.022110,0.810097,0.194688,0.428535,-0.767839,;0.431971,0.511168,0.540436,0.800423,0.241969,0.378634,-0.104674,;,0.156924,0.329754,0.042800,-0.555588,-0.338464,-0.686262,-0.018245,-0.103803,0.165757,0.364199,,-0.583187,0.330076,-0.058894,-0.386616,-0.177437,0.188499,1.093229,0.531688,-0.197461,-0.103190,;0.319377,0.065059,-0.132811,0.571482,0.412930,0.135820,0.799139,0.485690,0.021086,-0.398969,;0.443428,0.067906,0.259918,0.695066,0.589052,0.543887,-0.647077,-0.194614,0.636742,-0.333847,;-1.137622,0.227489,0.156779,0.223362,0.463580,0.630336,-0.373752,0.054418,-0.116938,-0.398151,;-0.094980,-0.465719,-0.429213,-0.179847,0.896723,0.085704,0.506208,-0.405955,-0.064586,-0.177514,;0.053281,-0.155553,0.531556,0.403036,0.017062,-0.140265,-0.312004,0.450648,0.220968,0.710437,;0.387718,0.821176,0.546836,0.337843,0.230413,0.167504,0.103351,0.037988,-0.509820,0.733858,;-1.031598,0.784543,-0.069102,-0.127716,0.930988,0.322251,-0.457391,-0.527072,-0.834944,-0.344909,;1.067101,0.131784,-0.255517,0.483797,0.183985,-0.098843,0.670334,0.634081,0.816868,0.333971,;-0.449093,0.611995,0.123386,0.078922,0.158924,0.189195,0.024881,0.080722,-0.478127,0.245319,;,0.556273,0.441058,0.345414,-0.090808,0.240465,0.230657,0.169007,-0.072725,0.231787,0.264128,,0.788963,-0.019691,0.435442,1.066869,0.707487,0.809108,-0.078287,0.661561,0.683885,0.565681,;-0.210197,-0.162598,1.099105,0.745252,0.646313,1.018371,0.119088,0.180917,0.821314,0.235598,;0.132712,0.834693,0.768747,0.164209,0.279317,0.110491,0.079266,0.441913,0.281598,0.809555,;-0.224188,0.611181,0.471839,0.116835,0.231034,0.318017,0.696323,0.838646,0.411599,0.031534,;0.354779,0.739506,0.535387,0.834629,0.556034,0.459006,0.581389,0.752621,0.369247,0.144860,;1.008314,0.677870,0.344520,0.911677,0.608032,0.802731,0.275269,0.398950,0.727961,-0.140457,;0.442271,0.454898,-0.017264,0.461538,0.564444,0.457517,0.425319,0.547879,0.713162,0.400677,;0.112201,0.132983,-0.012156,0.176380,1.103694,0.383524,0.821777,0.315684,0.287060,0.016273,;0.384541,0.429097,0.625911,0.633612,0.261320,0.532084,0.520196,0.588103,0.670999,0.803678,;0.460852,0.844567,0.800104,0.420490,0.259736,0.470656,0.470234,0.422313,0.060927,0.969627,;0.354427,0.809081,0.322966,-0.110820,0.700085,0.488277,0.275286,-0.412449,0.981514,-0.033425,;0.755816,0.538324,0.332050,0.865688,0.391716,0.564626,0.942502,0.962352,0.656675,0.719007,;0.538820,0.903980,0.503943,0.135106,0.313318,-0.091452,0.224079,0.407548,0.079567,0.468589,;,0.727146,0.941160,0.583655,0.529938,0.922058,0.314368,0.055574,0.131698,0.149746,0.353159,0.469653,0.202138,0.491027,
-0.593856,2.174930,0.516364,0.187606,1.090415,0.479441,-0.209507,;0.858726,-0.446816,0.301813,-0.296314,-0.008227,0.272170,-0.119386,;0.410093,0.150293,0.203828,0.073776,-0.347824,-0.109126,-0.188853,;-0.075579,0.572231,-0.274446,-0.212843,-0.473431,-0.060521,-0.220894,;-0.388785,-0.214568,-0.302180,-0.300117,-0.730323,-0.114237,0.437137,;0.420785,-0.476001,0.361872,0.566467,-0.751834,0.187309,-0.028021,;-0.528999,0.067363,0.281051,0.505315,1.700752,0.012561,0.219687,;0.052422,0.460104,-0.216037,0.055449,0.618508,-0.066732,-0.858454,;-0.564365,1.713909,-0.035268,0.810538,0.157208,0.395346,-0.813294,;0.428594,0.527496,0.525364,0.785001,0.239888,0.370773,-0.118840,;,0.188729,0.296931,0.026102,-0.537069,-0.323614,-0.665251,0.032816,-0.086382,0.190189,0.355899,,-0.591287,0.329934,-0.058748,-0.394342,-0.191478,0.181282,1.114756,0.538666,-0.199409,-0.099830,;0.336240,0.064544,-0.129561,0.565756,0.395252,0.135339,0.811271,0.491572,0.039926,-0.390574,;0.452594,0.055106,0.254433,0.698976,0.607204,0.552567,-0.678002,-0.223785,0.637947,-0.344036,;-1.162935,0.229714,0.153755,0.214866,0.460618,0.640278,-0.369860,0.046318,-0.137442,-0.402691,;-0.098306,-0.470607,-0.449511,-0.186601,0.915259,0.084012,0.503207,-0.448701,-0.096657,-0.191471,;0.046325,-0.157949,0.529119,0.401653,0.017331,-0.147921,-0.320957,0.455447,0.216435,0.695456,;0.396185,0.831590,0.548658,0.346560,0.228476,0.166399,0.073933,0.024079,-0.528999,0.733996,;-1.062905,0.799986,-0.076811,-0.152813,0.908244,0.333224,-0.428031,-0.534602,-0.871659,-0.333972,;1.085735,0.115981,-0.256590,0.490869,0.182362,-0.115534,0.663577,0.657911,0.856534,0.321432,;-0.445667,0.588063,0.110196,0.086669,0.152273,0.185828,0.035000,0.091313,-0.469427,0.245934,;,0.560638,0.438852,0.337792,-0.095611,0.238841,0.230548,0.165258,-0.069433,0.236024,0.256134,,0.787875,-0.021897,0.441859,1.068818,0.706615,0.814037,-0.083335,0.658469,0.681133,0.562800,;-0.227755,-0.165645,1.113281,0.743769,0.655794,1.006752,0.115822,0.168342,0.835078,0.237762,;0.141601,0.839579,0.758088,0.167200,0.284211,0.105548,0.074655,0.440595,0.281979,0.809263,;-0.225907,0.610335,0.472152,0.117291,0.236699,0.312139,0.692624,0.829226,0.419871,0.034555,;0.352704,0.733771,0.539177,0.836586,0.555487,0.459790,0.577414,0.738512,0.380502,0.147932,;1.029439,0.687040,0.314066,0.916471,0.614778,0.792779,0.276689,0.415958,0.713567,-0.137218,;0.449974,0.452858,-0.033118,0.466163,0.572796,0.438729,0.421790,0.550057,0.706000,0.421788,;0.108128,0.137360,-0.010899,0.173017,1.113357,0.374013,0.822661,0.315347,0.289468,0.012702,;0.395532,0.441005,0.609350,0.632896,0.269980,0.523297,0.517371,0.594711,0.666526,0.799972,;0.466048,0.852039,0.794331,0.421294,0.253416,0.475798,0.471319,0.425707,0.061210,0.961771,;0.342382,0.803158,0.344168,-0.116718,0.684569,0.508239,0.273478,-0.430259,0.998144,-0.040974,;0.743800,0.519445,0.353275,0.859156,0.367555,0.589505,0.954177,0.962769,0.651611,0.718947,;0.520120,0.896670,0.521217,0.135128,0.323447,-0.097563,0.226341,0.416214,0.073682,0.464181,;,0.730134,0.929850,0.579168,0.524062,0.914944,0.310841,0.045569,0.130395,0.150491,0.355323,0.475514,0.221050,0.489307,
-0.631068,2.247858,0.496804,0.161881,1.059577,0.461770,-0.218393,;0.875316,-0.452141,0.296899,-0.290087,0.008597,0.280997,-0.128770,;0.428730,0.149968,0.202206,0.060546,-0.355201,-0.119922,-0.190300,;-0.084565,0.553959,-0.281953,-0.224448,-0.494095,-0.073524,-0.238915,;-0.398883,-0.249114,-0.304366,-0.285474,-0.713039,-0.097939,0.438092,;0.434803,-0.495897,0.366398,0.575336,-0.747575,0.195455,-0.023160,;-0.547940,0.094944,0.281430,0.498612,1.749650,0.027164,0.196088,;0.035617,0.486499,-0.219984,0.046233,0.616761,-0.100356,-0.914321,;-0.616257,1.761376,-0.041113,0.803076,0.118065,0.361789,-0.846786,;0.427097,0.543896,0.510649,0.770003,0.236923,0.362292,-0.132270,;,0.205561,0.258719,0.015777,-0.537462,-0.330060,-0.643727,0.055150,-0.083517,0.203903,0.343845,,-0.572523,0.328375,-0.055562,-0.402245,-0.212751,0.164718,1.139875,0.553825,-0.173971,-0.085813,;0.340342,0.055220,-0.130185,0.568915,0.387644,0.145194,0.822455,0.501355,0.057880,-0.395439,;0.443609,0.055195,0.249438,0.694155,0.623362,0.559274,-0.716085,-0.258916,0.621572,-0.354618,;-1.176293,0.228439,0.150813,0.210838,0.456181,0.651961,-0.358768,0.046604,-0.146178,-0.405893,;-0.088853,-0.474281,-0.468835,-0.195694,0.926299,0.079349,0.510576,-0.483162,-0.116966,-0.198668,;0.048782,-0.159287,0.529996,0.402225,0.012600,-0.155869,-0.327334,0.468182,0.223393,0.685533,;0.401815,0.836784,0.547346,0.358872,0.228510,0.169867,0.052130,0.016221,-0.546737,0.728998,;-1.086189,0.807752,-0.086740,-0.171074,0.885241,0.347389,-0.389852,-0.527952,-0.891644,-0.325577,;1.107073,0.089425,-0.259345,0.511870,0.188576,-0.120823,0.660142,0.687952,0.899783,0.300223,;-0.458890,0.573136,0.098714,0.087838,0.143720,0.175016,0.027367,0.100177,-0.462534,0.246921,;,0.574839,0.417088,0.340843,-0.107762,0.239103,0.229892,0.150784,-0.077067,0.215108,0.267370,,0.784102,-0.021764,0.451905,1.072307,0.704887,0.820548,-0.090837,0.652458,0.681711,0.555561,;-0.236953,-0.172418,1.118879,0.735136,0.662987,0.996100,0.120540,0.154600,0.848466,0.246420,;0.150732,0.842236,0.747353,0.169537,0.288354,0.101428,0.069612,0.438203,0.282763,0.810106,;-0.225551,0.611500,0.470055,0.120248,0.243470,0.304178,0.686780,0.821080,0.426777,0.037628,;0.344317,0.731530,0.546572,0.848304,0.560755,0.454157,0.567572,0.731574,0.386462,0.149160,;1.051929,0.695414,0.282617,0.915609,0.617693,0.786783,0.281539,0.425482,0.706631,-0.134303,;0.457306,0.450310,-0.047667,0.465854,0.577045,0.424439,0.420875,0.547334,0.703901,0.441628,;0.106753,0.140906,-0.010751,0.165327,1.119646,0.368519,0.826299,0.311221,0.294859,0.009047,;0.408958,0.450152,0.591974,0.627060,0.274947,0.518438,0.518024,0.598475,0.664071,0.798261,;0.472277,0.856322,0.788329,0.421375,0.245665,0.482274,0.473078,0.428947,0.059864,0.957192,;0.327561,0.797633,0.367112,-0.116765,0.671540,0.525259,0.268588,-0.442370,1.009576,-0.049497,;0.726950,0.506193,0.378043,0.860387,0.350151,0.608412,0.959035,0.968239,0.643922,0.714603,;0.506502,0.889141,0.534590,0.128788,0.332004,-0.101437,0.232992,0.420295,0.071877,0.460530,;,0.730158,0.928841,0.575941,0.515323,0.895038,0.312150,0.040925,0.134522,0.158793,0.360083,0.475269,0.228738,0.494957,
-0.649946,2.333022,0.479619,0.145358,1.035341,0.443012,-0.206925,;0.893365,-0.441383,0.295294,-0.280883,0.036406,0.286335,-0.138877,;0.443607,0.159772,0.201292,0.052241,-0.354193,-0.132306,-0.193682,;-0.077250,0.561534,-0.285514,-0.227317,-0.507343,-0.089515,-0.249529,;-0.395813,-0.263152,-0.303103,-0.271266,-0.699503,-0.084217,0.441029,;0.447877,-0.507518,0.374026,0.584049,-0.742004,0.201809,-0.019548,;-0.562805,0.099966,0.285460,0.483522,1.783034,0.039657,0.187681,;0.023910,0.501175,-0.219276,0.036169,0.612527,-0.137764,-0.955912,;-0.651281,1.805820,-0.045828,0.801945,0.078310,0.328604,-0.867472,;0.429049,0.561930,0.496311,0.759245,0.238867,0.354077,-0.140989,;,0.264437,0.221943,-0.005549,-0.501061,-0.316686,-0.632662,0.061542,-0.082354,0.257448,0.338657,,-0.601711,0.317223,-0.057641,-0.394970,-0.207165,0.175998,1.148454,0.553691,-0.187607,-0.100902,;0.353722,0.044356,-0.125407,0.576240,0.380331,0.151848,0.825197,0.509707,0.081025,-0.396810,;0.464600,0.050946,0.246724,0.689301,0.628225,0.557560,-0.743465,-0.283810,0.627166,-0.353514,;-1.202590,0.225666,0.146271,0.208036,0.455331,0.668613,-0.350031,0.044953,-0.164452,-0.414752,;-0.085609,-0.474873,-0.483531,-0.203274,0.938155,0.077343,0.502155,-0.521747,-0.139788,-0.203296,;0.042562,-0.160570,0.531570,0.402003,0.008652,-0.159889,-0.335994,0.477815,0.222676,0.676093,;0.431202,0.835917,0.548140,0.373774,0.220588,0.164826,0.038207,0.018996,-0.545863,0.731459,;-1.105325,0.817005,-0.094897,-0.190714,0.857088,0.354745,-0.354129,-0.516263,-0.906386,-0.314814,;1.125102,0.084806,-0.256532,0.507224,0.178051,-0.144544,0.654886,0.705566,0.933480,0.301445,;-0.448299,0.554817,0.088276,0.086814,0.124584,0.155537,0.035181,0.117448,-0.441536,0.256954,;,0.549524,0.397396,0.350537,-0.126811,0.243096,0.227530,0.138110,-0.077610,0.238788,0.284036,,0.787364,-0.027992,0.456369,1.069572,0.698657,0.830198,-0.093088,0.644868,0.680890,0.555975,;-0.247782,-0.172833,1.125258,0.729352,0.673692,0.982287,0.122090,0.140963,0.864662,0.249558,;0.155379,0.846224,0.740977,0.174195,0.292372,0.098009,0.063797,0.437051,0.283293,0.808477,;-0.223899,0.612995,0.467070,0.118039,0.246880,0.300240,0.683785,0.807192,0.440296,0.039295,;0.346472,0.725192,0.546220,0.848733,0.557487,0.455830,0.565523,0.716778,0.397613,0.155328,;1.060270,0.703832,0.261422,0.932940,0.631916,0.771093,0.277008,0.452794,0.682788,-0.134019,;0.463352,0.446276,-0.060452,0.465102,0.580694,0.411556,0.420989,0.545159,0.702342,0.460927,;0.099249,0.144461,-0.003730,0.161327,1.125816,0.363576,0.827648,0.309256,0.299201,0.002462,;0.417846,0.459200,0.579178,0.624134,0.282508,0.512744,0.515758,0.603576,0.660538,0.794196,;0.475598,0.864389,0.783893,0.424157,0.239270,0.486667,0.472111,0.432922,0.058780,0.949494,;0.321515,0.788161,0.382794,-0.125220,0.653413,0.546465,0.270721,-0.456849,1.021706,-0.052037,;0.715077,0.496738,0.396719,0.860830,0.332986,0.625533,0.963294,0.973013,0.637011,0.709743,;0.491853,0.880831,0.549663,0.123368,0.341330,-0.105757,0.238955,0.425442,0.068655,0.456650,;,0.740834,0.921484,0.569542,0.511827,0.891329,0.293668,0.037272,0.134063,0.163039,0.359873,0.487425,0.236070,0.499686,
-0.684707,2.395569,0.460925,0.124384,1.010631,0.424592,-0.193323,;0.913685,-0.444309,0.296027,-0.279301,0.059136,0.293163,-0.141002,;0.465169,0.163988,0.202034,0.043671,-0.354639,-0.144778,-0.195376,;-0.082568,0.546087,-0.286308,-0.240569,-0.521900,-0.104971,-0.253404,;-0.398790,-0.288505,-0.297956,-0.267102,-0.682054,-0.072379,0.455347,;0.462601,-0.524931,0.385159,0.588446,-0.733062,0.207897,-0.011704,;-0.587860,0.121469,0.290499,0.471587,1.822338,0.050402,0.180723,;0.005418,0.528340,-0.215045,0.028811,0.610832,-0.177477,-0.995187,;-0.704399,1.845436,-0.049138,0.798897,0.044115,0.291344,-0.889752,;0.426401,0.580839,0.482726,0.747355,0.237903,0.345046,-0.149096,;,0.242483,0.209264,-0.001549,-0.501440,-0.303478,-0.602762,0.049652,-0.092916,0.236079,0.314600,,-0.584338,0.313058,-0.055838,-0.402663,-0.222683,0.161397,1.174352,0.562925,-0.162200,-0.089847,;0.351855,0.040653,-0.123140,0.576415,0.377754,0.160106,0.826761,0.506344,0.087846,-0.402220,;0.460787,0.052271,0.239236,0.678333,0.639577,0.561446,-0.772048,-0.321785,0.600969,-0.363739,;-1.204565,0.226929,0.143028,0.197152,0.444610,0.671281,-0.331624,0.046441,-0.166466,-0.412051,;-0.072320,-0.485409,-0.501901,-0.203400,0.955515,0.078628,0.505022,-0.555772,-0.158960,-0.215434,;0.060127,-0.163010,0.534590,0.398601,-0.002138,-0.172786,-0.333914,0.491809,0.238864,0.675188,;0.445339,0.842947,0.548482,0.380923,0.214370,0.158448,0.017898,0.011166,-0.560542,0.732855,;-1.119984,0.836244,-0.101672,-0.222113,0.823521,0.348924,-0.321242,-0.512393,-0.921468,-0.295651,;1.145460,0.057184,-0.261091,0.526699,0.189123,-0.150231,0.660350,0.726679,0.961000,0.278550,;-0.462056,0.527994,0.071188,0.097780,0.129644,0.153036,0.029871,0.118587,-0.444897,0.242831,;,0.560905,0.380174,0.354894,-0.127873,0.229197,0.233691,0.134250,-0.053496,0.212763,0.271254,,0.779069,-0.025372,0.470181,1.078564,0.699435,0.834398,-0.105173,0.641785,0.680755,0.546213,;-0.251033,-0.177019,1.124168,0.717491,0.681724,0.970061,0.129157,0.126897,0.879456,0.257710,;0.162074,0.847607,0.732656,0.177158,0.295602,0.094982,0.058792,0.435355,0.283926,0.809026,;-0.227021,0.613676,0.466480,0.126896,0.256713,0.289314,0.675651,0.805879,0.441952,0.042869,;0.345343,0.719956,0.546865,0.856025,0.557593,0.452792,0.560186,0.709563,0.402469,0.161532,;1.084596,0.710652,0.229587,0.925195,0.630889,0.770087,0.286583,0.454088,0.681977,-0.132367,;0.464842,0.442595,-0.068146,0.467334,0.585350,0.399085,0.418291,0.545628,0.700359,0.477525,;0.092974,0.146626,0.002789,0.156307,1.130577,0.360675,0.829866,0.306499,0.303481,-0.003162,;0.426254,0.465194,0.567086,0.620304,0.289934,0.507086,0.515181,0.609860,0.654261,0.791946,;0.480159,0.869338,0.778898,0.425643,0.232308,0.491808,0.472522,0.435976,0.056982,0.945304,;0.308017,0.783732,0.403339,-0.122722,0.641500,0.561230,0.265733,-0.463751,1.028869,-0.058914,;0.705930,0.488820,0.413307,0.857639,0.315893,0.643645,0.968684,0.973704,0.633578,0.705165,;0.477580,0.874487,0.563668,0.119201,0.353592,-0.112433,0.243966,0.430666,0.065309,0.451327,;,0.733833,0.923350,0.566061,0.497702,0.880060,0.302145,0.029772,0.135929,0.169130,0.362299,0.485515,0.246801,0.501792,
-0.711251,2.467309,0.447655,0.105939,0.986706,0.405235,-0.173453,;0.925972,-0.437582,0.289605,-0.271023,0.084900,0.299971,-0.148490,;0.471317,0.171535,0.200508,0.037342,-0.353972,-0.156758,-0.198645,;-0.084188,0.553275,-0.292995,-0.243746,-0.536011,-0.120183,-0.264236,;-0.398149,-0.297275,-0.304431,-0.253162,-0.663596,-0.059586,0.455458,;0.472512,-0.534830,0.389453,0.597634,-0.724062,0.214791,-0.011557,;-0.587814,0.125510,0.291665,0.448001,1.844684,0.056743,0.170500,;-0.004237,0.544968,-0.214522,0.011685,0.592310,-0.219917,-1.037396,;-0.739425,1.884554,-0.049337,0.793134,0.004452,0.252107,-0.911866,;0.424501,0.594525,0.469266,0.734732,0.238755,0.336131,-0.155100,;,0.223646,0.183046,-0.044623,-0.506875,-0.297277,-0.593219,0.102675,-0.095134,0.237416,0.286883,,-0.605570,0.314160,-0.053142,-0.407421,-0.226944,0.155322,1.173982,0.561842,-0.163716,-0.093963,;0.362516,0.027522,-0.116034,0.589023,0.376217,0.168102,0.814348,0.514173,0.121938,-0.405953,;0.482600,0.040663,0.232774,0.679732,0.646629,0.567765,-0.787679,-0.340131,0.603334,-0.368413,;-1.221841,0.225130,0.139288,0.194039,0.441167,0.681989,-0.323582,0.049838,-0.173733,-0.417846,;-0.062885,-0.482492,-0.515395,-0.215273,0.958724,0.069698,0.502300,-0.585197,-0.177050,-0.215014,;0.054907,-0.170390,0.537957,0.408402,-0.002381,-0.172142,-0.345280,0.511185,0.246570,0.662153,;0.468958,0.833669,0.545766,0.401686,0.215411,0.158351,0.003793,0.012560,-0.561645,0.727926,;-1.126235,0.845717,-0.110377,-0.245309,0.792337,0.345183,-0.287467,-0.499941,-0.920404,-0.278603,;1.155222,0.048226,-0.257164,0.532119,0.186070,-0.166957,0.649322,0.747715,0.986706,0.270853,;-0.454455,0.506073,0.056153,0.097973,0.117635,0.133452,0.037311,0.129259,-0.429707,0.245459,;,0.568061,0.359608,0.342502,-0.141475,0.239803,0.217420,0.107641,-0.038176,0.219525,0.282458,,0.786824,-0.030228,0.471031,1.071132,0.690807,0.845383,-0.106615,0.631692,0.684026,0.546399,;-0.260010,-0.175542,1.126731,0.714668,0.694745,0.953263,0.131646,0.116997,0.892260,0.260765,;0.165330,0.850494,0.727817,0.182861,0.298328,0.092524,0.051649,0.433726,0.285379,0.807097,;-0.224342,0.617170,0.462073,0.125181,0.260250,0.284984,0.672039,0.792334,0.456521,0.043680,;0.346353,0.712492,0.546805,0.859902,0.554460,0.453506,0.556854,0.700187,0.409252,0.168406,;1.091916,0.718696,0.211649,0.938437,0.639457,0.760547,0.284627,0.473239,0.664806,-0.134165,;0.467699,0.437132,-0.075224,0.464441,0.586206,0.391249,0.418923,0.542853,0.702769,0.493744,;0.086794,0.148327,0.009163,0.152615,1.135339,0.357259,0.831941,0.305427,0.305287,-0.008362,;0.432613,0.471684,0.557923,0.614881,0.295616,0.503629,0.514442,0.612794,0.651446,0.787236,;0.482005,0.876559,0.775266,0.431135,0.228275,0.494119,0.470275,0.441339,0.053531,0.940172,;0.303151,0.773783,0.416927,-0.127978,0.624007,0.580341,0.267485,-0.470708,1.033334,-0.058947,;0.692641,0.483461,0.431348,0.863284,0.305794,0.655595,0.968456,0.981913,0.623799,0.699251,;0.468097,0.868618,0.574150,0.108036,0.362193,-0.116065,0.253139,0.429586,0.066626,0.445656,;,0.749495,0.913102,0.558800,0.494050,0.874422,0.287822,0.029054,0.137152,0.175926,0.359053,0.496197,0.246654,0.511446,
-0.721205,2.531463,0.438861,0.086569,0.968296,0.387178,-0.158147,;0.947209,-0.447361,0.287700,-0.259310,0.108406,0.302602,-0.147278,;0.501201,0.169931,0.200108,0.032849,-0.354373,-0.169412,-0.199004,;-0.074596,0.541067,-0.289641,-0.246599,-0.550625,-0.139464,-0.266200,;-0.401589,-0.320016,-0.294929,-0.235401,-0.648756,-0.056778,0.471266,;0.485709,-0.554081,0.400933,0.609340,-0.714815,0.217024,-0.001627,;-0.608837,0.151231,0.302646,0.437704,1.873213,0.059731,0.165509,;-0.009552,0.571998,-0.205474,0.004025,0.579095,-0.265177,-1.075449,;-0.780981,1.924371,-0.045441,0.782725,-0.033013,0.211968,-0.936422,;0.437600,0.605581,0.457428,0.725480,0.238539,0.326852,-0.163320,;,0.257221,0.176051,-0.015640,-0.485909,-0.313401,-0.580759,0.091047,-0.084455,0.218674,0.305648,,-0.605106,0.303599,-0.050965,-0.404628,-0.228744,0.153142,1.184475,0.563999,-0.146570,-0.095175,;0.369066,0.024421,-0.106747,0.587204,0.367782,0.175445,0.811563,0.513015,0.147408,-0.398830,;0.473156,0.043564,0.226414,0.667603,0.655594,0.576937,-0.811654,-0.378133,0.570560,-0.376158,;-1.235419,0.216648,0.134597,0.196356,0.444261,0.700303,-0.310962,0.049971,-0.180606,-0.427249,;-0.050009,-0.493640,-0.530593,-0.212465,0.974903,0.078829,0.504003,-0.616319,-0.194898,-0.225388,;0.053230,-0.164541,0.547720,0.400812,-0.015655,-0.178516,-0.357608,0.520500,0.255707,0.665948,;0.479113,0.849904,0.548399,0.391130,0.196899,0.144597,-0.008521,0.002435,-0.575166,0.744618,;-1.145771,0.849688,-0.119677,-0.263450,0.771890,0.353390,-0.253264,-0.494299,-0.931400,-0.269310,;1.168668,0.025173,-0.255192,0.551456,0.194388,-0.167271,0.645660,0.769071,1.012261,0.252171,;-0.481006,0.490230,0.042211,0.096691,0.115409,0.126073,0.030901,0.124976,-0.443488,0.238941,;,0.560851,0.352786,0.343080,-0.169974,0.216408,0.231863,0.131124,-0.039512,0.192498,0.287577,,0.774363,-0.027035,0.486848,1.086575,0.694843,0.845053,-0.124144,0.634360,0.678259,0.537624,;-0.259167,-0.178853,1.121680,0.700569,0.703230,0.939916,0.142402,0.102965,0.907187,0.269083,;0.171441,0.852087,0.721216,0.183715,0.297295,0.093196,0.048469,0.429156,0.289130,0.806620,;-0.224141,0.619449,0.458216,0.132257,0.268982,0.275145,0.663800,0.789092,0.460722,0.046485,;0.343044,0.709141,0.549825,0.869795,0.555112,0.450791,0.549433,0.692724,0.415366,0.172462,;1.107651,0.725219,0.188530,0.937517,0.639830,0.758734,0.291872,0.477881,0.660015,-0.135232,;0.470417,0.433158,-0.081932,0.458984,0.584289,0.386111,0.420424,0.537263,0.709664,0.506620,;0.081080,0.148750,0.015873,0.148497,1.139290,0.355196,0.834216,0.304240,0.306693,-0.012604,;0.432035,0.479329,0.554144,0.617365,0.305152,0.496496,0.509968,0.620572,0.644864,0.781158,;0.492821,0.873788,0.764623,0.429591,0.220373,0.499628,0.474444,0.449582,0.044331,0.943954,;0.295192,0.766378,0.432432,-0.129719,0.608318,0.597334,0.266079,-0.476649,1.037151,-0.061137,;0.690915,0.474025,0.439934,0.857747,0.291285,0.671839,0.975160,0.984984,0.617614,0.698556,;0.452833,0.867821,0.588338,0.104625,0.376620,-0.124560,0.256860,0.430881,0.067255,0.436587,;,0.735104,0.918056,0.557507,0.482238,0.860246,0.288407,0.030086,0.139521,0.173033,0.369226,0.501507,0.261622,0.509787,
-0.713350,2.594566,0.431911,0.075081,0.945540,0.365408,-0.129368,;0.942427,-0.439394,0.277933,-0.250712,0.141658,0.309722,-0.154483,;0.508095,0.177397,0.198912,0.027591,-0.352794,-0.180686,-0.202187,;-0.069761,0.543556,-0.294785,-0.245826,-0.566397,-0.154178,-0.271834,;-0.405829,-0.329830,-0.301873,-0.220291,-0.639208,-0.048187,0.473713,;0.484950,-0.565059,0.404939,0.617678,-0.703558,0.224531,-0.001278,;-0.617433,0.154706,0.308400,0.432825,1.904208,0.068470,0.164808,;-0.010913,0.587542,-0.199167,0.004296,0.566394,-0.304451,-1.107778,;-0.782440,1.953444,-0.039229,0.786332,-0.079010,0.167737,-0.951768,;0.441375,0.617432,0.444898,0.716868,0.235265,0.317160,-0.168169,;,0.306736,0.124743,-0.050406,-0.466308,-0.303944,-0.587315,0.128162,-0.054968,0.293866,0.287930,,-0.617263,0.297765,-0.053647,-0.411988,-0.231000,0.150408,1.199894,0.560524,-0.138964,-0.096327,;0.398727,0.010869,-0.102851,0.594080,0.362458,0.177524,0.817286,0.523914,0.196225,-0.394773,;0.484189,0.036070,0.218967,0.665718,0.665150,0.581226,-0.837180,-0.403698,0.560243,-0.384513,;-1.250644,0.211638,0.128285,0.191725,0.443244,0.712244,-0.299962,0.049915,-0.183997,-0.432263,;-0.047930,-0.492583,-0.541041,-0.221084,0.980785,0.077700,0.488727,-0.647769,-0.210898,-0.225499,;0.040740,-0.161699,0.557472,0.396395,-0.024733,-0.179682,-0.380233,0.528950,0.265775,0.668032,;0.507003,0.834134,0.541917,0.412732,0.200435,0.144313,-0.013527,0.006971,-0.570572,0.737605,;-1.147693,0.847732,-0.132362,-0.278551,0.750218,0.349443,-0.217797,-0.479772,-0.924725,-0.260531,;1.168044,0.027725,-0.246256,0.541669,0.183055,-0.185969,0.630043,0.778013,1.029021,0.257191,;-0.479246,0.456979,0.022747,0.111799,0.119361,0.113541,0.029146,0.135372,-0.431748,0.225902,;,0.561992,0.336494,0.337706,-0.184712,0.224952,0.244223,0.096368,-0.036908,0.226010,0.273157,,0.782454,-0.031589,0.488202,1.076737,0.683180,0.858978,-0.125557,0.623549,0.681391,0.538003,;-0.270880,-0.181514,1.125870,0.703547,0.721058,0.917508,0.143990,0.102261,0.911194,0.274625,;0.175400,0.853305,0.716805,0.185952,0.296136,0.094078,0.045175,0.425910,0.291145,0.806494,;-0.217535,0.622785,0.450863,0.127223,0.268618,0.274039,0.662513,0.774746,0.476011,0.048310,;0.345156,0.703571,0.548686,0.874033,0.552463,0.451166,0.544662,0.683008,0.423335,0.178833,;1.116118,0.732231,0.170200,0.948136,0.648514,0.749791,0.291552,0.490332,0.648077,-0.136915,;0.468672,0.426762,-0.084762,0.459464,0.584376,0.378706,0.419622,0.540832,0.708698,0.520973,;0.074759,0.149125,0.023952,0.144839,1.141465,0.354860,0.836299,0.302438,0.308388,-0.018013,;0.434587,0.485652,0.549472,0.613439,0.312018,0.493278,0.508032,0.623193,0.642535,0.775673,;0.494982,0.879558,0.760277,0.434217,0.215880,0.502431,0.473488,0.454471,0.040853,0.939033,;0.294566,0.755979,0.442339,-0.137827,0.588532,0.617727,0.270034,-0.481980,1.038638,-0.059172,;0.680640,0.472777,0.453106,0.863823,0.284943,0.680315,0.973159,0.992719,0.608727,0.690819,;0.440679,0.866364,0.600523,0.098551,0.390627,-0.132285,0.261385,0.429302,0.070500,0.428220,;,0.753247,0.903858,0.554961,0.483995,0.854270,0.275869,0.025973,0.142052,0.177675,0.367300,0.516300,0.259596,0.511857,
-0.739812,2.654023,0.416938,0.078615,0.933524,0.344789,-0.109746,;0.964549,-0.441023,0.280240,-0.258721,0.169277,0.310982,-0.149908,;0.525315,0.185610,0.199780,0.024541,-0.350967,-0.193500,-0.203884,;-0.066621,0.542548,-0.295454,-0.251215,-0.572558,-0.175679,-0.273941,;-0.401286,-0.340677,-0.301042,-0.222236,-0.616130,-0.051834,0.483962,;0.501248,-0.577580,0.417254,0.615600,-0.688882,0.226119,0.006093,;-0.636988,0.155054,0.317457,0.410267,1.926741,0.068842,0.170055,;-0.027280,0.605622,-0.188869,-0.003590,0.551273,-0.351058,-1.136002,;-0.824115,1.988347,-0.041532,0.798726,-0.112231,0.124236,-0.975886,;0.439731,0.632472,0.432155,0.712338,0.235255,0.306196,-0.175243,;,0.262982,0.135876,-0.050837,-0.468945,-0.302148,-0.562314,0.112281,-0.080067,0.249132,0.259411,,-0.624684,0.294963,-0.052347,-0.419011,-0.234594,0.141551,1.207122,0.554292,-0.133051,-0.096867,;0.395828,0.001818,-0.097587,0.600188,0.366885,0.184975,0.804975,0.519212,0.209826,-0.404869,;0.499433,0.040987,0.212982,0.650436,0.661763,0.575003,-0.847471,-0.425861,0.542395,-0.383424,;-1.258356,0.208964,0.123752,0.187557,0.439803,0.719081,-0.285293,0.052649,-0.189403,-0.436982,;-0.033676,-0.500695,-0.553643,-0.218425,0.990916,0.077831,0.490618,-0.665062,-0.225859,-0.233705,;0.045332,-0.170811,0.565664,0.405285,-0.029278,-0.179831,-0.388464,0.551415,0.285908,0.663593,;0.526420,0.834466,0.541337,0.418274,0.193064,0.132687,-0.023529,0.004052,-0.580173,0.739647,;-1.162029,0.860524,-0.139825,-0.303621,0.723087,0.337200,-0.194603,-0.475541,-0.939184,-0.250208,;1.173235,0.006448,-0.243727,0.559173,0.191305,-0.187791,0.628630,0.800381,1.044799,0.239290,;-0.480009,0.443453,0.008931,0.106723,0.108592,0.087116,0.030292,0.136697,-0.437697,0.223848,;,0.569284,0.316309,0.349089,-0.200107,0.205207,0.229562,0.093284,-0.011746,0.197500,0.293207,,0.774189,-0.028443,0.500876,1.086157,0.681655,0.863771,-0.138802,0.622080,0.679479,0.530398,;-0.270002,-0.181728,1.119629,0.691797,0.730376,0.902255,0.154351,0.088405,0.928337,0.280519,;0.178764,0.854059,0.712757,0.190212,0.297085,0.093428,0.039838,0.424075,0.292135,0.806572,;-0.221530,0.625672,0.450494,0.139779,0.278344,0.262646,0.651800,0.776619,0.476221,0.050114,;0.344042,0.697812,0.549124,0.884455,0.552158,0.448101,0.537355,0.679711,0.425183,0.185591,;1.130004,0.737351,0.148980,0.949251,0.650912,0.747566,0.296807,0.494111,0.642151,-0.137713,;0.466007,0.420354,-0.086266,0.459950,0.584820,0.371309,0.418149,0.545141,0.708132,0.533964,;0.068681,0.150666,0.031569,0.140940,1.142738,0.355270,0.838694,0.299454,0.311614,-0.023504,;0.443229,0.488010,0.540891,0.601369,0.314029,0.494591,0.511326,0.621948,0.642560,0.772925,;0.500762,0.881445,0.753516,0.435189,0.210000,0.506016,0.475676,0.460909,0.034751,0.938652,;0.285615,0.750366,0.457564,-0.136423,0.574756,0.633345,0.267114,-0.484569,1.039087,-0.061442,;0.675443,0.469901,0.462372,0.863595,0.276075,0.691134,0.975432,0.998024,0.600847,0.685823,;0.435928,0.862152,0.606698,0.085265,0.400115,-0.136107,0.271799,0.424932,0.074676,0.422913,;,0.746132,0.905232,0.550291,0.467080,0.841904,0.274497,0.021741,0.144655,0.192734,0.371571,0.517651,0.265778,0.523838,
-0.740809,2.702422,0.409482,0.065776,0.919760,0.318668,-0.087393,;0.977271,-0.436681,0.279256,-0.247034,0.195163,0.318532,-0.148806,;0.537816,0.196019,0.201802,0.024737,-0.348904,-0.203565,-0.204682,;-0.061219,0.541395,-0.295095,-0.250485,-0.582333,-0.190582,-0.273749,;-0.393501,-0.352801,-0.301180,-0.210224,-0.603819,-0.043692,0.496412,;0.511547,-0.587254,0.426761,0.626051,-0.675081,0.235828,0.013918,;-0.654831,0.162335,0.325478,0.401058,1.953737,0.073294,0.179938,;-0.042911,0.632063,-0.175931,-0.003188,0.542304,-0.391416,-1.157493,;-0.851543,2.016661,-0.037507,0.796988,-0.144031,0.077386,-0.990477,;0.442992,0.645467,0.421903,0.707151,0.233479,0.295600,-0.179338,;,0.294826,0.114062,-0.063867,-0.462144,-0.290338,-0.554884,0.111339,-0.087394,0.257434,0.246905,,-0.613329,0.283705,-0.055071,-0.423336,-0.235648,0.136325,1.226883,0.547781,-0.112356,-0.094648,;0.407879,-0.010432,-0.091291,0.606636,0.366871,0.195991,0.801158,0.523002,0.249299,-0.405097,;0.503935,0.044553,0.205292,0.637400,0.663542,0.577432,-0.860198,-0.453742,0.515949,-0.386779,;-1.257359,0.201366,0.116651,0.185417,0.439599,0.729817,-0.265959,0.052551,-0.186637,-0.439728,;-0.029843,-0.500019,-0.563764,-0.225186,0.997498,0.077727,0.480104,-0.694192,-0.247323,-0.236197,;0.058271,-0.175698,0.573029,0.404062,-0.038559,-0.183216,-0.393657,0.562991,0.312300,0.669707,;0.541354,0.833801,0.542655,0.425980,0.187852,0.130062,-0.035367,0.002315,-0.584632,0.743166,;-1.170654,0.868262,-0.145809,-0.324116,0.698119,0.334568,-0.173150,-0.470451,-0.937481,-0.234473,;1.180741,-0.004500,-0.239562,0.561517,0.191542,-0.198668,0.623549,0.809832,1.058605,0.232245,;-0.482412,0.423067,-0.006585,0.108727,0.104425,0.076221,0.036139,0.136492,-0.438619,0.219379,;,0.566161,0.293965,0.352497,-0.221828,0.205759,0.234025,0.083662,0.005392,0.200710,0.291303,,0.772280,-0.028343,0.509281,1.086838,0.677571,0.871445,-0.148010,0.616186,0.680438,0.525468,;-0.271399,-0.183847,1.114602,0.684947,0.744053,0.881966,0.163960,0.084184,0.936242,0.288262,;0.184782,0.853651,0.706417,0.192475,0.295500,0.094824,0.035074,0.421397,0.294377,0.807336,;-0.219766,0.625276,0.446373,0.145137,0.282888,0.256098,0.645084,0.774893,0.479641,0.054299,;0.345598,0.690873,0.547856,0.891356,0.549643,0.447635,0.531778,0.674372,0.429467,0.193360,;1.139736,0.746303,0.131461,0.952716,0.654421,0.745470,0.299917,0.492921,0.641121,-0.142881,;0.463602,0.412719,-0.087369,0.457810,0.583073,0.366148,0.418526,0.549290,0.708664,0.546924,;0.062795,0.148678,0.039751,0.138554,1.143646,0.355839,0.840387,0.300615,0.309454,-0.026287,;0.445543,0.490137,0.538187,0.595362,0.319474,0.492937,0.512101,0.625124,0.637728,0.768865,;0.504133,0.888359,0.747548,0.439176,0.206013,0.507972,0.475374,0.463934,0.033011,0.934441,;0.280621,0.743914,0.469817,-0.139007,0.559876,0.650393,0.265849,-0.488478,1.039897,-0.062511,;0.669358,0.471330,0.470990,0.866163,0.269423,0.700099,0.975633,1.001904,0.595647,0.678562,;0.425681,0.858334,0.617557,0.078490,0.412143,-0.143039,0.279278,0.425017,0.073644,0.416958,;,0.749488,0.902855,0.548721,0.459626,0.833935,0.268261,0.020581,0.147570,0.200523,0.370127,0.524260,0.267107,0.528264,
-0.735370,2.760658,0.406939,0.063734,0.916391,0.298233,-0.045578,;0.982168,-0.438344,0.275801,-0.240717,0.214716,0.314712,-0.167370,;0.551673,0.206175,0.202261,0.027025,-0.347153,-0.215641,-0.209149,;-0.049653,0.544581,-0.292350,-0.247940,-0.589045,-0.213305,-0.282199,;-0.391492,-0.363121,-0.296637,-0.206620,-0.593621,-0.052865,0.484976,;0.516643,-0.599501,0.437676,0.630265,-0.663659,0.234881,0.007314,;-0.655635,0.145804,0.335219,0.378622,1.969822,0.072243,0.187495,;-0.040652,0.643204,-0.164229,-0.008967,0.525614,-0.436426,-1.181678,;-0.864409,2.046695,-0.030324,0.798936,-0.171064,0.035078,-0.993743,;0.449979,0.660249,0.411096,0.706151,0.233788,0.284417,-0.183782,;,0.310143,0.088376,-0.065942,-0.452565,-0.308612,-0.561279,0.136586,-0.065805,0.267543,0.246147,,-0.638858,0.279224,-0.054461,-0.427354,-0.231297,0.135849,1.224447,0.536547,-0.115554,-0.103789,;0.399379,-0.020338,-0.078546,0.615672,0.368018,0.209887,0.778642,0.529501,0.282279,-0.411058,;0.517567,0.037090,0.198438,0.636868,0.668023,0.583928,-0.866985,-0.465647,0.501439,-0.395636,;-1.269109,0.198140,0.112819,0.182254,0.436295,0.738793,-0.255249,0.058011,-0.187585,-0.444648,;-0.026448,-0.496118,-0.567870,-0.228690,1.000272,0.079016,0.467451,-0.712952,-0.267658,-0.237055,;0.055158,-0.170534,0.588072,0.399374,-0.054581,-0.187582,-0.411901,0.578745,0.329501,0.678281,;0.554837,0.832633,0.546379,0.429794,0.175566,0.122471,-0.048627,0.008584,-0.580100,0.749005,;-1.188738,0.864478,-0.152853,-0.333588,0.678590,0.332682,-0.158873,-0.451186,-0.927585,-0.233381,;1.179370,-0.006838,-0.228399,0.563937,0.188057,-0.207723,0.612660,0.822936,1.061368,0.227895,;-0.476133,0.388692,-0.021524,0.123234,0.101007,0.063679,0.042524,0.159545,-0.416191,0.208362,;,0.564322,0.273052,0.331332,-0.238475,0.202159,0.248151,0.082996,0.008097,0.202999,0.272823,,0.770171,-0.026553,0.517632,1.087433,0.671645,0.880942,-0.156716,0.610242,0.681955,0.520837,;-0.274713,-0.183889,1.110261,0.680738,0.758230,0.860400,0.173397,0.079662,0.945706,0.293570,;0.190996,0.854049,0.700135,0.191841,0.292591,0.097653,0.031918,0.414742,0.300198,0.807345,;-0.219058,0.627083,0.442379,0.151701,0.287626,0.248974,0.637092,0.771799,0.485079,0.057111,;0.353223,0.681295,0.542841,0.891239,0.542997,0.451018,0.529795,0.667147,0.435134,0.202984,;1.148180,0.749362,0.115861,0.961187,0.659947,0.740189,0.303198,0.502353,0.627148,-0.142721,;0.463802,0.403738,-0.090503,0.450557,0.577931,0.364472,0.421504,0.550366,0.713759,0.558724,;0.057462,0.148658,0.047298,0.135971,1.143482,0.357256,0.841896,0.300401,0.308983,-0.029907,;0.438038,0.498380,0.542760,0.601022,0.329734,0.488120,0.504390,0.628238,0.633650,0.759346,;0.508148,0.893135,0.740820,0.442924,0.201621,0.509387,0.474416,0.468164,0.029013,0.932048,;0.281742,0.732720,0.477046,-0.148373,0.541755,0.669876,0.271531,-0.488663,1.036187,-0.058965,;0.664679,0.471903,0.478586,0.867779,0.261492,0.709683,0.974507,1.005934,0.588580,0.672354,;0.414608,0.858701,0.628630,0.073659,0.424090,-0.149249,0.285170,0.421254,0.077437,0.407992,;,0.753048,0.896813,0.549207,0.450019,0.835257,0.259890,0.025342,0.150377,0.193034,0.369329,0.540719,0.269978,0.529375,
-0.740983,2.810831,0.401744,0.052921,0.909092,0.277790,-0.034060,;0.992340,-0.441176,0.272952,-0.239474,0.238936,0.317596,-0.155909,;0.564321,0.215532,0.203405,0.025494,-0.349629,-0.227942,-0.209979,;-0.043642,0.543567,-0.290634,-0.255178,-0.600175,-0.224925,-0.283932,;-0.386168,-0.371413,-0.293147,-0.203104,-0.576330,-0.039950,0.500885,;0.529130,-0.610235,0.448040,0.633088,-0.650783,0.245285,0.018049,;-0.664301,0.139461,0.343641,0.360576,1.995141,0.077130,0.209775,;-0.052017,0.658678,-0.151707,-0.016871,0.507313,-0.475674,-1.196943,;-0.886118,2.076280,-0.023201,0.798587,-0.209676,-0.005292,-1.018655,;0.447609,0.673130,0.400336,0.703060,0.232753,0.273079,-0.188771,;,0.306114,0.081414,-0.073357,-0.447035,-0.299085,-0.540908,0.155113,-0.075503,0.256682,0.212958,,-0.643855,0.277379,-0.056175,-0.441080,-0.232899,0.127071,1.233918,0.515422,-0.113442,-0.101941,;0.398175,-0.022244,-0.073378,0.611477,0.366959,0.210776,0.765633,0.519472,0.302049,-0.413494,;0.527517,0.046014,0.192542,0.623048,0.664349,0.582021,-0.883843,-0.490624,0.476694,-0.395455,;-1.271866,0.193519,0.106521,0.179074,0.436168,0.748822,-0.241681,0.054025,-0.190018,-0.447646,;-0.008793,-0.495030,-0.579110,-0.233844,1.003761,0.078872,0.465696,-0.736134,-0.283636,-0.235621,;0.059943,-0.174738,0.596971,0.403010,-0.059599,-0.183262,-0.428094,0.586459,0.350500,0.682603,;0.574044,0.830342,0.544675,0.433973,0.169235,0.111739,-0.054192,0.005820,-0.588428,0.750649,;-1.195310,0.865346,-0.164932,-0.354028,0.658217,0.325026,-0.134487,-0.453579,-0.931891,-0.224409,;1.184852,-0.021410,-0.224600,0.577195,0.196681,-0.207589,0.605428,0.834538,1.071777,0.215148,;-0.488573,0.367173,-0.041291,0.126496,0.102211,0.050991,0.044796,0.155189,-0.432191,0.194688,;,0.579385,0.273764,0.342439,-0.257977,0.196840,0.243854,0.077323,0.023200,0.182135,0.266280,,0.763991,-0.022374,0.528402,1.092689,0.670006,0.887192,-0.168578,0.605235,0.682748,0.513362,;-0.276506,-0.186311,1.105766,0.674881,0.770027,0.839645,0.184485,0.075950,0.954504,0.300453,;0.196262,0.852284,0.694620,0.194369,0.291638,0.098319,0.027840,0.413616,0.300862,0.809391,;-0.217351,0.629250,0.437958,0.156861,0.291430,0.243505,0.629764,0.767791,0.491528,0.059259,;0.351472,0.676761,0.543366,0.902752,0.542692,0.448498,0.521228,0.664382,0.437351,0.208484,;1.162922,0.751510,0.097970,0.959737,0.659688,0.741390,0.311382,0.502763,0.620873,-0.142848,;0.458285,0.399166,-0.089226,0.449044,0.575876,0.361196,0.420077,0.552164,0.719836,0.566816,;0.053051,0.148458,0.053640,0.132141,1.143622,0.358524,0.843765,0.299116,0.309535,-0.033347,;0.443060,0.498157,0.539851,0.590523,0.333079,0.488795,0.506921,0.628902,0.630795,0.756809,;0.512229,0.895523,0.733823,0.446560,0.199141,0.509057,0.474791,0.474881,0.022905,0.931831,;0.275568,0.727209,0.489913,-0.148591,0.528322,0.686353,0.269985,-0.489263,1.033523,-0.059450,;0.657060,0.473861,0.486696,0.872404,0.258084,0.715033,0.972867,1.011811,0.580058,0.665409,;0.411412,0.854621,0.634352,0.059500,0.432503,-0.153093,0.295999,0.415241,0.082375,0.403109,;,0.750123,0.893867,0.547293,0.442153,0.821741,0.262656,0.022357,0.154294,0.206472,0.369121,0.544909,0.268438,0.542340,
-0.756723,2.851872,0.395153,0.059703,0.906789,0.259392,-0.008561,;1.010619,-0.440381,0.269733,-0.242633,0.256025,0.319325,-0.160642,;0.584158,0.228294,0.205155,0.028675,-0.350744,-0.238509,-0.210244,;-0.032471,0.542941,-0.292516,-0.247639,-0.608423,-0.236369,-0.289974,;-0.378858,-0.381849,-0.296759,-0.194285,-0.563734,-0.031525,0.499375,;0.544232,-0.617373,0.455744,0.638254,-0.637946,0.254110,0.019296,;-0.670456,0.141202,0.349416,0.347043,2.016702,0.080660,0.222762,;-0.045197,0.683686,-0.141109,-0.010954,0.492926,-0.511529,-1.213521,;-0.906214,2.102228,-0.018186,0.816767,-0.238154,-0.041589,-1.030569,;0.454529,0.685289,0.390076,0.702959,0.230047,0.261795,-0.192128,;,0.279273,0.081863,-0.049986,-0.438728,-0.319232,-0.529751,0.143315,-0.045792,0.250157,0.215114,,-0.642589,0.275942,-0.053880,-0.447592,-0.234786,0.123265,1.241163,0.502736,-0.101633,-0.097299,;0.406021,-0.028541,-0.062212,0.618992,0.366229,0.220427,0.752717,0.526462,0.342459,-0.411399,;0.532361,0.047432,0.184269,0.614748,0.665026,0.590014,-0.891119,-0.508102,0.453910,-0.398569,;-1.269014,0.195842,0.104259,0.170818,0.427489,0.753430,-0.227988,0.055384,-0.185504,-0.441350,;-0.007661,-0.500557,-0.589072,-0.227557,1.015449,0.091295,0.459957,-0.750372,-0.301410,-0.243322,;0.073021,-0.168619,0.609632,0.391941,-0.080959,-0.188056,-0.437549,0.597371,0.382551,0.704211,;0.591412,0.828529,0.549711,0.442937,0.163066,0.104322,-0.074312,0.008834,-0.587945,0.753946,;-1.208939,0.875202,-0.167415,-0.370871,0.634323,0.316247,-0.131192,-0.448524,-0.933804,-0.212653,;1.179087,-0.028765,-0.218737,0.583874,0.198474,-0.205396,0.602368,0.850115,1.079301,0.208434,;-0.501406,0.349085,-0.055310,0.132085,0.099480,0.041422,0.039364,0.159662,-0.440038,0.184552,;,0.584435,0.256306,0.333884,-0.262541,0.168120,0.272198,0.072374,0.046722,0.170567,0.258611,,0.762272,-0.017965,0.534579,1.095238,0.666939,0.892649,-0.178761,0.603163,0.680776,0.508392,;-0.277717,-0.189031,1.100889,0.669258,0.784126,0.817635,0.194499,0.073472,0.962790,0.306504,;0.203286,0.851962,0.687412,0.195942,0.288754,0.100426,0.024287,0.411488,0.302923,0.810985,;-0.212757,0.629342,0.431153,0.159124,0.292869,0.239492,0.624516,0.765379,0.496721,0.063843,;0.354588,0.672138,0.540255,0.908684,0.538371,0.450097,0.515422,0.658342,0.443500,0.214444,;1.173635,0.757176,0.083035,0.961352,0.660386,0.742850,0.318932,0.498392,0.619312,-0.145897,;0.452849,0.390964,-0.086653,0.445653,0.571352,0.359489,0.419752,0.557600,0.722495,0.576955,;0.046052,0.148032,0.062686,0.132293,1.144242,0.359448,0.843345,0.301142,0.306006,-0.036831,;0.438571,0.501525,0.543187,0.592908,0.340771,0.485265,0.503271,0.634134,0.623430,0.751655,;0.520723,0.895073,0.725098,0.441679,0.192405,0.513439,0.480426,0.476176,0.021271,0.932118,;0.274517,0.722539,0.497991,-0.153068,0.514219,0.702543,0.269832,-0.491223,1.032025,-0.059052,;0.651855,0.474153,0.494442,0.872809,0.251852,0.723888,0.973748,1.015102,0.573332,0.659148,;0.396274,0.855932,0.647411,0.062421,0.447609,-0.163444,0.298336,0.415732,0.081109,0.394698,;,0.751187,0.890980,0.546551,0.438880,0.814984,0.259900,0.023033,0.154768,0.204745,0.378429,0.553534,0.272066,0.535373,
-0.762973,2.894971,0.387118,0.060436,0.921198,0.250159,0.018560,;1.020466,-0.447503,0.267742,-0.241632,0.274318,0.314171,-0.160163,;0.588879,0.237715,0.205714,0.027006,-0.355036,-0.247602,-0.212034,;-0.031071,0.538975,-0.295864,-0.246536,-0.609575,-0.249374,-0.292117,;-0.373298,-0.394448,-0.298222,-0.185720,-0.542494,-0.032168,0.507305,;0.551602,-0.628383,0.463705,0.641366,-0.625525,0.255934,0.024683,;-0.672974,0.126412,0.350638,0.332184,2.036682,0.082249,0.238174,;-0.054743,0.697853,-0.133534,-0.015328,0.476067,-0.546145,-1.229111,;-0.926905,2.129755,-0.015139,0.821559,-0.262127,-0.068183,-1.044932,;0.456047,0.696725,0.380324,0.701729,0.228874,0.253208,-0.195969,;,0.293547,0.064388,-0.077567,-0.440976,-0.309919,-0.531446,0.158521,-0.056041,0.250712,0.200336,,-0.659491,0.269141,-0.054209,-0.448297,-0.226614,0.125402,1.240061,0.488825,-0.098555,-0.105517,;0.393834,-0.038988,-0.057297,0.626053,0.375129,0.233055,0.736945,0.525189,0.364518,-0.423393,;0.547094,0.049853,0.173924,0.602074,0.662272,0.588045,-0.891038,-0.526174,0.429548,-0.401052,;-1.271748,0.189870,0.098848,0.171484,0.429134,0.762692,-0.219496,0.056387,-0.183120,-0.445641,;0.004055,-0.496105,-0.598237,-0.239996,1.011279,0.084721,0.461266,-0.767192,-0.319974,-0.238283,;0.074813,-0.178074,0.616377,0.400233,-0.081544,-0.182716,-0.455845,0.607749,0.407006,0.704954,;0.602420,0.824437,0.548447,0.447791,0.160498,0.098335,-0.084119,0.008291,-0.595499,0.752111,;-1.225209,0.872821,-0.173820,-0.381217,0.620237,0.314392,-0.128243,-0.445213,-0.932810,-0.210067,;1.184763,-0.030278,-0.215135,0.579312,0.191934,-0.217661,0.606295,0.860522,1.082907,0.208133,;-0.501214,0.336092,-0.069599,0.124251,0.085878,0.020340,0.049483,0.163935,-0.445043,0.184077,;,0.576514,0.228747,0.331621,-0.284339,0.175400,0.260573,0.062980,0.056227,0.178168,0.275097,,0.761979,-0.014349,0.540559,1.092211,0.660260,0.903398,-0.186570,0.594805,0.684625,0.502815,;-0.278406,-0.192126,1.094690,0.663285,0.797952,0.794265,0.206177,0.072381,0.970872,0.312293,;0.210821,0.849625,0.680132,0.195393,0.285099,0.102806,0.022676,0.409464,0.304685,0.813607,;-0.213263,0.629002,0.427139,0.168648,0.299221,0.230665,0.615194,0.767899,0.496913,0.068545,;0.357217,0.666332,0.537557,0.915121,0.535852,0.449527,0.509438,0.655204,0.446885,0.221351,;1.179245,0.761417,0.073721,0.970436,0.662427,0.743520,0.321929,0.498801,0.610794,-0.148466,;0.450314,0.380908,-0.086266,0.438691,0.564682,0.359138,0.421862,0.564067,0.725710,0.588068,;0.043480,0.146953,0.067742,0.127695,1.143200,0.362127,0.844551,0.299128,0.306641,-0.039500,;0.439507,0.504874,0.543175,0.587234,0.345196,0.485701,0.502303,0.632426,0.622167,0.746167,;0.520552,0.899077,0.721716,0.449863,0.193512,0.510436,0.478491,0.482511,0.015463,0.930266,;0.272252,0.717317,0.506251,-0.157026,0.500251,0.718596,0.270165,-0.492215,1.029253,-0.058483,;0.644747,0.477837,0.502898,0.876745,0.249439,0.729403,0.972205,1.019022,0.566539,0.651951,;0.393208,0.854525,0.651821,0.051629,0.455555,-0.166988,0.306840,0.407609,0.087427,0.388398,;,0.757801,0.888380,0.548089,0.427474,0.807829,0.250224,0.028255,0.160308,0.211379,0.372316,0.561335,0.271119,0.544263,
-0.779509,2.940946,0.376657,0.053110,0.919889,0.228434,0.035297,;1.038917,-0.442480,0.270121,-0.233748,0.301347,0.316083,-0.159151,;0.607660,0.254732,0.209001,0.033091,-0.354660,-0.257155,-0.210088,;-0.023901,0.547607,-0.294534,-0.247639,-0.617862,-0.262221,-0.303011,;-0.368763,-0.402456,-0.294527,-0.187505,-0.530712,-0.026105,0.497749,;0.566464,-0.635036,0.476190,0.643740,-0.613854,0.264246,0.024807,;-0.690580,0.113784,0.356266,0.310559,2.057317,0.088667,0.259498,;-0.065787,0.720846,-0.119714,-0.018481,0.463262,-0.579261,-1.238468,;-0.954365,2.155048,-0.011444,0.817670,-0.301184,-0.103996,-1.062410,;0.460894,0.711458,0.371823,0.704851,0.231680,0.242952,-0.197295,;,0.255991,0.084184,-0.053755,-0.431912,-0.317053,-0.511547,0.123952,-0.070370,0.212447,0.198857,,-0.674050,0.268082,-0.055875,-0.454333,-0.219334,0.127560,1.243796,0.465646,-0.105173,-0.111674,;0.409665,-0.052680,-0.048931,0.638671,0.379580,0.241545,0.721074,0.531850,0.411883,-0.427627,;0.554447,0.057029,0.169535,0.596060,0.658495,0.588983,-0.910095,-0.536641,0.410130,-0.403475,;-1.272375,0.194283,0.095645,0.162850,0.422459,0.767991,-0.209091,0.053665,-0.185083,-0.441637,;-0.002038,-0.493019,-0.605721,-0.236377,1.020300,0.092122,0.442896,-0.781714,-0.346330,-0.247429,;0.082409,-0.176358,0.627605,0.399185,-0.092329,-0.181579,-0.475597,0.615332,0.432326,0.716306,;0.642021,0.826463,0.552082,0.443782,0.141428,0.080051,-0.084105,0.015749,-0.583404,0.767586,;-1.226190,0.875171,-0.181316,-0.396993,0.597545,0.307117,-0.112490,-0.438608,-0.925187,-0.198724,;1.180657,-0.040363,-0.210468,0.595255,0.202164,-0.214858,0.597179,0.876279,1.083497,0.192013,;-0.489251,0.319349,-0.083912,0.124650,0.073012,0.003175,0.062778,0.178020,-0.437816,0.183207,;,0.572800,0.204487,0.331063,-0.288698,0.156955,0.269876,0.080105,0.075635,0.148295,0.277543,,0.759172,-0.011086,0.546810,1.095142,0.658932,0.908053,-0.196971,0.593810,0.681958,0.498491,;-0.280805,-0.197735,1.090207,0.659000,0.809704,0.772084,0.218086,0.073498,0.976601,0.320069,;0.211268,0.850167,0.678477,0.202817,0.285400,0.102306,0.015844,0.408949,0.304797,0.813936,;-0.210511,0.632901,0.421534,0.172197,0.300347,0.227464,0.608153,0.762063,0.505426,0.069713,;0.360740,0.659047,0.534517,0.920430,0.532517,0.450483,0.503859,0.652014,0.450779,0.229060,;1.186958,0.762738,0.064151,0.976903,0.664801,0.743654,0.327509,0.500436,0.600244,-0.149237,;0.443688,0.378034,-0.083895,0.434409,0.558273,0.358614,0.421877,0.564754,0.735182,0.594254,;0.039300,0.144929,0.074406,0.125351,1.142688,0.364362,0.844785,0.300172,0.304093,-0.041411,;0.437016,0.507935,0.546085,0.587002,0.351368,0.483628,0.499391,0.635161,0.616877,0.741613,;0.528634,0.901302,0.712434,0.445075,0.186819,0.514487,0.483847,0.480937,0.017411,0.928635,;0.267322,0.713746,0.516639,-0.158270,0.488128,0.733202,0.268893,-0.492169,1.025108,-0.058916,;0.642540,0.481085,0.506924,0.875052,0.245539,0.736770,0.973320,1.018980,0.563582,0.644848,;0.387156,0.851051,0.659435,0.045426,0.464333,-0.171926,0.313899,0.405358,0.088095,0.384248,;,0.757919,0.885250,0.540101,0.421847,0.802389,0.243998,0.028236,0.163994,0.212739,0.380322,0.565695,0.276006,0.549536,
