0.101629,0.181011,0.591505,0.061758,0.229828,0.587856,0.896687,;0.265441,0.949191,0.973713,0.720535,0.060643,0.195144,0.350761,;0.627760,0.869358,0.667857,0.193283,0.604430,0.432108,0.925102,;0.677255,0.291837,0.709226,0.067173,0.252157,0.658676,0.586572,;0.379492,0.553162,0.344093,0.477950,0.688384,0.037290,0.706300,;0.628271,0.058729,0.075453,0.437040,0.065340,0.774364,0.301925,;0.829104,0.605726,0.640096,0.060120,0.059666,0.902103,0.133328,;0.383843,0.769344,0.646629,0.772179,0.779387,0.278427,0.807928,;0.809281,0.650234,0.137211,0.666868,0.653196,0.671051,0.567366,;0.778295,0.579439,0.360631,0.120763,0.254810,0.252864,0.761088,;,0.653196,0.671051,0.567366,0.778295,0.579439,0.360631,0.120763,0.254810,0.252864,0.761088,,0.022329,0.070820,0.689885,0.114050,0.603972,0.370380,0.757415,0.627742,0.842146,0.355538,;0.000511,0.189371,0.407596,0.243756,0.460910,0.342256,0.376823,0.151849,0.313889,0.930870,;0.992947,0.807509,0.243427,0.546756,0.004351,0.216181,0.302537,0.294229,0.091003,0.241137,;0.101629,0.181011,0.591505,0.061758,0.229828,0.587856,0.896687,0.265441,0.949191,0.973713,;0.720535,0.060643,0.195144,0.350761,0.627760,0.869358,0.667857,0.193283,0.604430,0.432108,;0.925102,0.677255,0.291837,0.709226,0.067173,0.252157,0.658676,0.586572,0.379492,0.553162,;0.344093,0.477950,0.688384,0.037290,0.706300,0.628271,0.058729,0.075453,0.437040,0.065340,;0.774364,0.301925,0.829104,0.605726,0.640096,0.060120,0.059666,0.902103,0.133328,0.383843,;0.769344,0.646629,0.772179,0.779387,0.278427,0.807928,0.809281,0.650234,0.137211,0.666868,;0.653196,0.671051,0.567366,0.778295,0.579439,0.360631,0.120763,0.254810,0.252864,0.761088,;,0.653196,0.671051,0.567366,0.778295,0.579439,0.360631,0.120763,0.254810,0.252864,0.761088,,0.612210,0.932157,0.536814,0.463261,0.398992,0.746090,0.180499,0.402134,0.654162,0.986071,;0.126946,0.554431,0.888619,0.797341,0.659824,0.789665,0.067695,0.387635,0.107334,0.081003,;0.865007,0.451675,0.890747,0.310201,0.341105,0.683965,0.575626,0.110827,0.117721,0.005415,;0.022329,0.070820,0.689885,0.114050,0.603972,0.370380,0.757415,0.627742,0.842146,0.355538,;0.000511,0.189371,0.407596,0.243756,0.460910,0.342256,0.376823,0.151849,0.313889,0.930870,;0.992947,0.807509,0.243427,0.546756,0.004351,0.216181,0.302537,0.294229,0.091003,0.241137,;0.101629,0.181011,0.591505,0.061758,0.229828,0.587856,0.896687,0.265441,0.949191,0.973713,;0.720535,0.060643,0.195144,0.350761,0.627760,0.869358,0.667857,0.193283,0.604430,0.432108,;0.925102,0.677255,0.291837,0.709226,0.067173,0.252157,0.658676,0.586572,0.379492,0.553162,;0.344093,0.477950,0.688384,0.037290,0.706300,0.628271,0.058729,0.075453,0.437040,0.065340,;0.774364,0.301925,0.829104,0.605726,0.640096,0.060120,0.059666,0.902103,0.133328,0.383843,;0.769344,0.646629,0.772179,0.779387,0.278427,0.807928,0.809281,0.650234,0.137211,0.666868,;0.653196,0.671051,0.567366,0.778295,0.579439,0.360631,0.120763,0.254810,0.252864,0.761088,;,0.649451,0.628642,0.454556,0.553214,0.650519,0.594317,0.947202,0.561804,0.584403,0.535850,0.438618,0.947562,0.119893,
-0.296332,-0.067356,0.515230,-0.216075,-0.089868,0.500873,0.607807,;0.059145,0.786401,0.934647,0.561581,-0.127947,0.151762,0.187340,;0.311065,0.634871,0.612011,-0.023230,0.387502,0.378833,0.728076,;0.544538,0.168048,0.680503,-0.041999,0.123821,0.638037,0.480047,;0.191909,0.405974,0.311173,0.354623,0.575910,0.002685,0.603358,;0.258008,-0.176297,0.019007,0.193249,-0.180055,0.704183,0.100303,;0.427443,0.356822,0.572355,-0.201888,-0.216482,0.815668,-0.082164,;0.103231,0.592424,0.597874,0.592913,0.585103,0.230009,0.637409,;0.469720,0.442737,0.084720,0.449647,0.423406,0.623650,0.380054,;0.589391,0.393954,0.310024,-0.047739,0.041246,0.212922,0.585692,;,-0.696589,-0.031905,-0.485348,0.336044,-0.033601,-0.891342,-1.233945,-0.678594,-0.886179,0.130456,,-0.029267,-0.178062,0.464897,-0.158791,0.366034,0.361786,0.827082,0.478459,0.708781,0.090081,;-0.152540,-0.014205,0.149677,0.077073,0.242018,0.234450,0.308869,-0.078418,0.105596,0.740551,;0.792723,0.543817,-0.113384,0.292915,-0.317877,0.092241,0.248137,-0.028595,-0.185373,-0.034690,;0.022412,0.001377,0.386735,-0.137295,0.018986,0.554906,0.919769,0.097420,0.811117,0.773807,;0.654567,-0.112851,0.012610,0.153616,0.434660,0.840893,0.699592,0.052679,0.482027,0.240745,;0.918345,0.408696,0.066905,0.392138,-0.204539,0.288892,0.795197,0.440193,0.256860,0.263032,;0.373638,0.223898,0.511478,-0.271725,0.477194,0.687360,0.220198,-0.008788,0.359420,-0.211127,;0.555087,0.212717,0.633632,0.571208,0.528397,-0.127178,-0.126063,0.702556,-0.064759,0.306837,;0.798292,0.440927,0.627683,0.533904,0.090170,0.865716,0.941156,0.575154,0.077831,0.445361,;0.548359,0.424735,0.321598,0.586738,0.364207,0.289260,0.088859,0.055095,0.068932,0.548828,;,0.269871,0.524106,0.337831,0.540490,0.322124,-0.127297,-0.393224,0.349626,-0.148552,0.537546,,0.490459,0.777260,0.432543,0.310777,0.304680,0.655963,0.116558,0.162257,0.555387,0.770089,;-0.067533,0.490145,0.787411,0.620210,0.471713,0.605911,-0.099203,0.223259,-0.097794,-0.005058,;0.786538,0.331291,0.803529,0.211933,0.272208,0.616992,0.532351,-0.017292,0.043913,-0.133894,;-0.064210,-0.040883,0.605005,0.011748,0.525899,0.294954,0.705862,0.510814,0.758183,0.227497,;0.047425,0.005033,0.363070,0.233675,0.532555,0.427975,0.492125,0.009066,0.403721,0.719534,;0.957975,0.721410,0.175817,0.487308,-0.032842,0.179189,0.288360,0.254179,0.050954,0.148918,;0.005934,0.056581,0.488938,-0.060880,0.149868,0.506110,0.840411,0.123482,0.861014,0.811718,;0.628321,-0.004637,0.118388,0.258365,0.536674,0.770972,0.580139,0.142301,0.503708,0.366220,;0.878099,0.520116,0.211633,0.625838,0.040876,0.233827,0.667979,0.415705,0.356502,0.364689,;0.251411,0.350441,0.596190,-0.079093,0.630165,0.554001,0.009159,-0.090015,0.355778,-0.100641,;0.490863,0.317768,0.678540,0.371942,0.339129,-0.256402,-0.249476,0.767277,-0.213352,0.384109,;0.621156,0.516768,0.663563,0.609161,0.155525,0.685907,0.711867,0.440872,0.005724,0.477447,;0.566346,0.576410,0.486357,0.679220,0.504252,0.280256,0.056644,0.157661,0.169535,0.651498,;,0.532317,0.681338,0.311087,0.417590,0.301212,0.459541,0.823842,0.496975,0.370258,0.404462,0.774829,0.864048,0.019259,
-0.321722,-0.113755,0.411458,-0.255379,-0.179595,0.425464,0.522722,;0.069863,0.757234,0.896217,0.545632,-0.172287,0.114567,0.139202,;0.296131,0.593046,0.570178,-0.035504,0.377481,0.336184,0.688857,;0.557019,0.148432,0.653410,-0.044193,0.102217,0.621315,0.450563,;0.192403,0.380790,0.301244,0.358791,0.592759,-0.015146,0.594552,;0.243572,-0.226566,-0.041942,0.163259,-0.235839,0.632878,0.055914,;0.400574,0.308284,0.487891,-0.235868,-0.291445,0.734170,-0.140711,;0.087792,0.574243,0.563262,0.583904,0.568232,0.197134,0.607040,;0.447770,0.412004,0.042042,0.430858,0.390919,0.576997,0.348217,;0.598652,0.362367,0.259031,-0.052638,-0.000284,0.171582,0.534057,;,-0.799762,-0.006633,-0.527016,0.386857,-0.014059,-0.961934,-1.343834,-0.723851,-0.966935,0.173634,,-0.032849,-0.215240,0.428888,-0.192494,0.342041,0.366051,0.829136,0.454882,0.696998,0.058571,;-0.191942,-0.049947,0.075247,0.055996,0.195129,0.212647,0.279527,-0.151991,0.056512,0.715561,;0.761991,0.489866,-0.223421,0.220913,-0.416299,0.093905,0.251756,-0.138059,-0.238555,-0.092797,;0.026508,-0.021887,0.350178,-0.183025,-0.021432,0.572135,0.940920,0.068181,0.805776,0.740252,;0.653064,-0.132412,-0.017626,0.126213,0.403170,0.846872,0.706319,0.022415,0.469069,0.222122,;0.912207,0.356754,0.009542,0.356245,-0.258784,0.296742,0.798620,0.380277,0.229756,0.232584,;0.376915,0.179962,0.483003,-0.296024,0.451201,0.696177,0.226680,-0.035043,0.349244,-0.234430,;0.526471,0.224937,0.610221,0.563566,0.525452,-0.148624,-0.146202,0.684504,-0.083061,0.300260,;0.808608,0.393200,0.597532,0.500158,0.059035,0.883330,0.955717,0.549656,0.073297,0.415850,;0.507480,0.365648,0.251262,0.584074,0.334072,0.258323,0.040616,-0.016185,0.014178,0.530736,;,0.247995,0.545755,0.312129,0.501873,0.303860,-0.146424,-0.414011,0.367823,-0.181291,0.578588,,0.449916,0.754022,0.432647,0.260436,0.274400,0.627203,0.094517,0.043588,0.520621,0.703848,;-0.078527,0.484059,0.806143,0.610363,0.464389,0.605828,-0.095486,0.193642,-0.105369,-0.012595,;0.775824,0.329591,0.801982,0.199638,0.262340,0.608009,0.524734,-0.031327,0.033540,-0.141723,;-0.070522,-0.041909,0.605478,0.004962,0.519724,0.290976,0.704648,0.507847,0.750463,0.225865,;0.069842,-0.017953,0.367806,0.249160,0.556709,0.455558,0.523273,-0.022828,0.429688,0.691092,;0.968790,0.715557,0.154250,0.490100,-0.029758,0.185230,0.298450,0.292270,0.056615,0.153936,;0.023321,0.027245,0.474076,-0.055500,0.169141,0.526443,0.867594,0.085844,0.879206,0.766912,;0.595136,0.029810,0.105767,0.233438,0.501673,0.727994,0.534870,0.191225,0.460859,0.409019,;0.891454,0.499507,0.215452,0.632299,0.056625,0.252919,0.691076,0.379752,0.372980,0.335737,;0.237792,0.343428,0.596246,-0.096137,0.620374,0.545673,0.003437,-0.136134,0.344993,-0.124135,;0.503006,0.295784,0.676507,0.377339,0.349658,-0.240078,-0.229094,0.757776,-0.199344,0.362422,;0.585265,0.506089,0.662568,0.567385,0.128140,0.659927,0.690639,0.351667,-0.025252,0.432733,;0.562216,0.588051,0.479293,0.677039,0.499725,0.269888,0.046796,0.180893,0.158672,0.668190,;,0.544326,0.670753,0.317222,0.416154,0.264299,0.449290,0.789540,0.549893,0.341060,0.405461,0.750317,0.876879,0.032140,
-0.334272,-0.128195,0.386126,-0.277691,-0.222272,0.347344,0.483072,;0.071218,0.748347,0.886021,0.536182,-0.200354,0.078004,0.114669,;0.291402,0.579175,0.564126,-0.032253,0.402035,0.300273,0.684521,;0.558261,0.143491,0.646518,-0.043843,0.092540,0.606565,0.438349,;0.188590,0.368709,0.302090,0.367377,0.626689,-0.023415,0.601597,;0.238114,-0.257629,-0.057541,0.142337,-0.256389,0.554796,0.038787,;0.389156,0.286100,0.463726,-0.257087,-0.321472,0.646799,-0.167955,;0.083409,0.577206,0.558464,0.588055,0.582051,0.173550,0.601811,;0.440758,0.399367,0.030273,0.423396,0.389911,0.526073,0.341363,;0.598163,0.353983,0.240121,-0.052933,-0.013566,0.123043,0.512084,;,-0.841346,-0.000873,-0.527269,0.407463,-0.005802,-0.992600,-1.390203,-0.723851,-0.992827,0.191617,,-0.050615,-0.232505,0.407051,-0.201979,0.342974,0.348216,0.810181,0.442356,0.678823,0.048828,;-0.209853,-0.067105,0.034414,0.036562,0.169952,0.199464,0.266342,-0.187200,0.029526,0.699369,;0.751959,0.478968,-0.288812,0.166636,-0.482281,0.091165,0.261652,-0.199223,-0.275121,-0.128665,;0.029318,-0.025511,0.333874,-0.213063,-0.038340,0.573986,0.951007,0.059120,0.799496,0.722938,;0.655827,-0.139486,-0.032320,0.109091,0.385077,0.848579,0.712008,0.007355,0.460174,0.212318,;0.910466,0.331250,-0.019731,0.341193,-0.286374,0.294213,0.796099,0.347838,0.207137,0.221785,;0.372256,0.157778,0.470322,-0.297416,0.446840,0.689055,0.217783,-0.048220,0.335032,-0.238163,;0.517606,0.251408,0.612724,0.549331,0.535993,-0.157195,-0.145927,0.698486,-0.078824,0.292876,;0.811707,0.369353,0.585578,0.492439,0.049863,0.884206,0.955153,0.538151,0.064440,0.407271,;0.484930,0.332306,0.214438,0.587631,0.323080,0.235559,0.008425,-0.053265,-0.021439,0.525026,;,0.256503,0.550677,0.289043,0.479710,0.292200,-0.151309,-0.410526,0.363217,-0.187235,0.605957,,0.436095,0.735626,0.461396,0.239138,0.267501,0.624437,0.094843,-0.062183,0.515333,0.653800,;-0.060351,0.463924,0.833342,0.627947,0.483351,0.634091,-0.065977,0.178414,-0.080424,-0.027373,;0.758991,0.337618,0.802545,0.182890,0.246183,0.591738,0.508521,-0.039563,0.016455,-0.138521,;-0.065438,-0.046666,0.610053,0.009369,0.524550,0.297930,0.712184,0.507919,0.756569,0.222913,;0.075272,-0.025323,0.373269,0.252318,0.562835,0.463126,0.531771,-0.040246,0.436979,0.679296,;0.976349,0.713363,0.112407,0.490436,-0.031599,0.183960,0.301910,0.353406,0.055357,0.165454,;0.039775,0.013226,0.464938,-0.045439,0.183848,0.542884,0.886170,0.081955,0.896971,0.751213,;0.556019,0.067492,0.082741,0.199756,0.460584,0.680214,0.485547,0.245313,0.412642,0.455717,;0.882257,0.498956,0.220916,0.620588,0.048578,0.246727,0.686010,0.355832,0.365657,0.327271,;0.233858,0.339110,0.605617,-0.101454,0.619369,0.545554,0.004036,-0.175269,0.344315,-0.141334,;0.517147,0.271971,0.680489,0.385831,0.361955,-0.221637,-0.207537,0.743582,-0.182433,0.337781,;0.570919,0.499974,0.680886,0.548729,0.118693,0.654251,0.686155,0.282124,-0.032016,0.403592,;0.549952,0.604747,0.465729,0.665974,0.486592,0.251740,0.028521,0.206665,0.140784,0.689903,;,0.536666,0.636121,0.333440,0.407305,0.253903,0.447166,0.769041,0.605392,0.343959,0.402075,0.725258,0.876077,0.053412,
-0.337154,-0.140649,0.360024,-0.282033,-0.242605,0.342244,0.467217,;0.075112,0.745755,0.875598,0.537342,-0.213215,0.074534,0.102713,;0.282130,0.564253,0.561373,-0.025196,0.442091,0.297767,0.689661,;0.556448,0.140903,0.639968,-0.037735,0.094820,0.605782,0.433722,;0.172196,0.355025,0.305518,0.373850,0.669826,-0.023359,0.610336,;0.238842,-0.291369,-0.072348,0.132073,-0.262357,0.550125,0.037238,;0.384021,0.261416,0.443109,-0.265436,-0.336800,0.640373,-0.176174,;0.078401,0.583408,0.556846,0.598487,0.608025,0.172215,0.603309,;0.434206,0.384201,0.023366,0.420753,0.397126,0.522320,0.343822,;0.589329,0.345095,0.227421,-0.046299,-0.013665,0.118239,0.505008,;,-0.848033,0.015915,-0.536229,0.418503,-0.033559,-0.997433,-1.409689,-0.721190,-1.012007,0.187207,,-0.045445,-0.248812,0.405484,-0.211408,0.346398,0.354083,0.814369,0.448569,0.684773,0.037079,;-0.206783,-0.076798,0.017276,0.022573,0.153059,0.206190,0.271799,-0.199756,0.026818,0.686662,;0.732903,0.488903,-0.333852,0.153456,-0.521904,0.082506,0.253335,-0.246785,-0.299958,-0.135183,;0.035232,-0.018047,0.332479,-0.225542,-0.043952,0.581625,0.961662,0.062020,0.806571,0.716758,;0.660339,-0.138861,-0.038364,0.101334,0.374083,0.854851,0.718962,0.000640,0.461289,0.208582,;0.915996,0.308466,-0.038474,0.333485,-0.309258,0.302648,0.800772,0.323826,0.199706,0.215032,;0.373863,0.129015,0.462458,-0.297569,0.442837,0.691225,0.215644,-0.059287,0.330240,-0.242744,;0.517121,0.289655,0.635626,0.539171,0.563755,-0.157822,-0.137636,0.737366,-0.056310,0.289626,;0.813086,0.342906,0.574464,0.490738,0.042873,0.886644,0.952536,0.524772,0.058594,0.401258,;0.477026,0.297320,0.192817,0.588672,0.318008,0.229487,-0.007256,-0.074684,-0.036852,0.516534,;,0.246528,0.542070,0.301049,0.466807,0.284885,-0.157351,-0.411063,0.351917,-0.187133,0.618092,,0.424708,0.726975,0.499592,0.227249,0.264341,0.621773,0.092173,-0.152214,0.510746,0.624690,;-0.068713,0.470548,0.850813,0.626560,0.475780,0.631012,-0.071080,0.210085,-0.086968,-0.009144,;0.760939,0.334863,0.806283,0.184595,0.248907,0.594586,0.511396,-0.049705,0.019330,-0.143502,;-0.065192,-0.046045,0.612460,0.010975,0.524683,0.298958,0.712754,0.516262,0.757012,0.226283,;0.089302,-0.035471,0.379326,0.265874,0.578148,0.478880,0.547638,-0.054514,0.453046,0.666312,;0.995326,0.706438,0.067469,0.502901,-0.022634,0.192709,0.313585,0.421401,0.066816,0.174297,;0.019423,0.025341,0.441471,-0.068270,0.162899,0.519004,0.864177,0.089073,0.872871,0.758361,;0.557118,0.072561,0.067307,0.200285,0.459540,0.676715,0.482626,0.271321,0.409788,0.466420,;0.878472,0.498707,0.228954,0.617196,0.046948,0.245190,0.684301,0.337108,0.363487,0.322431,;0.232091,0.338516,0.619201,-0.102243,0.621036,0.547063,0.005010,-0.211171,0.345410,-0.151695,;0.507836,0.270945,0.673940,0.375436,0.349889,-0.231198,-0.216075,0.764703,-0.193128,0.342325,;0.566338,0.497148,0.705057,0.545238,0.121288,0.656590,0.687953,0.215887,-0.030803,0.382759,;0.572682,0.593689,0.459546,0.687017,0.509246,0.272218,0.049881,0.210566,0.162470,0.681033,;,0.535555,0.641052,0.330037,0.406776,0.236711,0.438155,0.791938,0.610160,0.344738,0.399377,0.734441,0.870813,0.031991,
-0.340417,-0.141212,0.341303,-0.280920,-0.252750,0.336939,0.452011,;0.072411,0.757400,0.866926,0.541378,-0.221856,0.070421,0.085366,;0.276649,0.558532,0.563194,-0.014967,0.489201,0.295498,0.700671,;0.550745,0.146618,0.635447,-0.030077,0.104500,0.605272,0.430712,;0.156729,0.347397,0.311083,0.381869,0.719692,-0.022658,0.625736,;0.243574,-0.321020,-0.081519,0.127316,-0.262159,0.545648,0.039852,;0.384261,0.244173,0.430492,-0.269039,-0.347092,0.633457,-0.180906,;0.077021,0.598825,0.558968,0.611236,0.640866,0.170961,0.609251,;0.434086,0.372601,0.021726,0.421234,0.406908,0.518467,0.351850,;0.580718,0.347975,0.219878,-0.037736,-0.007666,0.113133,0.502463,;,-0.852964,0.015600,-0.528998,0.418727,-0.053946,-0.988720,-1.411529,-0.702164,-1.009447,0.183488,,-0.046737,-0.263127,0.402689,-0.214343,0.351409,0.352598,0.810585,0.449586,0.683250,0.030582,;-0.204092,-0.082083,0.002715,0.010239,0.137163,0.211382,0.277278,-0.211177,0.023774,0.676559,;0.721921,0.505353,-0.376144,0.132246,-0.567186,0.080749,0.257195,-0.287492,-0.317030,-0.147043,;0.034354,-0.003797,0.331631,-0.231137,-0.045756,0.580876,0.964309,0.064143,0.807954,0.716546,;0.656558,-0.133084,-0.043112,0.102030,0.369798,0.851783,0.715739,-0.005336,0.457493,0.211379,;0.914106,0.293099,-0.055069,0.333423,-0.325091,0.303181,0.796619,0.302418,0.189216,0.214121,;0.369660,0.102259,0.452426,-0.293868,0.440923,0.688509,0.207088,-0.072695,0.321462,-0.245370,;0.515353,0.335999,0.665251,0.529920,0.597826,-0.162212,-0.129074,0.782629,-0.032729,0.289448,;0.815717,0.318323,0.568826,0.489797,0.041525,0.890242,0.951080,0.517905,0.056693,0.395852,;0.477449,0.267369,0.186420,0.586782,0.323898,0.230897,-0.013167,-0.078185,-0.038850,0.507465,;,0.246698,0.534566,0.300186,0.463864,0.289364,-0.152907,-0.404138,0.340830,-0.188354,0.619129,,0.446377,0.703651,0.533990,0.246953,0.291673,0.650419,0.121092,-0.234020,0.539269,0.583276,;-0.065024,0.467861,0.873353,0.636846,0.480388,0.641490,-0.063141,0.248053,-0.079293,0.001364,;0.763647,0.331834,0.811182,0.187033,0.252344,0.598216,0.515025,-0.061360,0.022997,-0.149196,;-0.075033,-0.039464,0.616441,0.003067,0.515043,0.290122,0.703122,0.524886,0.747113,0.235308,;0.086152,-0.034183,0.384679,0.263046,0.576003,0.476792,0.545351,-0.065814,0.450590,0.665600,;1.002330,0.701904,0.029664,0.505750,-0.021542,0.194114,0.317183,0.472693,0.070272,0.179839,;0.034987,0.013576,0.415305,-0.057742,0.177473,0.531485,0.879642,0.089624,0.886672,0.742181,;0.541439,0.091514,0.039156,0.184226,0.439633,0.652797,0.459248,0.321350,0.386460,0.495974,;0.876281,0.498043,0.238425,0.615245,0.046525,0.245071,0.683937,0.318100,0.362872,0.317933,;0.212128,0.348872,0.637667,-0.120499,0.604609,0.530216,-0.012730,-0.257096,0.327313,-0.152279,;0.530424,0.247221,0.671458,0.395978,0.371605,-0.205398,-0.188987,0.775123,-0.167193,0.320136,;0.543461,0.505732,0.737934,0.524183,0.105227,0.640445,0.670781,0.135969,-0.049043,0.372616,;0.566846,0.605784,0.437209,0.680243,0.500264,0.259165,0.037451,0.245448,0.150301,0.700757,;,0.502711,0.632042,0.325873,0.416764,0.238659,0.435969,0.775758,0.637355,0.344327,0.416257,0.705368,0.885552,0.047392,
-0.349493,-0.140074,0.331842,-0.284826,-0.266503,0.330969,0.442027,;0.063817,0.777122,0.862337,0.543607,-0.235641,0.066223,0.071652,;0.269129,0.560117,0.563970,0.007789,0.546817,0.294421,0.708518,;0.543286,0.155044,0.633641,-0.020757,0.112217,0.604709,0.430430,;0.137736,0.345450,0.313786,0.403729,0.780589,-0.021039,0.637549,;0.244326,-0.351688,-0.086892,0.118062,-0.262678,0.540759,0.041228,;0.381735,0.228518,0.422371,-0.275619,-0.355505,0.626835,-0.186622,;0.074230,0.623220,0.560484,0.636286,0.684439,0.170617,0.614045,;0.432698,0.363121,0.019453,0.424701,0.423204,0.515671,0.355718,;0.574535,0.357498,0.214386,-0.023432,0.003758,0.109217,0.499063,;,-0.874360,0.003191,-0.520557,0.416906,-0.077215,-0.996212,-1.422965,-0.676923,-1.009992,0.191740,,-0.055248,-0.275318,0.398678,-0.214412,0.362061,0.346317,0.800728,0.452225,0.680896,0.025338,;-0.214462,-0.082011,-0.014014,0.007796,0.127878,0.203840,0.268699,-0.224980,0.013315,0.673154,;0.716180,0.526087,-0.414719,0.115780,-0.615331,0.078775,0.262631,-0.329583,-0.335796,-0.154377,;0.029863,0.011722,0.329859,-0.233991,-0.046278,0.576127,0.963008,0.065734,0.807076,0.717782,;0.664689,-0.128555,-0.042212,0.095701,0.362884,0.858865,0.725152,-0.005140,0.461912,0.209547,;0.925832,0.276945,-0.063216,0.325966,-0.342965,0.315297,0.807684,0.288690,0.188943,0.208605,;0.379614,0.072223,0.449798,-0.299982,0.437563,0.699922,0.215288,-0.077640,0.325062,-0.254719,;0.509894,0.394222,0.701850,0.523426,0.645929,-0.171595,-0.125048,0.842337,-0.005722,0.292077,;0.824174,0.293502,0.566395,0.485368,0.039157,0.899465,0.956422,0.513744,0.058951,0.388329,;0.471663,0.241430,0.177813,0.589765,0.329866,0.226902,-0.025371,-0.085797,-0.046388,0.502443,;,0.253199,0.543054,0.299050,0.465314,0.279657,-0.164908,-0.415931,0.333210,-0.196681,0.628407,,0.419852,0.712291,0.571858,0.221138,0.270807,0.629841,0.099680,-0.313533,0.516305,0.576055,;-0.066618,0.466511,0.900702,0.642779,0.480923,0.648086,-0.059859,0.294608,-0.076135,0.013087,;0.767483,0.328477,0.815560,0.190587,0.256884,0.602924,0.519751,-0.072209,0.027734,-0.154750,;-0.064559,-0.045895,0.619883,0.014365,0.525876,0.302060,0.714725,0.530941,0.758920,0.230062,;0.082053,-0.032259,0.392699,0.259379,0.573278,0.474152,0.542435,-0.082547,0.447433,0.664090,;0.993856,0.705438,-0.023673,0.492172,-0.037364,0.176899,0.303542,0.547735,0.053490,0.195542,;0.044385,0.006557,0.389533,-0.052802,0.186074,0.538026,0.888830,0.093731,0.894346,0.732396,;0.556950,0.090078,0.011415,0.197584,0.450216,0.660775,0.468156,0.359639,0.397397,0.503066,;0.874469,0.497512,0.249458,0.613759,0.046639,0.245491,0.684097,0.295876,0.362724,0.312581,;0.226227,0.339592,0.655998,-0.106240,0.622084,0.548042,0.004721,-0.302321,0.345203,-0.170556,;0.512332,0.248026,0.667477,0.378118,0.353464,-0.221176,-0.204063,0.806984,-0.185625,0.326187,;0.544901,0.502470,0.773095,0.526515,0.113301,0.648986,0.678356,0.051839,-0.041563,0.351969,;0.582077,0.604024,0.416118,0.693291,0.511518,0.267748,0.046838,0.267064,0.161771,0.704055,;,0.522768,0.627510,0.320667,0.404414,0.241154,0.451709,0.766427,0.630702,0.343327,0.396726,0.720401,0.874988,0.039826,
-0.354737,-0.131754,0.322852,-0.282236,-0.274452,0.319073,0.436906,;0.057384,0.811983,0.857438,0.554226,-0.246488,0.057936,0.060090,;0.257121,0.568509,0.566887,0.025880,0.604257,0.292881,0.715651,;0.536078,0.167944,0.631886,-0.008663,0.122428,0.603348,0.430545,;0.110986,0.347700,0.318740,0.419098,0.841679,-0.017669,0.646938,;0.243867,-0.381594,-0.091154,0.109398,-0.261127,0.530200,0.044716,;0.378093,0.215913,0.416365,-0.282500,-0.362856,0.613536,-0.189477,;0.069235,0.656913,0.563655,0.658865,0.729524,0.170291,0.617138,;0.426791,0.355532,0.019641,0.423520,0.439299,0.509859,0.359715,;0.561696,0.371172,0.211265,-0.013042,0.013537,0.101266,0.496075,;,-0.881359,0.002752,-0.523325,0.418736,-0.121030,-1.006084,-1.439192,-0.655953,-1.026163,0.178051,,-0.050568,-0.290581,0.400717,-0.222134,0.369473,0.351301,0.804625,0.459189,0.686045,0.015305,;-0.214250,-0.081954,-0.024602,-0.000636,0.117270,0.204604,0.270741,-0.232620,0.009678,0.666870,;0.694334,0.556747,-0.455425,0.111926,-0.655578,0.058394,0.247478,-0.371513,-0.366523,-0.149632,;0.034293,0.029487,0.335333,-0.241884,-0.045470,0.577922,0.971334,0.075635,0.813233,0.717382,;0.671874,-0.122575,-0.040970,0.089585,0.357872,0.864644,0.733739,-0.003532,0.466337,0.207952,;0.931047,0.265326,-0.070800,0.322181,-0.355501,0.320666,0.811839,0.276279,0.185982,0.206355,;0.383912,0.043998,0.447539,-0.302193,0.438822,0.705610,0.216785,-0.083175,0.325260,-0.261074,;0.506907,0.461113,0.746964,0.518064,0.699018,-0.181642,-0.118149,0.911482,0.023574,0.299149,;0.827583,0.268155,0.561188,0.483284,0.038280,0.904324,0.956118,0.506340,0.057409,0.381616,;0.471712,0.214979,0.173412,0.587470,0.337800,0.228519,-0.030741,-0.087713,-0.048080,0.493244,;,0.244676,0.539470,0.319243,0.455563,0.270366,-0.169796,-0.420505,0.322941,-0.199036,0.629419,,0.404837,0.713246,0.616790,0.205877,0.262069,0.621812,0.091156,-0.411334,0.506565,0.559099,;-0.075141,0.471730,0.920466,0.642359,0.473007,0.646184,-0.065197,0.371505,-0.081267,0.032920,;0.767339,0.327443,0.820344,0.190258,0.257455,0.603595,0.520418,-0.083999,0.028309,-0.157571,;-0.055270,-0.052299,0.624038,0.024255,0.535968,0.313047,0.725423,0.536191,0.769811,0.224670,;0.099518,-0.043305,0.396378,0.276246,0.591898,0.493158,0.561687,-0.093621,0.466913,0.650596,;1.011858,0.693120,-0.075636,0.504695,-0.025954,0.187968,0.317435,0.616624,0.066893,0.194687,;0.024098,0.017959,0.356909,-0.076871,0.163715,0.512893,0.866146,0.109556,0.869280,0.743085,;0.573894,0.085306,-0.014587,0.211956,0.462447,0.670585,0.479126,0.392800,0.409307,0.506516,;0.871752,0.497819,0.261529,0.611415,0.045932,0.245204,0.683511,0.272375,0.361848,0.308608,;0.222633,0.341854,0.675627,-0.108956,0.621637,0.547704,0.003831,-0.351153,0.344269,-0.177065,;0.499001,0.247211,0.666083,0.365300,0.340768,-0.231316,-0.214092,0.837722,-0.197386,0.328120,;0.538917,0.505528,0.800751,0.520957,0.112271,0.648033,0.677029,-0.022117,-0.043487,0.341114,;0.602043,0.596757,0.397254,0.710400,0.527913,0.281813,0.062031,0.282223,0.177897,0.702066,;,0.529734,0.632005,0.319769,0.393042,0.220881,0.438515,0.790384,0.621318,0.343268,0.396657,0.729979,0.874714,0.025718,
-0.354247,-0.123771,0.314227,-0.274986,-0.277146,0.317827,0.434022,;0.050887,0.852444,0.851696,0.568931,-0.259764,0.054376,0.039666,;0.254633,0.581275,0.570268,0.041316,0.666019,0.291321,0.729255,;0.531670,0.181085,0.630446,0.002778,0.136847,0.604127,0.433894,;0.092924,0.356162,0.324266,0.430289,0.908527,-0.017070,0.664505,;0.250058,-0.411628,-0.095733,0.103932,-0.253476,0.529501,0.055546,;0.379207,0.199291,0.408807,-0.285899,-0.366771,0.609966,-0.188400,;0.071590,0.696206,0.567328,0.681005,0.777987,0.168960,0.623517,;0.426060,0.344807,0.018559,0.422574,0.457503,0.507569,0.369982,;0.554068,0.376794,0.206182,-0.003791,0.027304,0.098456,0.499129,;,-0.869355,0.007130,-0.484989,0.431265,-0.124536,-0.995834,-1.441446,-0.598687,-1.022926,0.181628,,-0.049527,-0.308723,0.397602,-0.227926,0.373905,0.353456,0.804726,0.457093,0.685765,0.006588,;-0.206678,-0.090355,-0.038902,-0.015030,0.101697,0.214617,0.281137,-0.244593,0.010734,0.654799,;0.684379,0.585842,-0.505700,0.096276,-0.712062,0.054660,0.249211,-0.416187,-0.386796,-0.157252,;0.032917,0.041286,0.331876,-0.245538,-0.049293,0.575880,0.971975,0.075521,0.812434,0.717563,;0.668325,-0.115711,-0.039881,0.093811,0.358497,0.860365,0.729003,-0.002722,0.464495,0.213267,;0.935822,0.252168,-0.073053,0.321766,-0.360740,0.326557,0.814487,0.269481,0.186971,0.206319,;0.381517,0.018842,0.446286,-0.298704,0.443613,0.704999,0.211366,-0.090009,0.321607,-0.262682,;0.482616,0.528609,0.773823,0.525443,0.742902,-0.212889,-0.135949,0.960598,0.027547,0.312588,;0.824671,0.247050,0.562284,0.488623,0.045666,0.902411,0.948701,0.503134,0.054310,0.381693,;0.467748,0.185920,0.177979,0.592857,0.355882,0.225347,-0.042157,-0.085182,-0.049758,0.490957,;,0.241013,0.526478,0.322272,0.454792,0.276344,-0.172893,-0.416357,0.341032,-0.192607,0.637703,,0.411041,0.704015,0.655319,0.212010,0.274063,0.634470,0.103607,-0.493361,0.518274,0.533972,;-0.075408,0.466535,0.961483,0.650564,0.477683,0.656821,-0.058509,0.407921,-0.074195,0.032962,;0.770322,0.324746,0.825985,0.193123,0.261320,0.607636,0.524439,-0.097079,0.032283,-0.162582,;-0.077291,-0.039377,0.631186,0.005164,0.513955,0.292125,0.703074,0.555919,0.747415,0.241742,;0.099414,-0.043776,0.403685,0.276498,0.593007,0.494427,0.562766,-0.106914,0.467860,0.647789,;1.020284,0.679214,-0.103359,0.511505,-0.015519,0.199590,0.330888,0.654040,0.077807,0.184229,;0.038304,0.007966,0.322348,-0.067837,0.177137,0.524106,0.880492,0.114386,0.881795,0.730276,;0.569434,0.101224,-0.074491,0.201499,0.444623,0.647269,0.458220,0.462764,0.390109,0.539499,;0.860339,0.503467,0.279576,0.601115,0.037166,0.236930,0.674588,0.241100,0.352365,0.308642,;0.230408,0.338401,0.689973,-0.100665,0.632162,0.558392,0.014245,-0.392453,0.354745,-0.187759,;0.499526,0.230128,0.695181,0.369581,0.349735,-0.217430,-0.201229,0.839504,-0.187168,0.305787,;0.545482,0.502432,0.826850,0.528317,0.123988,0.659972,0.688530,-0.095607,-0.032078,0.324977,;0.595173,0.614271,0.347351,0.697613,0.508966,0.257338,0.039758,0.327787,0.157262,0.732377,;,0.515272,0.623027,0.315371,0.415990,0.219436,0.423574,0.775812,0.647304,0.351732,0.385117,0.713658,0.861392,0.052817,
-0.361942,-0.114158,0.306537,-0.272340,-0.280575,0.307992,0.430009,;0.034484,0.903066,0.844875,0.578304,-0.269171,0.048005,0.023462,;0.243018,0.598204,0.575845,0.054440,0.729421,0.290951,0.735886,;0.520049,0.196689,0.628875,0.010200,0.149854,0.602907,0.434612,;0.065923,0.368015,0.331823,0.439088,0.976713,-0.013924,0.673780,;0.254374,-0.442856,-0.098608,0.099856,-0.248816,0.520467,0.061141,;0.378264,0.181744,0.403648,-0.287823,-0.369891,0.600086,-0.189844,;0.062727,0.742439,0.572196,0.697962,0.829779,0.169406,0.623929,;0.423006,0.333212,0.019495,0.422950,0.475693,0.503703,0.374669,;0.540879,0.383548,0.202974,0.005241,0.042478,0.093217,0.497880,;,-0.885173,-0.014386,-0.467480,0.422004,-0.146561,-0.994942,-1.450969,-0.566066,-1.025455,0.170559,,-0.056449,-0.324057,0.394890,-0.227223,0.383006,0.348402,0.795721,0.456543,0.681453,0.001487,;-0.209832,-0.096152,-0.052140,-0.019954,0.093694,0.213833,0.278323,-0.254790,0.005630,0.648695,;0.676218,0.614474,-0.542923,0.084303,-0.755839,0.048182,0.249288,-0.448131,-0.402690,-0.159576,;0.036672,0.051279,0.331316,-0.252715,-0.051943,0.577641,0.977831,0.079148,0.815590,0.715096,;0.677072,-0.111036,-0.039257,0.086229,0.353470,0.867466,0.739207,-0.001102,0.470192,0.210601,;0.944146,0.238464,-0.079168,0.315724,-0.369863,0.336129,0.822111,0.259770,0.189188,0.202380,;0.377142,-0.005277,0.444324,-0.294273,0.448940,0.703022,0.203991,-0.097355,0.316804,-0.263401,;0.483554,0.594788,0.822231,0.518777,0.794042,-0.224398,-0.126920,1.033811,0.053694,0.317831,;0.824007,0.227790,0.561647,0.489970,0.050532,0.903214,0.945152,0.499290,0.052439,0.379378,;0.471381,0.158618,0.181392,0.589062,0.370382,0.230551,-0.042852,-0.081118,-0.045822,0.482483,;,0.247773,0.527869,0.324914,0.447403,0.264914,-0.182262,-0.410094,0.328482,-0.190609,0.633757,,0.406887,0.702773,0.684578,0.207615,0.273649,0.634315,0.103441,-0.558364,0.517148,0.520338,;-0.065275,0.455949,0.993150,0.667183,0.491356,0.675693,-0.042859,0.456935,-0.057435,0.029176,;0.763881,0.328484,0.833794,0.186849,0.255550,0.601894,0.518554,-0.113429,0.026140,-0.162137,;-0.078870,-0.038859,0.636091,0.006107,0.512558,0.292242,0.701951,0.580557,0.747016,0.246413,;0.099039,-0.043561,0.410873,0.276519,0.593790,0.495318,0.563439,-0.121119,0.468412,0.645125,;1.011566,0.679596,-0.155178,0.498640,-0.030150,0.183495,0.317295,0.722340,0.063018,0.198495,;0.032668,0.011888,0.273678,-0.079957,0.166934,0.510665,0.870656,0.141050,0.869555,0.737361,;0.599295,0.088760,-0.103108,0.227382,0.470475,0.671326,0.483923,0.483855,0.416799,0.531971,;0.844844,0.512161,0.299746,0.586712,0.023797,0.223898,0.660899,0.207993,0.338117,0.311547,;0.227197,0.342012,0.707822,-0.102959,0.631587,0.557787,0.013178,-0.439312,0.353483,-0.192380,;0.496184,0.220900,0.689471,0.366860,0.347004,-0.217907,-0.201519,0.888291,-0.188705,0.302395,;0.545785,0.505414,0.848239,0.529036,0.128079,0.663573,0.691955,-0.164954,-0.029114,0.314916,;0.608851,0.611550,0.333667,0.707824,0.519767,0.266359,0.049996,0.320737,0.167942,0.730166,;,0.514508,0.604889,0.321237,0.416802,0.218429,0.438868,0.787414,0.622182,0.365320,0.385514,0.713210,0.856864,0.043399,
-0.367929,-0.101327,0.300543,-0.264169,-0.287655,0.308293,0.430361,;0.016999,0.969475,0.837956,0.596904,-0.289465,0.047263,0.000333,;0.231807,0.614553,0.579309,0.066570,0.793646,0.290622,0.740986,;0.509692,0.213484,0.627446,0.020842,0.161349,0.603249,0.437034,;0.040665,0.376751,0.337103,0.446306,1.049662,-0.013910,0.682610,;0.258570,-0.476429,-0.101116,0.095343,-0.243688,0.520907,0.072917,;0.379214,0.165619,0.398295,-0.287704,-0.374037,0.599829,-0.187945,;0.057931,0.794225,0.574890,0.719123,0.882942,0.168943,0.620413,;0.422165,0.321003,0.018841,0.422962,0.496310,0.503412,0.381242,;0.532241,0.392759,0.198533,0.018001,0.056756,0.093062,0.498460,;,-0.894136,-0.039759,-0.453570,0.415231,-0.168522,-0.990614,-1.451773,-0.525956,-1.019978,0.174552,,-0.059580,-0.344296,0.390422,-0.229945,0.388320,0.348424,0.791891,0.451892,0.679299,-0.006410,;-0.216213,-0.101389,-0.068742,-0.022332,0.082667,0.210834,0.272348,-0.269749,-0.002614,0.643909,;0.672120,0.659846,-0.583685,0.072315,-0.808499,0.046210,0.254662,-0.478598,-0.414921,-0.161489,;0.031976,0.065766,0.327897,-0.252665,-0.054708,0.572077,0.974246,0.080339,0.812770,0.717345,;0.678389,-0.104530,-0.037753,0.086386,0.352664,0.867831,0.740152,0.001535,0.471984,0.213249,;0.943740,0.229040,-0.082857,0.318714,-0.374060,0.337004,0.819173,0.251873,0.186581,0.205032,;0.384293,-0.033182,0.446414,-0.297297,0.452336,0.712100,0.209510,-0.102573,0.320829,-0.269239,;0.478171,0.674837,0.864626,0.516164,0.841686,-0.240980,-0.123288,1.107082,0.074456,0.326471,;0.832047,0.203899,0.565373,0.486688,0.056072,0.912622,0.950750,0.498089,0.058128,0.373884,;0.476369,0.127441,0.188651,0.586612,0.388189,0.237270,-0.043168,-0.075714,-0.039664,0.475222,;,0.249376,0.533872,0.324409,0.451607,0.264169,-0.178930,-0.417617,0.322630,-0.198536,0.629817,,0.409660,0.698582,0.713006,0.210253,0.280652,0.641316,0.110491,-0.626638,0.523393,0.502404,;-0.075651,0.454444,1.032608,0.667158,0.485718,0.675291,-0.047803,0.536946,-0.060866,0.039359,;0.773902,0.322120,0.836245,0.196612,0.266588,0.613004,0.529810,-0.123663,0.037456,-0.170645,;-0.066246,-0.047499,0.641984,0.020930,0.526922,0.307902,0.716705,0.594151,0.762650,0.240029,;0.110055,-0.050060,0.413875,0.287536,0.606068,0.507744,0.575931,-0.131698,0.481002,0.636367,;1.019395,0.666882,-0.193544,0.504840,-0.021657,0.191952,0.327534,0.772910,0.071409,0.194021,;0.053261,0.000413,0.232446,-0.064930,0.185579,0.527127,0.890032,0.150958,0.887859,0.726192,;0.591680,0.102082,-0.152061,0.212786,0.450584,0.647735,0.462624,0.533473,0.396079,0.559795,;0.838267,0.515556,0.324456,0.581559,0.020901,0.221522,0.657898,0.160313,0.334606,0.305090,;0.217366,0.351188,0.729013,-0.111522,0.624241,0.550377,0.005218,-0.492697,0.345176,-0.193664,;0.507608,0.199606,0.705165,0.382992,0.366384,-0.195041,-0.179791,0.922692,-0.168226,0.280415,;0.530677,0.518826,0.875353,0.515333,0.116209,0.651386,0.679117,-0.238192,-0.042164,0.314626,;0.601516,0.625248,0.299593,0.693440,0.502112,0.245015,0.030873,0.329368,0.149120,0.750964,;,0.506482,0.608146,0.309417,0.401062,0.205273,0.427962,0.768218,0.647276,0.367618,0.393131,0.688533,0.869491,0.065892,
-0.372237,-0.090614,0.288731,-0.259894,-0.298265,0.305759,0.430301,;-0.001121,1.044430,0.826489,0.612209,-0.316348,0.042370,-0.029721,;0.217581,0.635437,0.584388,0.079211,0.858877,0.291018,0.747026,;0.502146,0.228436,0.624316,0.030205,0.170454,0.603437,0.440424,;0.012925,0.387803,0.345444,0.454465,1.124541,-0.011596,0.694031,;0.262043,-0.509854,-0.105375,0.090494,-0.239239,0.520020,0.086267,;0.375580,0.152009,0.391467,-0.289431,-0.379974,0.597126,-0.186320,;0.046751,0.852006,0.578621,0.737932,0.935018,0.168751,0.615548,;0.416851,0.312185,0.020066,0.422844,0.517007,0.503002,0.388777,;0.516928,0.403925,0.194282,0.029179,0.068229,0.091706,0.499363,;,-0.895390,-0.049735,-0.436442,0.421632,-0.186658,-0.993538,-1.468397,-0.485734,-1.027791,0.160379,,-0.053587,-0.358142,0.394643,-0.238261,0.398735,0.356159,0.799089,0.458473,0.687288,-0.016657,;-0.205454,-0.101817,-0.075444,-0.036538,0.075931,0.223102,0.286414,-0.271231,0.005764,0.632370,;0.663322,0.704515,-0.637795,0.058903,-0.873414,0.038364,0.254635,-0.521823,-0.436404,-0.165444,;0.038128,0.081470,0.328382,-0.260059,-0.057477,0.575765,0.982689,0.086742,0.818317,0.714932,;0.682820,-0.101317,-0.038347,0.084273,0.348546,0.870868,0.743784,0.000331,0.474009,0.214189,;0.949402,0.216103,-0.086201,0.316761,-0.379658,0.343857,0.823206,0.243106,0.188503,0.204549,;0.387691,-0.062449,0.448009,-0.298590,0.457733,0.718519,0.211703,-0.109097,0.323337,-0.273496,;0.468706,0.757855,0.900422,0.514658,0.881885,-0.264755,-0.126024,1.175003,0.085113,0.334879,;0.834231,0.178401,0.566455,0.486737,0.062236,0.917447,0.950104,0.493076,0.059620,0.371117,;0.474715,0.094200,0.193879,0.589274,0.407254,0.239046,-0.050898,-0.074253,-0.038474,0.472285,;,0.238760,0.516983,0.328887,0.441989,0.260382,-0.183639,-0.421539,0.323809,-0.199501,0.634494,,0.397629,0.704762,0.746066,0.198794,0.272138,0.632815,0.101772,-0.692802,0.513492,0.493774,;-0.082078,0.447119,1.090069,0.671692,0.487342,0.682562,-0.045182,0.606241,-0.057298,0.038036,;0.779076,0.318805,0.840868,0.201706,0.272768,0.619269,0.536137,-0.137341,0.043722,-0.176525,;-0.061053,-0.051304,0.650049,0.028432,0.533953,0.316127,0.723999,0.605536,0.770382,0.237049,;0.097102,-0.042420,0.425413,0.275508,0.594021,0.495775,0.563532,-0.146877,0.468232,0.641151,;1.025368,0.652394,-0.236960,0.508574,-0.017639,0.196676,0.333863,0.825987,0.076850,0.191481,;0.049598,0.003788,0.190331,-0.074277,0.179401,0.518327,0.884279,0.160483,0.879169,0.729268,;0.600970,0.106645,-0.201202,0.215487,0.449843,0.643200,0.460331,0.572628,0.394996,0.576545,;0.853292,0.506958,0.337254,0.597274,0.039446,0.240541,0.676845,0.129861,0.353358,0.289601,;0.229395,0.347282,0.743998,-0.098908,0.639178,0.565453,0.020194,-0.543477,0.360119,-0.207171,;0.492615,0.192489,0.742358,0.373853,0.360114,-0.197368,-0.183919,0.935153,-0.174398,0.267471,;0.529878,0.524268,0.895831,0.515129,0.118759,0.653526,0.681204,-0.312894,-0.040687,0.306686,;0.622011,0.624207,0.248897,0.706309,0.512498,0.251458,0.039911,0.354866,0.159646,0.760539,;,0.514908,0.602717,0.302717,0.392979,0.217862,0.421073,0.775062,0.652578,0.347436,0.377102,0.690178,0.866738,0.059559,
-0.375405,-0.074780,0.281165,-0.251978,-0.303465,0.299460,0.431589,;-0.019960,1.141663,0.818573,0.630341,-0.348400,0.025700,-0.067836,;0.203850,0.646252,0.586303,0.085533,0.917680,0.289717,0.757924,;0.493224,0.242953,0.622150,0.039156,0.180835,0.604878,0.445868,;-0.014461,0.383827,0.349121,0.454521,1.192633,-0.006864,0.711381,;0.268028,-0.545864,-0.109034,0.089096,-0.229334,0.517964,0.103296,;0.374634,0.139242,0.384705,-0.286618,-0.383001,0.588702,-0.183160,;0.034172,0.908692,0.579242,0.751755,0.978309,0.164425,0.611590,;0.413216,0.297216,0.017956,0.422853,0.536330,0.499792,0.398943,;0.505479,0.411624,0.188007,0.043720,0.080050,0.088270,0.504878,;,-0.889144,-0.048331,-0.412766,0.424929,-0.200024,-0.989001,-1.474747,-0.438294,-1.029130,0.159687,,-0.050636,-0.377115,0.389766,-0.248360,0.404054,0.361272,0.802518,0.454765,0.688659,-0.027914,;-0.205290,-0.104004,-0.087349,-0.044582,0.070407,0.225474,0.287637,-0.277359,0.004449,0.625449,;0.645164,0.774497,-0.688899,0.050387,-0.932500,0.015585,0.244566,-0.551130,-0.466265,-0.163579,;0.035144,0.098557,0.323505,-0.262753,-0.061966,0.570012,0.980565,0.088971,0.814535,0.716025,;0.685048,-0.097237,-0.036230,0.084285,0.348963,0.872057,0.745056,0.003222,0.476707,0.216323,;0.949841,0.204478,-0.085636,0.319752,-0.378668,0.345894,0.821346,0.238997,0.189099,0.207681,;0.386741,-0.093951,0.449078,-0.296715,0.463849,0.720564,0.208786,-0.118698,0.321201,-0.275462,;0.449160,0.849744,0.923771,0.517996,0.909266,-0.302548,-0.142056,1.233210,0.077827,0.346859,;0.837830,0.151693,0.571892,0.486869,0.073057,0.924024,0.951219,0.491593,0.064245,0.368525,;0.480346,0.052728,0.207942,0.589767,0.434563,0.249788,-0.050799,-0.066392,-0.026797,0.467870,;,0.231263,0.513350,0.342675,0.443455,0.259022,-0.181858,-0.419641,0.339257,-0.202342,0.630550,,0.412201,0.695375,0.759647,0.212869,0.289712,0.650252,0.119810,-0.732749,0.530866,0.472911,;-0.102164,0.444270,1.156765,0.664098,0.475496,0.677520,-0.055858,0.698496,-0.066906,0.042007,;0.786302,0.315176,0.843568,0.208745,0.280958,0.627485,0.544524,-0.150571,0.052032,-0.183055,;-0.054697,-0.056389,0.660335,0.037260,0.542630,0.326197,0.733021,0.618360,0.779908,0.232815,;0.088931,-0.037299,0.436337,0.268140,0.586838,0.488829,0.556205,-0.161602,0.460596,0.642644,;1.019927,0.638492,-0.251577,0.505283,-0.015891,0.201806,0.339349,0.848361,0.079255,0.180465,;0.053632,0.002380,0.141005,-0.076039,0.181890,0.518659,0.887865,0.171930,0.880170,0.729602,;0.616415,0.112846,-0.270825,0.220413,0.449083,0.635923,0.456591,0.618702,0.393086,0.599972,;0.844767,0.512126,0.359127,0.590132,0.033970,0.235653,0.671377,0.091092,0.347247,0.286883,;0.230044,0.350947,0.758961,-0.097809,0.642036,0.568251,0.022921,-0.598210,0.362450,-0.212819,;0.493683,0.169390,0.796794,0.384060,0.377703,-0.172988,-0.162116,0.949304,-0.155742,0.232200,;0.519790,0.536552,0.912680,0.505398,0.110914,0.645137,0.672799,-0.389111,-0.049621,0.307144,;0.632011,0.635291,0.179555,0.704504,0.504624,0.236475,0.028737,0.379926,0.150496,0.787685,;,0.495790,0.610437,0.293895,0.382949,0.225185,0.412784,0.772101,0.661152,0.352391,0.373949,0.662852,0.875171,0.076174,
-0.385248,-0.064476,0.270169,-0.253147,-0.307538,0.299864,0.430273,;-0.057632,1.238033,0.811424,0.628483,-0.376518,0.021380,-0.097011,;0.184767,0.657720,0.588728,0.087139,0.970647,0.289338,0.766417,;0.481503,0.255675,0.619474,0.040648,0.191790,0.605539,0.448572,;-0.042185,0.381820,0.354018,0.452803,1.255489,-0.006251,0.724694,;0.275341,-0.582208,-0.115883,0.088739,-0.221568,0.520147,0.113560,;0.369711,0.124937,0.375537,-0.287333,-0.387951,0.588930,-0.182377,;0.008562,0.966155,0.581390,0.754393,1.017288,0.162923,0.609552,;0.406780,0.282198,0.014975,0.422542,0.551087,0.500638,0.406246,;0.485624,0.417933,0.180992,0.047482,0.088076,0.088864,0.506862,;,-0.903739,-0.088462,-0.402047,0.422211,-0.211839,-0.985913,-1.495487,-0.421178,-1.041647,0.136065,,-0.048291,-0.393109,0.386882,-0.254425,0.409072,0.366210,0.804905,0.451477,0.690721,-0.035963,;-0.195576,-0.107077,-0.096050,-0.056579,0.063586,0.236803,0.299025,-0.283334,0.010969,0.615972,;0.645603,0.832008,-0.722710,0.038674,-0.981762,0.010105,0.251293,-0.570474,-0.478142,-0.164853,;0.048226,0.111853,0.323259,-0.274216,-0.067157,0.580025,0.995856,0.093096,0.824505,0.710924,;0.695728,-0.096466,-0.034931,0.076821,0.346377,0.881817,0.756716,0.004282,0.485936,0.213225,;0.963200,0.190477,-0.086976,0.310822,-0.382434,0.361524,0.835726,0.232993,0.200463,0.202542,;0.383974,-0.124496,0.448537,-0.294693,0.469701,0.722872,0.205159,-0.127852,0.319833,-0.277572,;0.461182,0.935699,0.962304,0.507006,0.940413,-0.313638,-0.126816,1.300259,0.093262,0.349792,;0.832541,0.124265,0.571327,0.490515,0.079971,0.923308,0.943850,0.484680,0.061486,0.367563,;0.476871,0.006352,0.211613,0.591105,0.453174,0.252765,-0.058555,-0.070610,-0.025244,0.462371,;,0.226582,0.499647,0.338979,0.426388,0.246095,-0.198109,-0.416725,0.320765,-0.195493,0.635646,,0.386721,0.706925,0.787784,0.187807,0.265591,0.626033,0.095304,-0.778866,0.505242,0.473743,;-0.078901,0.421949,1.216168,0.698213,0.508805,0.715931,-0.021884,0.773166,-0.031058,0.020578,;0.788747,0.314739,0.846917,0.211121,0.284105,0.630598,0.547723,-0.164226,0.055076,-0.187095,;-0.054015,-0.058550,0.671033,0.040848,0.545101,0.329872,0.735443,0.638723,0.783003,0.232818,;0.075724,-0.029825,0.451513,0.255897,0.574712,0.476852,0.543791,-0.182645,0.447765,0.645237,;1.003138,0.632587,-0.278313,0.494191,-0.026284,0.192920,0.329726,0.893200,0.069319,0.187215,;0.034911,0.013103,0.077378,-0.101021,0.159658,0.493527,0.866152,0.197072,0.854994,0.747659,;0.657881,0.102719,-0.308489,0.251623,0.480210,0.663663,0.487651,0.621050,0.424174,0.593540,;0.843794,0.513646,0.375749,0.590338,0.035823,0.237870,0.673277,0.056324,0.348694,0.279999,;0.242326,0.349614,0.761909,-0.085405,0.656011,0.581965,0.036886,-0.636559,0.376308,-0.220871,;0.462581,0.166957,0.821156,0.362776,0.358626,-0.188391,-0.180178,1.003971,-0.175630,0.230506,;0.529309,0.539815,0.916362,0.514480,0.121933,0.655380,0.683556,-0.454288,-0.038903,0.299705,;0.663423,0.631505,0.137411,0.723329,0.521938,0.249746,0.045789,0.370148,0.167980,0.789229,;,0.520862,0.572450,0.290495,0.379862,0.237752,0.421141,0.796032,0.631743,0.349922,0.359364,0.678679,0.864065,0.061846,
-0.389499,-0.053644,0.262627,-0.248179,-0.309838,0.289461,0.424479,;-0.077358,1.351220,0.797855,0.647653,-0.407427,0.010709,-0.146844,;0.173549,0.665423,0.589654,0.088795,1.019992,0.287493,0.776203,;0.474924,0.266076,0.617114,0.046926,0.202270,0.603863,0.449205,;-0.062328,0.371137,0.357737,0.448201,1.314831,-0.004528,0.742916,;0.280465,-0.621464,-0.117004,0.085415,-0.211614,0.511242,0.127198,;0.368507,0.112712,0.371612,-0.286125,-0.390053,0.579612,-0.180654,;-0.002337,1.027543,0.579378,0.763558,1.050909,0.160673,0.602592,;0.404472,0.267237,0.015654,0.420086,0.566615,0.496930,0.418240,;0.476211,0.423923,0.177761,0.056793,0.097354,0.083041,0.509896,;,-0.907778,-0.094321,-0.383005,0.426885,-0.215987,-0.985903,-1.505510,-0.381049,-1.043716,0.133477,,-0.045664,-0.408943,0.386258,-0.259847,0.415765,0.371130,0.807486,0.449100,0.693855,-0.042785,;-0.191615,-0.108349,-0.103151,-0.063987,0.060746,0.242472,0.304018,-0.287052,0.014033,0.609932,;0.632437,0.908260,-0.762593,0.031443,-1.032177,-0.008317,0.246104,-0.581744,-0.498099,-0.163739,;0.047445,0.129654,0.321401,-0.275585,-0.071128,0.575846,0.995603,0.097077,0.822619,0.712944,;0.696112,-0.093706,-0.035473,0.076597,0.345024,0.880647,0.756317,0.004113,0.484956,0.214752,;0.968105,0.178868,-0.087965,0.308037,-0.382785,0.367445,0.840024,0.227732,0.203617,0.201667,;0.388063,-0.159186,0.448911,-0.298503,0.475692,0.731138,0.209076,-0.138469,0.323164,-0.283484,;0.444810,1.033452,0.985232,0.512064,0.960392,-0.348138,-0.139734,1.361439,0.087657,0.363314,;0.835122,0.093361,0.572377,0.487723,0.088552,0.929565,0.945017,0.477995,0.064072,0.362468,;0.480707,-0.047236,0.218350,0.587464,0.476329,0.262680,-0.058833,-0.075101,-0.019002,0.453833,;,0.221799,0.492680,0.347091,0.426300,0.246114,-0.203723,-0.422500,0.333948,-0.198750,0.631780,,0.386779,0.705709,0.795729,0.186747,0.266724,0.626749,0.096702,-0.811737,0.505643,0.465314,;-0.092908,0.414558,1.286859,0.695739,0.502409,0.714705,-0.028164,0.880447,-0.035691,0.018120,;0.788326,0.315488,0.851911,0.210685,0.284308,0.630808,0.547984,-0.179598,0.055119,-0.189382,;-0.054814,-0.060273,0.686380,0.042758,0.546419,0.332328,0.736759,0.656338,0.784694,0.231061,;0.074278,-0.027536,0.462837,0.255014,0.574788,0.477069,0.543842,-0.208623,0.447479,0.641435,;1.012669,0.616155,-0.298632,0.508995,-0.011217,0.209329,0.345450,0.908362,0.085608,0.176357,;0.043954,0.011569,0.008943,-0.101028,0.165136,0.496314,0.873230,0.204335,0.857749,0.748842,;0.666750,0.107125,-0.353894,0.251645,0.478985,0.659383,0.486141,0.642182,0.422824,0.609322,;0.836912,0.518716,0.392414,0.584428,0.031053,0.233375,0.668437,0.021743,0.343342,0.277776,;0.249015,0.350785,0.769288,-0.078475,0.664353,0.590182,0.045174,-0.678429,0.384379,-0.227216,;0.452647,0.154475,0.852751,0.360872,0.358780,-0.184823,-0.178780,1.041665,-0.175672,0.213429,;0.540643,0.542222,0.918796,0.524870,0.134723,0.667467,0.696280,-0.520644,-0.026654,0.291257,;0.662805,0.642662,0.094246,0.712205,0.509418,0.233777,0.032936,0.366134,0.155094,0.810109,;,0.519520,0.575730,0.290163,0.377799,0.237433,0.403150,0.790241,0.636015,0.354576,0.350631,0.674379,0.851004,0.078181,
-0.398141,-0.047637,0.254493,-0.247809,-0.317697,0.288943,0.420789,;-0.118239,1.468951,0.781060,0.648664,-0.450896,0.003636,-0.189605,;0.162183,0.683090,0.596623,0.083187,1.067365,0.286495,0.785003,;0.463297,0.275684,0.614892,0.048030,0.208531,0.604163,0.450123,;-0.078420,0.371696,0.368812,0.439433,1.374934,-0.003951,0.759783,;0.293195,-0.662579,-0.117299,0.085906,-0.202824,0.513616,0.140251,;0.369654,0.098019,0.368371,-0.285295,-0.394010,0.579795,-0.176594,;-0.023305,1.099852,0.582290,0.759358,1.079969,0.157748,0.597954,;0.407052,0.255053,0.019151,0.418107,0.582439,0.498205,0.430730,;0.465230,0.428732,0.175561,0.060195,0.102810,0.083631,0.516260,;,-0.917965,-0.127648,-0.354972,0.422528,-0.202550,-0.968172,-1.506575,-0.348227,-1.030641,0.135868,,-0.050600,-0.421856,0.388959,-0.257533,0.425378,0.368396,0.801351,0.449659,0.691472,-0.043937,;-0.193966,-0.114590,-0.110875,-0.065066,0.057719,0.242626,0.300766,-0.294580,0.011447,0.607405,;0.639724,0.974667,-0.804466,0.011234,-1.088275,-0.008252,0.259971,-0.600027,-0.504909,-0.171862,;0.045378,0.143436,0.318755,-0.274213,-0.076869,0.570792,0.992545,0.097561,0.818759,0.715756,;0.700582,-0.093372,-0.036556,0.074825,0.341465,0.884110,0.759928,0.001503,0.487150,0.214758,;0.971438,0.163841,-0.093078,0.306409,-0.387467,0.373554,0.842735,0.216566,0.205279,0.200383,;0.385381,-0.192922,0.446934,-0.297943,0.480118,0.734472,0.206738,-0.151029,0.321807,-0.286924,;0.445867,1.135498,1.012379,0.507955,0.976542,-0.372940,-0.137532,1.422771,0.088436,0.370858,;0.837036,0.063924,0.572120,0.485778,0.095037,0.936362,0.946381,0.469887,0.066792,0.357786,;0.481928,-0.103789,0.221031,0.586128,0.494813,0.272562,-0.061185,-0.085847,-0.014626,0.446125,;,0.227292,0.495461,0.333927,0.430025,0.242469,-0.206599,-0.420582,0.330439,-0.201260,0.631675,,0.386243,0.704903,0.806350,0.185393,0.267116,0.626761,0.097113,-0.843932,0.505306,0.457210,;-0.098887,0.405257,1.373917,0.701312,0.506370,0.723169,-0.024512,0.955893,-0.030640,0.001296,;0.791049,0.315088,0.853973,0.213234,0.287603,0.634064,0.551378,-0.194821,0.058338,-0.192637,;-0.050801,-0.064703,0.698111,0.049825,0.552469,0.339534,0.742759,0.677502,0.791503,0.227714,;0.065141,-0.021528,0.473834,0.246488,0.566563,0.468888,0.535456,-0.231874,0.438693,0.642537,;1.005635,0.604966,-0.330803,0.507122,-0.013968,0.208000,0.343343,0.944352,0.083608,0.178243,;0.049207,0.014156,-0.055381,-0.102926,0.169524,0.498397,0.879133,0.200022,0.859114,0.750204,;0.681974,0.109218,-0.390080,0.259052,0.484785,0.662214,0.491340,0.653772,0.429391,0.621351,;0.828812,0.524801,0.407890,0.577171,0.024789,0.227299,0.662098,-0.014176,0.336468,0.276686,;0.256889,0.352734,0.771891,-0.070595,0.673423,0.599019,0.054221,-0.716396,0.393197,-0.231577,;0.449049,0.138443,0.875196,0.364892,0.365371,-0.174939,-0.170918,1.091239,-0.169432,0.194016,;0.536428,0.552971,0.920278,0.519862,0.130771,0.662740,0.692083,-0.581154,-0.031570,0.293383,;0.667458,0.652396,0.056735,0.706861,0.502068,0.222840,0.024883,0.351973,0.148130,0.829181,;,0.519142,0.568825,0.286635,0.370940,0.245941,0.403423,0.785441,0.633430,0.360873,0.341270,0.663432,0.855574,0.089806,
-0.398730,-0.044676,0.247765,-0.244812,-0.322683,0.280907,0.417273,;-0.145700,1.596353,0.763662,0.671659,-0.485407,-0.015410,-0.263315,;0.137685,0.693572,0.598413,0.088173,1.109968,0.283076,0.787467,;0.453082,0.282783,0.613002,0.052992,0.216311,0.603600,0.452021,;-0.111021,0.362515,0.374211,0.439527,1.429095,-0.002516,0.774986,;0.309417,-0.708783,-0.116704,0.080531,-0.196126,0.510479,0.162741,;0.373444,0.079430,0.365943,-0.287566,-0.398368,0.572862,-0.172328,;-0.052489,1.171417,0.579986,0.775722,1.106935,0.150123,0.574396,;0.403934,0.236870,0.021570,0.415079,0.593635,0.495809,0.443725,;0.452032,0.425250,0.174032,0.063236,0.109282,0.080176,0.521540,;,-0.908248,-0.128028,-0.354801,0.421892,-0.223793,-0.941032,-1.502853,-0.328555,-1.032876,0.126893,,-0.046676,-0.437227,0.384962,-0.265745,0.428919,0.373832,0.805980,0.442662,0.692972,-0.052692,;-0.190796,-0.133430,-0.120144,-0.070917,0.052999,0.248970,0.303943,-0.310267,0.011469,0.600838,;0.622242,1.046183,-0.851930,0.004512,-1.146039,-0.032161,0.249293,-0.618551,-0.532374,-0.173607,;0.049031,0.153917,0.314336,-0.278887,-0.083127,0.571531,0.996690,0.095822,0.818882,0.713941,;0.696199,-0.096545,-0.039347,0.079214,0.338605,0.879827,0.753212,-0.002924,0.481829,0.218201,;0.966094,0.141061,-0.099249,0.312052,-0.391948,0.372090,0.834660,0.200772,0.198642,0.203741,;0.379421,-0.232096,0.440612,-0.296198,0.481182,0.734881,0.199950,-0.170425,0.315297,-0.289416,;0.444619,1.250738,1.027425,0.495960,0.988440,-0.398864,-0.133762,1.487464,0.088159,0.369444,;0.835468,0.032147,0.570589,0.486352,0.100653,0.939302,0.942763,0.459072,0.065016,0.355572,;0.492615,-0.172430,0.229731,0.581531,0.518436,0.291389,-0.055293,-0.098331,-0.003118,0.438231,;,0.220329,0.491086,0.347146,0.425188,0.250082,-0.197470,-0.413994,0.323136,-0.198439,0.622401,,0.405959,0.693780,0.802362,0.204203,0.288238,0.647655,0.118613,-0.847721,0.526618,0.442337,;-0.107079,0.397294,1.458713,0.704667,0.508095,0.729456,-0.023095,1.032621,-0.028020,-0.018377,;0.799367,0.312158,0.853283,0.221334,0.296725,0.643139,0.560663,-0.205711,0.067551,-0.197716,;-0.046729,-0.070320,0.709672,0.057076,0.558718,0.346953,0.748979,0.698644,0.798466,0.223088,;0.059711,-0.016275,0.486760,0.241784,0.562663,0.465162,0.531495,-0.261149,0.434240,0.641010,;1.011151,0.583789,-0.338777,0.522414,0.005167,0.230900,0.364148,0.944306,0.102606,0.155811,;0.042219,0.023132,-0.112434,-0.116037,0.163876,0.491270,0.875559,0.186146,0.849259,0.757443,;0.688817,0.118682,-0.444007,0.255150,0.477216,0.649961,0.482391,0.678778,0.422896,0.649251,;0.824817,0.529582,0.425495,0.574296,0.023539,0.226448,0.660948,-0.057993,0.334613,0.272382,;0.229370,0.371508,0.791109,-0.097767,0.646226,0.571613,0.026692,-0.781042,0.364596,-0.220615,;0.448152,0.113249,0.912088,0.376431,0.381948,-0.152733,-0.152106,1.153913,-0.153768,0.156897,;0.516626,0.573755,0.921252,0.498126,0.109827,0.640607,0.670815,-0.663174,-0.054217,0.307176,;0.673332,0.666911,0.000927,0.698787,0.490514,0.205835,0.012086,0.337549,0.137616,0.860039,;,0.496830,0.563749,0.276987,0.363640,0.249810,0.377404,0.790098,0.647209,0.361685,0.369903,0.638628,0.878379,0.108357,
-0.412309,-0.047422,0.241073,-0.252474,-0.332875,0.269278,0.409224,;-0.192937,1.717185,0.749588,0.668374,-0.519072,-0.027495,-0.336196,;0.116756,0.707341,0.600493,0.078660,1.140872,0.278616,0.790926,;0.439607,0.284835,0.610736,0.049203,0.220286,0.601485,0.454138,;-0.133397,0.357166,0.379089,0.427100,1.471203,-0.003799,0.793134,;0.321270,-0.753742,-0.117208,0.074735,-0.195576,0.499468,0.179125,;0.371803,0.062456,0.363701,-0.292762,-0.408068,0.562123,-0.171906,;-0.087127,1.242486,0.579041,0.769086,1.123164,0.144807,0.554013,;0.401700,0.222738,0.023766,0.409396,0.596764,0.489940,0.454269,;0.438893,0.420219,0.172502,0.057512,0.107809,0.072914,0.527959,;,-0.931152,-0.133801,-0.338458,0.417555,-0.215331,-0.939069,-1.517298,-0.300979,-1.038017,0.122811,,-0.048397,-0.442891,0.376999,-0.268416,0.425214,0.372943,0.804142,0.432871,0.687099,-0.057063,;-0.194044,-0.148758,-0.131374,-0.071293,0.045921,0.249055,0.299570,-0.327387,0.005188,0.598716,;0.624200,1.111692,-0.892557,-0.014083,-1.197972,-0.039858,0.257801,-0.633776,-0.545683,-0.185450,;0.052621,0.164008,0.307670,-0.283803,-0.092066,0.571174,1.000088,0.090582,0.816451,0.711762,;0.703638,-0.102740,-0.044003,0.073434,0.333501,0.886046,0.759863,-0.011075,0.484057,0.215367,;0.977141,0.121765,-0.105055,0.304205,-0.396689,0.385250,0.845969,0.186447,0.204975,0.199369,;0.384911,-0.262912,0.435675,-0.302960,0.481452,0.745430,0.207395,-0.186140,0.318555,-0.296413,;0.441847,1.355085,1.035206,0.486546,0.987825,-0.430522,-0.136386,1.534035,0.075189,0.365701,;0.839159,0.001838,0.565666,0.481297,0.102116,0.947074,0.946111,0.444948,0.066130,0.349900,;0.506976,-0.248859,0.227212,0.570750,0.530076,0.313788,-0.044826,-0.127343,0.006069,0.426621,;,0.221682,0.495395,0.338822,0.421101,0.242235,-0.210467,-0.422901,0.324119,-0.203292,0.608106,,0.389291,0.699667,0.813735,0.186851,0.271516,0.630734,0.101953,-0.865452,0.509026,0.443294,;-0.101650,0.384197,1.535356,0.719837,0.523921,0.749087,-0.007127,1.092078,-0.011320,-0.046740,;0.803804,0.310876,0.853645,0.225624,0.301743,0.648135,0.565795,-0.214775,0.072561,-0.200453,;-0.045913,-0.074458,0.725197,0.060971,0.562020,0.351272,0.752197,0.713987,0.802173,0.217376,;0.070283,-0.018971,0.489742,0.252801,0.575074,0.477692,0.544049,-0.279022,0.446662,0.634529,;0.993337,0.566395,-0.358916,0.519104,0.000202,0.229001,0.358786,0.979064,0.098369,0.149225,;0.045241,0.028256,-0.174131,-0.118170,0.170102,0.496556,0.884122,0.176127,0.851680,0.760378,;0.706094,0.124882,-0.474093,0.263649,0.485915,0.655603,0.490847,0.675183,0.432033,0.663023,;0.811658,0.539531,0.447820,0.562641,0.013099,0.216388,0.650431,-0.107973,0.323216,0.272452,;0.233498,0.376152,0.792513,-0.093426,0.651375,0.576483,0.031710,-0.818645,0.369319,-0.220310,;0.420639,0.100081,0.948598,0.361403,0.369739,-0.160305,-0.163075,1.205447,-0.167292,0.132443,;0.527060,0.579356,0.909107,0.507303,0.120390,0.650287,0.681322,-0.712526,-0.044214,0.309351,;0.679647,0.683831,-0.030782,0.691472,0.482862,0.194198,0.004358,0.291084,0.130136,0.884421,;,0.514202,0.544082,0.271681,0.359521,0.236649,0.378623,0.782098,0.641526,0.372250,0.364803,0.645564,0.868022,0.120484,
-0.422436,-0.049740,0.234568,-0.256621,-0.340398,0.257240,0.401780,;-0.235332,1.828705,0.738013,0.663172,-0.544792,-0.033898,-0.406906,;0.094542,0.732272,0.596596,0.074994,1.174215,0.271241,0.783929,;0.428784,0.287752,0.608281,0.047617,0.225316,0.598849,0.452790,;-0.157665,0.365272,0.376531,0.421591,1.514913,-0.009581,0.797806,;0.333471,-0.792131,-0.119681,0.074503,-0.194696,0.484767,0.195252,;0.369901,0.048741,0.358523,-0.293094,-0.415247,0.550345,-0.171269,;-0.124939,1.318706,0.572350,0.763056,1.143352,0.139064,0.521502,;0.397251,0.214791,0.020553,0.408184,0.601389,0.481582,0.461327,;0.425297,0.417868,0.166875,0.058648,0.110273,0.064488,0.529006,;,-0.943569,-0.123601,-0.317483,0.419346,-0.204303,-0.933159,-1.528922,-0.275462,-1.044986,0.119903,,-0.049470,-0.444109,0.371866,-0.273015,0.426384,0.372124,0.803260,0.430374,0.684632,-0.061395,;-0.198008,-0.164152,-0.140550,-0.072517,0.044486,0.249204,0.294699,-0.339270,0.001195,0.596215,;0.623232,1.160726,-0.927683,-0.025709,-1.242671,-0.047271,0.260813,-0.650290,-0.558770,-0.193696,;0.058619,0.174279,0.302723,-0.290920,-0.097878,0.573233,1.006269,0.088437,0.817760,0.708301,;0.709643,-0.108076,-0.049567,0.067640,0.327768,0.890873,0.765459,-0.019476,0.485388,0.212425,;0.984426,0.103301,-0.111271,0.298536,-0.400777,0.394533,0.853024,0.172468,0.208393,0.196407,;0.385795,-0.287743,0.433338,-0.305603,0.484456,0.750174,0.209110,-0.196726,0.318484,-0.299505,;0.436804,1.459018,1.042392,0.476799,0.988074,-0.463640,-0.141079,1.582949,0.061655,0.359440,;0.837589,-0.022384,0.560227,0.479544,0.102953,0.949146,0.943794,0.433185,0.062884,0.347047,;0.517372,-0.315489,0.223015,0.560278,0.542231,0.332118,-0.037371,-0.151621,0.013216,0.416187,;,0.221086,0.499445,0.336899,0.413549,0.235502,-0.218839,-0.425589,0.327048,-0.201901,0.596680,,0.364968,0.708725,0.823273,0.161460,0.245836,0.604681,0.076228,-0.872081,0.482334,0.446670,;-0.095232,0.374783,1.609761,0.734172,0.539542,0.767599,0.008278,1.143951,0.004677,-0.076654,;0.804628,0.311689,0.855393,0.226336,0.303053,0.649418,0.567188,-0.228297,0.073742,-0.200880,;-0.049462,-0.079431,0.739409,0.061005,0.560123,0.350398,0.750041,0.739674,0.800919,0.212160,;0.075329,-0.019751,0.493656,0.258405,0.581417,0.484147,0.550403,-0.289652,0.452912,0.631355,;0.974884,0.548257,-0.390186,0.512248,-0.009625,0.221269,0.347859,1.024290,0.089256,0.143978,;0.035431,0.040549,-0.229649,-0.132736,0.162391,0.488077,0.878483,0.165829,0.840364,0.772990,;0.727896,0.126172,-0.495115,0.279054,0.503124,0.670916,0.508536,0.667145,0.449390,0.670294,;0.806554,0.545685,0.463822,0.558766,0.010450,0.214036,0.647779,-0.148899,0.319952,0.270738,;0.237959,0.381840,0.790742,-0.089110,0.656785,0.581582,0.037106,-0.867470,0.374292,-0.216873,;0.393269,0.089143,0.970443,0.343923,0.353705,-0.173075,-0.178611,1.259181,-0.184673,0.109932,;0.539345,0.583841,0.882550,0.516918,0.130607,0.659346,0.691534,-0.749830,-0.034045,0.320218,;0.690324,0.694399,-0.048194,0.692563,0.485290,0.194258,0.007468,0.247876,0.132602,0.899710,;,0.541053,0.525525,0.270290,0.360849,0.229934,0.385911,0.788997,0.625461,0.374775,0.359466,0.657967,0.858433,0.120220,
-0.424307,-0.052807,0.228244,-0.255938,-0.346198,0.253260,0.393286,;-0.254450,1.948585,0.716780,0.656959,-0.583847,-0.037302,-0.504019,;0.076450,0.739707,0.598552,0.047249,1.199004,0.268247,0.781363,;0.424071,0.285013,0.606587,0.043938,0.228935,0.597928,0.452946,;-0.179929,0.349855,0.382284,0.387561,1.551037,-0.011870,0.814268,;0.345398,-0.832837,-0.118560,0.078668,-0.186170,0.480760,0.221441,;0.369332,0.036772,0.355515,-0.291362,-0.417828,0.547018,-0.166008,;-0.151939,1.383410,0.567412,0.733159,1.148659,0.136008,0.483224,;0.394483,0.202632,0.022130,0.401091,0.608741,0.479507,0.477434,;0.415025,0.410053,0.164264,0.053788,0.114753,0.062227,0.539345,;,-0.940817,-0.083846,-0.307134,0.429301,-0.207513,-0.922768,-1.537635,-0.252259,-1.049396,0.114466,,-0.039150,-0.446409,0.373822,-0.281259,0.430526,0.380619,0.814132,0.428828,0.691334,-0.066930,;-0.184316,-0.182534,-0.135408,-0.081019,0.055433,0.264811,0.308509,-0.341909,0.015137,0.591754,;0.612728,1.233239,-0.966247,-0.034066,-1.290997,-0.063634,0.256269,-0.654729,-0.575993,-0.200288,;0.059153,0.184190,0.303325,-0.291286,-0.098755,0.571196,1.006315,0.091513,0.817573,0.709824,;0.706320,-0.117154,-0.051753,0.070685,0.326722,0.888822,0.760197,-0.024365,0.481711,0.215171,;0.985043,0.082795,-0.112349,0.299272,-0.397554,0.399406,0.852827,0.165118,0.210095,0.197570,;0.389996,-0.312718,0.429627,-0.310783,0.486201,0.758832,0.215220,-0.209161,0.320962,-0.305436,;0.425880,1.557591,1.031912,0.469785,0.963114,-0.499662,-0.150314,1.606461,0.036995,0.352190,;0.839731,-0.048991,0.555684,0.476361,0.104690,0.955525,0.945590,0.420782,0.063067,0.342672,;0.524887,-0.401272,0.224774,0.557080,0.562285,0.351751,-0.034516,-0.178267,0.020862,0.410644,;,0.208381,0.482908,0.343289,0.413245,0.241079,-0.219128,-0.432628,0.337465,-0.204533,0.591193,,0.358997,0.710034,0.837342,0.155355,0.240711,0.599453,0.071065,-0.885072,0.476561,0.441965,;-0.107317,0.370441,1.667793,0.729160,0.532805,0.762994,0.000858,1.199455,-0.001774,-0.096810,;0.804554,0.313226,0.857655,0.226140,0.303401,0.649723,0.567586,-0.241637,0.073911,-0.200840,;-0.048564,-0.085886,0.758011,0.065541,0.563513,0.354828,0.753155,0.761363,0.804893,0.202219,;0.065906,-0.014007,0.502630,0.249606,0.572537,0.475320,0.541378,-0.301084,0.443570,0.633009,;0.982062,0.514752,-0.397327,0.540330,0.018186,0.253400,0.374348,1.022993,0.118590,0.111823,;0.029158,0.051061,-0.274429,-0.136917,0.166962,0.492786,0.884617,0.134923,0.840855,0.777986,;0.724626,0.145470,-0.545997,0.260261,0.482727,0.646259,0.488654,0.688649,0.428904,0.709186,;0.816384,0.545197,0.470640,0.569631,0.023119,0.226955,0.660551,-0.183088,0.332457,0.266376,;0.257066,0.379851,0.777967,-0.070491,0.677020,0.601518,0.057549,-0.898538,0.394587,-0.216416,;0.369347,0.073441,1.044727,0.341087,0.354124,-0.167062,-0.178570,1.250063,-0.185741,0.061857,;0.550047,0.587777,0.848398,0.524888,0.139160,0.666757,0.700245,-0.768037,-0.025677,0.332592,;0.696065,0.714298,-0.107040,0.678849,0.470202,0.174318,-0.006726,0.240564,0.117880,0.943042,;,0.546383,0.530941,0.269935,0.356623,0.239196,0.351693,0.782515,0.651227,0.361371,0.338601,0.651325,0.850442,0.140965,
-0.430599,-0.052645,0.224857,-0.258366,-0.354865,0.239020,0.388685,;-0.295313,2.064251,0.707056,0.650094,-0.601890,-0.060711,-0.561016,;0.060838,0.755665,0.597991,0.027687,1.223257,0.252251,0.777132,;0.413107,0.285100,0.605210,0.040710,0.232487,0.595495,0.453824,;-0.196400,0.345647,0.383451,0.365296,1.584352,-0.023748,0.821111,;0.363894,-0.867091,-0.118164,0.080701,-0.189028,0.468929,0.235373,;0.372902,0.027902,0.354246,-0.292059,-0.426040,0.533760,-0.165354,;-0.185504,1.449863,0.563816,0.710218,1.161717,0.114898,0.457094,;0.395037,0.193845,0.022494,0.393885,0.609041,0.468837,0.482949,;0.407100,0.405593,0.162969,0.047587,0.117385,0.054224,0.543021,;,-0.952870,-0.096514,-0.288465,0.418573,-0.195190,-0.898602,-1.536946,-0.245136,-1.046706,0.111316,,-0.043709,-0.446708,0.363970,-0.284010,0.424831,0.374576,0.808683,0.418803,0.680532,-0.069465,;-0.190851,-0.201645,-0.140988,-0.078228,0.055807,0.262990,0.300774,-0.354384,0.008807,0.592078,;0.616451,1.292454,-0.987659,-0.045530,-1.320746,-0.069398,0.263488,-0.651484,-0.581067,-0.205015,;0.057304,0.192617,0.299895,-0.291541,-0.104377,0.566268,1.003978,0.088667,0.812090,0.710425,;0.711478,-0.120481,-0.054949,0.066921,0.323366,0.893428,0.765247,-0.029497,0.483895,0.213697,;0.985574,0.067880,-0.118625,0.298639,-0.402394,0.402801,0.853114,0.152398,0.208482,0.197462,;0.381240,-0.333310,0.418766,-0.309195,0.479855,0.753659,0.206056,-0.227019,0.308604,-0.305870,;0.432422,1.654017,1.044248,0.453836,0.966016,-0.525254,-0.143439,1.652500,0.028810,0.345626,;0.840857,-0.065555,0.549186,0.472562,0.103723,0.959061,0.946481,0.410429,0.061240,0.339595,;0.536051,-0.471435,0.218902,0.548525,0.570690,0.373295,-0.025407,-0.208365,0.028995,0.402078,;,0.213129,0.490821,0.335321,0.415773,0.235391,-0.219408,-0.423143,0.326769,-0.206535,0.579680,,0.363654,0.703901,0.828853,0.158922,0.244732,0.603115,0.075261,-0.863767,0.480486,0.437233,;-0.100926,0.360944,1.716532,0.741564,0.544977,0.777175,0.012625,1.259993,0.011141,-0.121140,;0.797560,0.318328,0.863766,0.218948,0.296573,0.642847,0.560799,-0.260963,0.066687,-0.198730,;-0.044390,-0.094582,0.769579,0.073036,0.569781,0.361944,0.759168,0.780881,0.811796,0.191629,;0.056999,-0.007269,0.513481,0.241285,0.564437,0.467339,0.533222,-0.324764,0.434974,0.634496,;0.943067,0.500860,-0.413809,0.519063,-0.005005,0.234448,0.350139,1.055366,0.095324,0.098637,;0.007216,0.064245,-0.314501,-0.154629,0.155487,0.482763,0.874769,0.115227,0.825957,0.788816,;0.748093,0.150020,-0.569794,0.275421,0.499010,0.659777,0.505205,0.682071,0.445523,0.724181,;0.808030,0.552989,0.483524,0.562264,0.016572,0.220653,0.653991,-0.220432,0.325306,0.268972,;0.261385,0.384442,0.777803,-0.066036,0.682287,0.606620,0.062673,-0.932706,0.399563,-0.211490,;0.347658,0.054504,1.060375,0.335795,0.350732,-0.165456,-0.181552,1.304687,-0.190082,0.027084,;0.540532,0.602092,0.843146,0.514113,0.128741,0.655681,0.689655,-0.817346,-0.036984,0.347618,;0.709214,0.727398,-0.133520,0.679333,0.470853,0.171339,-0.005672,0.207322,0.118788,0.969726,;,0.542199,0.516682,0.277094,0.349444,0.247621,0.370343,0.791488,0.637447,0.368056,0.333385,0.648458,0.862086,0.144371,
-0.433776,-0.059998,0.219379,-0.261245,-0.361885,0.235755,0.379557,;-0.322805,2.161970,0.687904,0.653214,-0.617888,-0.065800,-0.632448,;0.044002,0.778357,0.594309,0.014003,1.242513,0.248015,0.769714,;0.405369,0.281930,0.602693,0.037218,0.237773,0.594909,0.451586,;-0.214230,0.351802,0.382760,0.347740,1.613578,-0.027120,0.827813,;0.382362,-0.901447,-0.116180,0.080252,-0.192573,0.465891,0.252772,;0.376928,0.017243,0.352803,-0.291413,-0.436146,0.530637,-0.162698,;-0.219235,1.516137,0.553236,0.696726,1.169040,0.109559,0.421769,;0.394471,0.190027,0.023249,0.388900,0.606464,0.465953,0.492441,;0.400645,0.398647,0.160785,0.045091,0.115466,0.052274,0.548572,;,-0.955770,-0.097910,-0.286684,0.413191,-0.197960,-0.863591,-1.530317,-0.263594,-1.045360,0.109987,,-0.038348,-0.435398,0.358607,-0.288724,0.419272,0.377333,0.813715,0.415009,0.680980,-0.071273,;-0.194626,-0.219921,-0.151941,-0.076328,0.050117,0.265120,0.295081,-0.373102,0.003877,0.592137,;0.615450,1.327698,-1.017197,-0.055209,-1.355490,-0.072970,0.266104,-0.664199,-0.588417,-0.213231,;0.056290,0.200352,0.296322,-0.290746,-0.110284,0.563587,1.002170,0.085025,0.808966,0.711888,;0.709056,-0.129970,-0.058392,0.068647,0.320217,0.892618,0.761754,-0.036889,0.480238,0.214569,;0.981512,0.047315,-0.128627,0.300431,-0.409756,0.403962,0.848042,0.134378,0.202564,0.197210,;0.376650,-0.352474,0.407952,-0.309548,0.472178,0.753384,0.201911,-0.245132,0.300356,-0.308869,;0.443127,1.747295,1.050128,0.435503,0.963036,-0.540880,-0.129230,1.693145,0.030196,0.335203,;0.838648,-0.084582,0.540983,0.471251,0.099971,0.960867,0.944083,0.397153,0.056449,0.336442,;0.548420,-0.548630,0.211585,0.539630,0.577314,0.396694,-0.015253,-0.243085,0.036587,0.392822,;,0.207351,0.496956,0.333299,0.418045,0.239404,-0.213531,-0.418332,0.309454,-0.204096,0.567515,,0.364710,0.699602,0.833213,0.159914,0.246095,0.604332,0.076475,-0.846202,0.481616,0.429230,;-0.107401,0.365717,1.767802,0.737876,0.541979,0.775359,0.009257,1.278118,0.007777,-0.134406,;0.794444,0.322267,0.866885,0.215567,0.293721,0.639931,0.558058,-0.278939,0.063543,-0.196203,;-0.048693,-0.102929,0.785379,0.072703,0.566834,0.359929,0.755778,0.807929,0.809605,0.178697,;0.061124,-0.006460,0.517771,0.245899,0.569826,0.472858,0.538572,-0.341271,0.440232,0.633388,;0.932354,0.469783,-0.418128,0.533064,0.005395,0.249112,0.357007,1.072713,0.106929,0.060071,;-0.011160,0.083503,-0.368476,-0.169594,0.148353,0.476017,0.869162,0.087142,0.814103,0.807715,;0.761191,0.158608,-0.595030,0.277959,0.502455,0.660614,0.509741,0.684750,0.449297,0.746721,;0.798192,0.562869,0.494127,0.553242,0.008221,0.212422,0.645617,-0.259531,0.316276,0.274792,;0.255954,0.392589,0.779133,-0.071597,0.677097,0.601220,0.057470,-0.965293,0.393868,-0.203392,;0.340186,0.032281,1.056689,0.340788,0.356579,-0.156377,-0.176151,1.361304,-0.184937,-0.005983,;0.535570,0.612724,0.835278,0.508582,0.123659,0.650067,0.684527,-0.856553,-0.042703,0.360448,;0.711078,0.745384,-0.152006,0.669273,0.461092,0.158698,-0.014312,0.175642,0.109193,1.001338,;,0.540725,0.519072,0.280117,0.351819,0.241952,0.354607,0.797403,0.636719,0.376833,0.339111,0.637974,0.868055,0.157863,
-0.440346,-0.067848,0.212042,-0.267309,-0.372347,0.231784,0.371557,;-0.361067,2.260786,0.658563,0.622779,-0.613999,-0.080372,-0.707681,;0.033784,0.793540,0.597927,-0.000876,1.270462,0.244063,0.764291,;0.396148,0.276694,0.600511,0.028810,0.238140,0.594186,0.449187,;-0.223579,0.348695,0.391859,0.332192,1.647192,-0.028427,0.836960,;0.401777,-0.936466,-0.112596,0.091035,-0.201617,0.466707,0.274030,;0.379275,0.007155,0.351181,-0.286157,-0.444551,0.528777,-0.157371,;-0.250220,1.576176,0.546663,0.668179,1.193045,0.100939,0.386532,;0.398654,0.184797,0.027275,0.392165,0.607170,0.465941,0.505744,;0.391282,0.390075,0.160145,0.043518,0.115214,0.051590,0.556712,;,-0.967598,-0.063377,-0.251754,0.405376,-0.169986,-0.844450,-1.529335,-0.234109,-1.031115,0.105854,,-0.047840,-0.429440,0.358667,-0.281899,0.423290,0.369062,0.801915,0.417220,0.672792,-0.066701,;-0.190129,-0.237247,-0.153196,-0.077900,0.056941,0.274627,0.298495,-0.380055,0.009591,0.591439,;0.618565,1.364662,-1.046049,-0.070543,-1.391125,-0.077177,0.272072,-0.675044,-0.595048,-0.224034,;0.051347,0.207282,0.297901,-0.286770,-0.108827,0.557609,0.995782,0.087819,0.804740,0.715364,;0.709718,-0.138697,-0.064309,0.068297,0.313935,0.895015,0.761535,-0.046770,0.478417,0.214621,;0.987384,0.031380,-0.136332,0.296282,-0.415128,0.413793,0.854381,0.120753,0.206192,0.194729,;0.374744,-0.369676,0.398523,-0.311033,0.466062,0.756641,0.201421,-0.260533,0.296537,-0.311775,;0.431981,1.822008,1.058462,0.428737,0.965275,-0.579428,-0.141797,1.728560,0.009721,0.327196,;0.842765,-0.101134,0.531386,0.466174,0.093684,0.968419,0.948706,0.382594,0.056711,0.331620,;0.570802,-0.620397,0.194902,0.525454,0.571440,0.430702,0.005844,-0.286748,0.049824,0.381886,;,0.219781,0.492360,0.326579,0.424918,0.240023,-0.220340,-0.417600,0.320820,-0.209204,0.544395,,0.365990,0.693706,0.838927,0.160993,0.248163,0.606368,0.078610,-0.829703,0.483574,0.421568,;-0.097979,0.360472,1.809669,0.750151,0.555498,0.790132,0.022513,1.304909,0.021537,-0.153688,;0.782543,0.330330,0.873732,0.203319,0.281667,0.627718,0.546098,-0.300541,0.050890,-0.191830,;-0.054018,-0.108238,0.804958,0.070978,0.563107,0.357101,0.751670,0.829800,0.806377,0.165127,;0.048279,0.001643,0.528927,0.233767,0.557360,0.460460,0.525996,-0.356827,0.427205,0.635260,;0.900255,0.445679,-0.488425,0.513288,-0.020743,0.225322,0.328804,1.132617,0.082028,0.041738,;-0.014305,0.096479,-0.397305,-0.169891,0.156450,0.485015,0.879054,0.044082,0.818737,0.817661,;0.772782,0.169851,-0.610604,0.284792,0.510764,0.666517,0.518152,0.673931,0.457408,0.768857,;0.796280,0.568343,0.501856,0.551913,0.007881,0.212203,0.645306,-0.290379,0.315517,0.278354,;0.265223,0.395045,0.774054,-0.062269,0.687308,0.611274,0.067596,-0.992456,0.403913,-0.196733,;0.309451,0.021608,1.064943,0.318110,0.333899,-0.175982,-0.198356,1.395677,-0.208530,-0.036374,;0.545399,0.616503,0.816024,0.517961,0.133474,0.659359,0.694187,-0.877494,-0.033022,0.372516,;0.716417,0.762138,-0.166902,0.667804,0.460217,0.155041,-0.015000,0.141646,0.108156,1.031221,;,0.538299,0.503941,0.292867,0.355035,0.255031,0.377780,0.787136,0.631221,0.377260,0.328802,0.657052,0.858504,0.162441,
-0.441886,-0.070697,0.206396,-0.270531,-0.375169,0.229709,0.361031,;-0.386334,2.363051,0.636122,0.589168,-0.642237,-0.082949,-0.788462,;0.017305,0.815807,0.600540,-0.018958,1.285798,0.241385,0.751914,;0.392460,0.274789,0.599243,0.025834,0.243998,0.593880,0.446451,;-0.238827,0.353317,0.399011,0.316640,1.673007,-0.030703,0.841064,;0.420402,-0.967744,-0.110441,0.102559,-0.196107,0.464255,0.294075,;0.380206,0.001189,0.348892,-0.283690,-0.450727,0.526516,-0.155283,;-0.282244,1.642425,0.540682,0.633961,1.187919,0.097517,0.340406,;0.396397,0.182712,0.029096,0.390754,0.605321,0.463634,0.514813,;0.384136,0.388024,0.158809,0.042726,0.115342,0.050123,0.562275,;,-0.966343,-0.050193,-0.250827,0.411611,-0.168332,-0.812490,-1.532382,-0.249349,-1.036623,0.101426,,-0.032673,-0.414333,0.355716,-0.292251,0.419704,0.378707,0.817724,0.417498,0.681329,-0.071071,;-0.190170,-0.251832,-0.154909,-0.077044,0.061374,0.279577,0.297312,-0.386934,0.011129,0.592618,;0.620896,1.395395,-1.074644,-0.082863,-1.427119,-0.079772,0.277500,-0.689452,-0.601258,-0.233459,;0.058011,0.220852,0.297604,-0.290673,-0.112349,0.559878,1.002702,0.089866,0.808320,0.715161,;0.706632,-0.146791,-0.067836,0.070213,0.310734,0.894017,0.757589,-0.054074,0.474684,0.215918,;0.980212,0.015687,-0.140674,0.300793,-0.416565,0.412381,0.846625,0.110376,0.200522,0.197015,;0.371864,-0.385650,0.394962,-0.311333,0.466487,0.758036,0.199878,-0.270202,0.292985,-0.314339,;0.442495,1.922245,1.054133,0.409859,0.943882,-0.601508,-0.128501,1.756456,0.001624,0.313018,;0.838627,-0.116888,0.527193,0.466548,0.094872,0.968520,0.944458,0.374525,0.052486,0.329390,;0.574594,-0.688285,0.195965,0.524219,0.588772,0.447396,0.007067,-0.307606,0.056070,0.379362,;,0.202091,0.493021,0.321483,0.417400,0.244509,-0.211706,-0.415887,0.306155,-0.204945,0.541457,,0.362388,0.689559,0.846765,0.156993,0.244332,0.602399,0.074603,-0.811235,0.479481,0.411040,;-0.104592,0.360966,1.853273,0.747287,0.552205,0.788146,0.018768,1.339016,0.018300,-0.171130,;0.792318,0.328511,0.868591,0.212619,0.292150,0.638184,0.556722,-0.311892,0.061488,-0.189740,;-0.043504,-0.116873,0.814799,0.083764,0.575638,0.370377,0.764025,0.838341,0.819554,0.154128,;0.051582,0.001950,0.530375,0.237542,0.561543,0.464717,0.530099,-0.364591,0.431323,0.635815,;0.893558,0.410297,-0.506796,0.530568,-0.006435,0.244632,0.339462,1.155073,0.097714,-0.009464,;-0.046245,0.115279,-0.456407,-0.200730,0.130182,0.459100,0.854501,0.035977,0.789103,0.840858,;0.776416,0.182013,-0.632655,0.280354,0.506477,0.659408,0.514615,0.671889,0.452924,0.795844,;0.807663,0.566908,0.501942,0.563741,0.021131,0.225698,0.658621,-0.311169,0.328853,0.279659,;0.251150,0.409768,0.777697,-0.076365,0.673313,0.596903,0.053605,-1.038707,0.388957,-0.182778,;0.291243,0.004029,1.083356,0.314888,0.331667,-0.173829,-0.201415,1.427480,-0.211406,-0.080776,;0.535357,0.631589,0.793444,0.505627,0.120875,0.645546,0.681790,-0.911499,-0.046503,0.396940,;0.726445,0.773163,-0.190533,0.668183,0.460961,0.152863,-0.013350,0.124392,0.109069,1.061506,;,0.542085,0.506403,0.281914,0.341344,0.250651,0.357071,0.813042,0.638822,0.363312,0.344078,0.654070,0.873003,0.164957,
-0.443747,-0.079268,0.196457,-0.269901,-0.379858,0.222694,0.349314,;-0.417433,2.447876,0.620527,0.600684,-0.660320,-0.097170,-0.855886,;0.004095,0.836636,0.602181,-0.020870,1.304377,0.231022,0.738137,;0.389275,0.271864,0.595170,0.025428,0.247020,0.592686,0.441829,;-0.249086,0.360339,0.403161,0.310966,1.699097,-0.039020,0.840148,;0.442414,-0.999848,-0.112209,0.104765,-0.193357,0.458736,0.309724,;0.382177,-0.009812,0.346406,-0.281099,-0.455023,0.520045,-0.153600,;-0.315739,1.699820,0.537129,0.631823,1.190684,0.082402,0.298236,;0.397900,0.179704,0.031948,0.391916,0.607784,0.457399,0.523069,;0.379611,0.378793,0.156395,0.045210,0.115952,0.045923,0.565549,;,-0.970231,-0.033050,-0.236419,0.415173,-0.152376,-0.779839,-1.535450,-0.255898,-1.032122,0.098038,,-0.026945,-0.407862,0.358635,-0.295623,0.424605,0.380943,0.823050,0.421140,0.684841,-0.071313,;-0.184000,-0.281156,-0.159981,-0.081010,0.063820,0.292439,0.303254,-0.404067,0.017203,0.590164,;0.625532,1.411372,-1.102716,-0.095800,-1.457783,-0.077014,0.284651,-0.707464,-0.604134,-0.242929,;0.057430,0.226532,0.296505,-0.290344,-0.113036,0.558348,1.001630,0.089604,0.807374,0.716389,;0.705806,-0.155712,-0.072496,0.069802,0.307185,0.895378,0.756385,-0.062229,0.472804,0.215663,;0.978905,-0.003870,-0.148365,0.299796,-0.420058,0.416775,0.845473,0.095453,0.198867,0.195543,;0.363761,-0.401546,0.386747,-0.310635,0.462858,0.754691,0.192429,-0.283980,0.283332,-0.316713,;0.445636,2.012609,1.050417,0.393063,0.935423,-0.626643,-0.123727,1.790985,-0.007063,0.300070,;0.837852,-0.130499,0.519226,0.463000,0.090915,0.970635,0.944175,0.362965,0.049092,0.325253,;0.575229,-0.758871,0.182479,0.520927,0.588510,0.463902,0.006322,-0.345022,0.055855,0.374361,;,0.195421,0.486018,0.313885,0.418383,0.245805,-0.210592,-0.408122,0.298367,-0.205163,0.541510,,0.377249,0.681013,0.846342,0.171626,0.260221,0.618421,0.090489,-0.800652,0.495707,0.404106,;-0.107748,0.367822,1.895151,0.746281,0.552460,0.789326,0.018642,1.354780,0.018035,-0.180970,;0.798557,0.329269,0.867917,0.218322,0.299016,0.645086,0.563728,-0.328612,0.068344,-0.187022,;-0.046591,-0.125489,0.827758,0.083503,0.573433,0.368911,0.761466,0.857117,0.817969,0.139577,;0.040373,0.008181,0.538109,0.226958,0.550708,0.453847,0.519150,-0.374329,0.419961,0.638000,;0.890850,0.375886,-0.549048,0.542164,0.001530,0.256958,0.344752,1.177603,0.107721,-0.048672,;-0.065982,0.130584,-0.506468,-0.216022,0.122258,0.452998,0.848749,0.013197,0.777348,0.856671,;0.787620,0.192135,-0.650964,0.284518,0.511546,0.661649,0.520402,0.668326,0.457745,0.820759,;0.798245,0.575215,0.513855,0.555002,0.012900,0.217609,0.650404,-0.342540,0.319997,0.284292,;0.250121,0.418428,0.772478,-0.077848,0.672808,0.596042,0.053298,-1.079585,0.387899,-0.167808,;0.286245,-0.019918,1.071676,0.319789,0.337507,-0.163704,-0.195577,1.480875,-0.205478,-0.119447,;0.525676,0.644455,0.766806,0.493790,0.108960,0.632279,0.670196,-0.936845,-0.059262,0.420902,;0.728780,0.788435,-0.193282,0.663706,0.456868,0.146167,-0.016893,0.092299,0.104633,1.087420,;,0.525153,0.505591,0.274739,0.342917,0.262088,0.343088,0.818255,0.636777,0.372022,0.345187,0.642207,0.886814,0.172510,
-0.455294,-0.083455,0.193914,-0.271783,-0.389561,0.220808,0.339858,;-0.451552,2.533057,0.587478,0.586282,-0.672157,-0.100317,-0.933648,;-0.009860,0.850825,0.598662,-0.049387,1.318200,0.228338,0.726426,;0.379696,0.266793,0.594693,0.019649,0.244199,0.592410,0.440049,;-0.260174,0.357174,0.405070,0.279690,1.717746,-0.041230,0.847237,;0.455246,-1.027575,-0.103515,0.112625,-0.194497,0.456857,0.331936,;0.381421,-0.014830,0.346739,-0.277114,-0.459346,0.518145,-0.149687,;-0.348466,1.750722,0.519975,0.594787,1.192258,0.078635,0.250926,;0.400986,0.177177,0.033855,0.387135,0.608949,0.455419,0.533237,;0.372692,0.371512,0.157520,0.042075,0.113740,0.044711,0.575701,;,-0.999311,0.005915,-0.228663,0.399174,-0.148219,-0.779340,-1.541570,-0.252137,-1.024005,0.093234,,-0.037829,-0.404156,0.358792,-0.287961,0.427575,0.371811,0.809613,0.419396,0.674033,-0.066014,;-0.183145,-0.302029,-0.159182,-0.078699,0.072310,0.299488,0.302434,-0.412439,0.019710,0.592553,;0.628775,1.446067,-1.124014,-0.106473,-1.482826,-0.079233,0.290089,-0.708427,-0.606103,-0.251125,;0.050127,0.231795,0.298920,-0.284580,-0.110546,0.551044,0.992856,0.090877,0.801073,0.720857,;0.709921,-0.163888,-0.074079,0.068195,0.306211,0.900230,0.760042,-0.067799,0.474900,0.215747,;0.988956,-0.013230,-0.149050,0.293881,-0.418215,0.427651,0.856811,0.091307,0.207594,0.192798,;0.376612,-0.406262,0.384110,-0.320912,0.460810,0.765705,0.208630,-0.288793,0.291712,-0.324135,;0.446714,2.088782,1.041380,0.377337,0.916245,-0.653693,-0.122427,1.808901,-0.023016,0.284761,;0.849446,-0.135422,0.514673,0.453628,0.088343,0.980740,0.957342,0.358138,0.055980,0.318447,;0.598879,-0.822792,0.173075,0.510222,0.588047,0.497346,0.028631,-0.380080,0.071483,0.368874,;,0.209821,0.486354,0.307876,0.427902,0.241847,-0.223228,-0.425785,0.296011,-0.219799,0.517252,,0.355292,0.681986,0.867048,0.150199,0.237705,0.595810,0.067629,-0.772613,0.472497,0.387368,;-0.095283,0.362547,1.916931,0.760596,0.567804,0.805657,0.033791,1.375964,0.033944,-0.191934,;0.790867,0.335762,0.872803,0.210376,0.291497,0.637394,0.556287,-0.349596,0.060311,-0.182998,;-0.045017,-0.134481,0.837476,0.087730,0.576153,0.372361,0.763984,0.872786,0.821364,0.127101,;0.039585,0.009525,0.542123,0.226875,0.550615,0.453839,0.518872,-0.377797,0.419727,0.636800,;0.877077,0.340870,-0.597068,0.542739,-0.003633,0.256250,0.336873,1.221924,0.104676,-0.099265,;-0.043060,0.120767,-0.526165,-0.186509,0.159189,0.493449,0.886481,-0.008145,0.813756,0.851166,;0.782030,0.216259,-0.681023,0.272458,0.501186,0.647275,0.510966,0.654657,0.445577,0.862415,;0.795722,0.580084,0.518455,0.553005,0.011839,0.216678,0.649401,-0.368341,0.318597,0.290180,;0.276370,0.413710,0.752196,-0.052302,0.700220,0.623438,0.080871,-1.096333,0.415829,-0.155288,;0.260207,-0.033109,1.095301,0.304313,0.322065,-0.174901,-0.211489,1.493807,-0.221276,-0.162308,;0.536973,0.646348,0.730345,0.503748,0.118860,0.641305,0.680117,-0.941641,-0.049321,0.438572,;0.721038,0.811430,-0.214685,0.649825,0.443971,0.129786,-0.029040,0.060062,0.090338,1.127317,;,0.548411,0.488729,0.282813,0.339392,0.262147,0.342570,0.775559,0.652165,0.373221,0.316752,0.653136,0.877303,0.190137,
-0.456923,-0.086329,0.186997,-0.267067,-0.396728,0.215404,0.331493,;-0.492774,2.615718,0.564174,0.600567,-0.666388,-0.097882,-0.996096,;-0.018875,0.862400,0.593736,-0.057543,1.335007,0.222326,0.712824,;0.379641,0.262912,0.592312,0.020092,0.247065,0.591049,0.437238,;-0.264981,0.350807,0.403789,0.264481,1.738512,-0.048392,0.847224,;0.475028,-1.055364,-0.102028,0.115069,-0.204756,0.447502,0.349867,;0.378679,-0.019373,0.343900,-0.274045,-0.471576,0.512841,-0.146395,;-0.377761,1.801164,0.505945,0.590340,1.200579,0.074678,0.207991,;0.396610,0.173485,0.032938,0.382522,0.599713,0.449954,0.541598,;0.363899,0.364953,0.155150,0.041478,0.105758,0.040740,0.582402,;,-0.996910,-0.000977,-0.208590,0.411270,-0.126540,-0.750707,-1.552945,-0.251554,-1.037612,0.078906,,-0.017053,-0.389521,0.352080,-0.301567,0.419889,0.384865,0.830443,0.415282,0.685626,-0.070202,;-0.169844,-0.320696,-0.166725,-0.086329,0.069296,0.315618,0.315195,-0.428929,0.028838,0.590168,;0.633438,1.472301,-1.135505,-0.114210,-1.499154,-0.080067,0.296413,-0.702696,-0.603548,-0.255059,;0.060231,0.243005,0.299974,-0.290066,-0.111256,0.555996,1.003040,0.093908,0.808147,0.720467,;0.709076,-0.169510,-0.079298,0.068307,0.301345,0.901051,0.758455,-0.075919,0.472243,0.216580,;0.986881,-0.024236,-0.156651,0.293780,-0.423183,0.429829,0.854643,0.079018,0.204341,0.192283,;0.367899,-0.416026,0.374552,-0.319918,0.455090,0.761936,0.200727,-0.302038,0.281401,-0.326886,;0.451023,2.171871,1.044262,0.362365,0.915922,-0.676501,-0.116941,1.847074,-0.027758,0.272310,;0.841798,-0.142930,0.504506,0.454073,0.082291,0.977250,0.949560,0.346814,0.046608,0.315803,;0.602543,-0.885051,0.152889,0.506125,0.578363,0.515199,0.029881,-0.424302,0.068901,0.365798,;,0.186726,0.472139,0.300766,0.416562,0.243632,-0.220845,-0.417226,0.287619,-0.211619,0.515704,,0.352763,0.677346,0.878372,0.148011,0.235595,0.593887,0.065360,-0.751427,0.470368,0.373122,;-0.089862,0.360671,1.937203,0.767374,0.574830,0.813398,0.040622,1.395514,0.041298,-0.199492,;0.797683,0.336522,0.871343,0.216681,0.298855,0.644802,0.563749,-0.362544,0.067701,-0.179437,;-0.051635,-0.142441,0.855532,0.084114,0.570388,0.367285,0.757804,0.895346,0.816006,0.109126,;0.036218,0.013762,0.549289,0.224052,0.548205,0.451525,0.516401,-0.395179,0.416993,0.638857,;0.870662,0.304754,-0.640297,0.553480,0.003202,0.267561,0.339999,1.251713,0.113154,-0.158457,;-0.083472,0.139661,-0.578199,-0.225325,0.125742,0.461159,0.855367,-0.020038,0.776881,0.869297,;0.795000,0.228774,-0.685086,0.284367,0.515247,0.659272,0.525171,0.627678,0.458992,0.885428,;0.798728,0.582125,0.523725,0.556460,0.016311,0.221400,0.653928,-0.389048,0.322953,0.293568,;0.267420,0.424996,0.754702,-0.061120,0.691736,0.614619,0.072397,-1.133705,0.406578,-0.141899,;0.241790,-0.049547,1.063301,0.293008,0.310971,-0.183286,-0.222482,1.551233,-0.232908,-0.193062,;0.532296,0.657921,0.709328,0.497016,0.112133,0.633413,0.673703,-0.973772,-0.056662,0.462040,;0.731649,0.822018,-0.212210,0.657859,0.453320,0.137368,-0.019395,0.026488,0.099504,1.148171,;,0.550083,0.480856,0.275128,0.344690,0.264710,0.329954,0.807928,0.640265,0.368503,0.326246,0.660557,0.885646,0.182790,
-0.462188,-0.090207,0.179532,-0.269678,-0.402051,0.212903,0.316179,;-0.535491,2.680710,0.529908,0.559291,-0.694065,-0.098933,-1.087000,;-0.030081,0.874777,0.589000,-0.065257,1.351954,0.224511,0.691670,;0.375854,0.258592,0.590056,0.018628,0.251593,0.591321,0.433423,;-0.270578,0.349820,0.403488,0.261206,1.766824,-0.044855,0.846930,;0.496726,-1.076282,-0.097812,0.131603,-0.198052,0.443490,0.370801,;0.380439,-0.022004,0.341010,-0.269611,-0.475582,0.510596,-0.144473,;-0.411564,1.842716,0.487453,0.561872,1.193498,0.077139,0.146379,;0.401216,0.174992,0.033272,0.387106,0.602292,0.449924,0.551774,;0.362389,0.360977,0.152900,0.045600,0.109941,0.041265,0.592798,;,-1.007247,0.013255,-0.187465,0.413503,-0.099827,-0.726191,-1.552955,-0.248502,-1.024277,0.088645,,-0.019739,-0.379953,0.354738,-0.298151,0.423927,0.381562,0.826065,0.418279,0.683214,-0.065774,;-0.175766,-0.341748,-0.162382,-0.079200,0.080972,0.318466,0.307378,-0.433745,0.029277,0.596819,;0.641857,1.488906,-1.159799,-0.128104,-1.530466,-0.078582,0.306275,-0.717760,-0.606678,-0.264453,;0.057665,0.250798,0.302113,-0.287184,-0.109872,0.552450,0.999501,0.095874,0.806126,0.724138,;0.703672,-0.178605,-0.079882,0.072227,0.302003,0.899364,0.752037,-0.081158,0.468129,0.219521,;0.986138,-0.030687,-0.160895,0.293001,-0.424324,0.432403,0.854614,0.072423,0.203715,0.191315,;0.375884,-0.412577,0.362962,-0.330603,0.445290,0.767912,0.212236,-0.311058,0.282562,-0.337198,;0.455972,2.247373,1.023829,0.341323,0.889251,-0.700411,-0.111405,1.853492,-0.047203,0.248845,;0.848539,-0.143603,0.496512,0.445387,0.077347,0.982497,0.958037,0.341281,0.048666,0.307775,;0.599873,-0.946760,0.157755,0.511663,0.596076,0.528534,0.024941,-0.441080,0.073694,0.370533,;,0.191188,0.480013,0.290458,0.420393,0.250674,-0.220978,-0.429764,0.280999,-0.221280,0.520164,,0.361717,0.665128,0.889863,0.156920,0.245295,0.604331,0.074968,-0.721115,0.480728,0.351600,;-0.089469,0.364334,1.961347,0.769083,0.577254,0.816569,0.042842,1.414485,0.043753,-0.204269,;0.801431,0.337609,0.870853,0.219966,0.303043,0.649051,0.568108,-0.373600,0.071895,-0.175753,;-0.042299,-0.153725,0.861798,0.095542,0.580867,0.378575,0.768123,0.904729,0.827343,0.097072,;0.033431,0.016569,0.557135,0.222130,0.546387,0.449884,0.514352,-0.403402,0.414949,0.638376,;0.862520,0.264461,-0.660916,0.570728,0.017963,0.289974,0.350655,1.264532,0.129566,-0.237915,;-0.091912,0.133380,-0.597694,-0.218480,0.140676,0.482542,0.871102,-0.035908,0.790579,0.849699,;0.786907,0.252896,-0.727157,0.264036,0.493595,0.631359,0.504598,0.625675,0.435721,0.934405,;0.801268,0.583928,0.530073,0.559533,0.020320,0.225810,0.657997,-0.407974,0.326932,0.296232,;0.258763,0.436828,0.747795,-0.069677,0.683345,0.605640,0.064086,-1.166231,0.397316,-0.124949,;0.223871,-0.068300,1.068545,0.293585,0.315047,-0.172740,-0.219049,1.556485,-0.229432,-0.243875,;0.526916,0.666320,0.693572,0.491193,0.105568,0.626274,0.667113,-0.986426,-0.063537,0.478201,;0.730304,0.839781,-0.240777,0.644253,0.438141,0.117147,-0.033535,0.016271,0.083720,1.190170,;,0.538685,0.477806,0.270724,0.332935,0.266530,0.306084,0.784776,0.669526,0.364072,0.335838,0.648880,0.893067,0.204065,
-0.465566,-0.094969,0.170249,-0.269934,-0.408747,0.209551,0.299628,;-0.562192,2.757803,0.528765,0.533670,-0.676422,-0.089451,-1.142953,;-0.044107,0.888303,0.582071,-0.077240,1.368992,0.222552,0.675238,;0.370418,0.255163,0.585405,0.017611,0.252594,0.590235,0.428950,;-0.282977,0.349015,0.395438,0.250842,1.784782,-0.049014,0.844504,;0.518410,-1.103039,-0.104074,0.146068,-0.207164,0.434871,0.377977,;0.383353,-0.028581,0.337365,-0.266299,-0.484162,0.507475,-0.147199,;-0.442105,1.889422,0.480204,0.534661,1.206008,0.079841,0.102329,;0.402173,0.171466,0.030754,0.387093,0.596753,0.446951,0.556488,;0.357988,0.351260,0.148078,0.044418,0.102427,0.038795,0.596589,;,-1.015153,0.034002,-0.195372,0.405497,-0.110710,-0.690681,-1.548937,-0.272511,-1.024614,0.082773,,-0.018821,-0.372326,0.348178,-0.298599,0.417935,0.382638,0.825936,0.411205,0.681022,-0.064506,;-0.177712,-0.365611,-0.177270,-0.079494,0.072031,0.326213,0.304111,-0.460258,0.025419,0.596242,;0.636999,1.499357,-1.175395,-0.128941,-1.550714,-0.082993,0.301992,-0.729038,-0.615282,-0.267087,;0.055607,0.253930,0.298765,-0.285475,-0.113717,0.550968,0.996774,0.089375,0.802516,0.725607,;0.703547,-0.184718,-0.084988,0.071165,0.297724,0.901039,0.751680,-0.089223,0.466415,0.219244,;0.983111,-0.039602,-0.170101,0.291875,-0.429849,0.434268,0.852058,0.059693,0.199706,0.188910,;0.369169,-0.413548,0.351027,-0.332715,0.436186,0.764642,0.207382,-0.321755,0.273254,-0.343319,;0.470302,2.316001,1.028342,0.323471,0.887186,-0.717169,-0.095233,1.882213,-0.047863,0.233148,;0.850246,-0.142818,0.488266,0.439171,0.072144,0.983685,0.960980,0.337072,0.047249,0.301271,;0.610605,-1.001006,0.127417,0.498187,0.575792,0.552525,0.035041,-0.487022,0.077371,0.362293,;,0.191498,0.483683,0.296194,0.423774,0.251075,-0.218276,-0.424503,0.262423,-0.225101,0.508475,,0.375085,0.647581,0.894077,0.170591,0.259061,0.618827,0.088490,-0.665635,0.495563,0.327313,;-0.090350,0.375351,1.981612,0.768325,0.578455,0.818261,0.043983,1.427974,0.044674,-0.201085,;0.791461,0.344346,0.875885,0.209991,0.293263,0.639006,0.558366,-0.388558,0.061508,-0.171736,;-0.038807,-0.168999,0.868271,0.101818,0.584472,0.382970,0.771541,0.918998,0.831938,0.079415,;0.024662,0.022914,0.568022,0.214429,0.538568,0.442057,0.506263,-0.418650,0.406537,0.639378,;0.850935,0.232811,-0.717071,0.574005,0.016568,0.293464,0.346464,1.296818,0.130668,-0.291974,;-0.105592,0.132768,-0.632404,-0.227124,0.137910,0.484355,0.870659,-0.039936,0.787297,0.845613,;0.796287,0.270636,-0.736692,0.269097,0.500891,0.634871,0.512217,0.596748,0.441196,0.965022,;0.786588,0.593495,0.545712,0.545743,0.006784,0.212326,0.644459,-0.438106,0.312615,0.300353,;0.254566,0.447216,0.738348,-0.074279,0.679490,0.601265,0.060409,-1.201548,0.392780,-0.107125,;0.220712,-0.092716,1.030016,0.299064,0.320735,-0.162834,-0.213064,1.609200,-0.222423,-0.277703,;0.521155,0.677557,0.683253,0.484997,0.099668,0.619728,0.661216,-1.016946,-0.070273,0.495188,;0.730855,0.854929,-0.223795,0.641765,0.437059,0.114108,-0.034411,-0.027335,0.081539,1.209662,;,0.523028,0.476390,0.281264,0.328239,0.274913,0.301729,0.781771,0.666300,0.378388,0.340570,0.637474,0.900049,0.207750,
-0.471263,-0.093811,0.167037,-0.270681,-0.415827,0.205701,0.290113,;-0.580468,2.828643,0.509131,0.502007,-0.685599,-0.074716,-1.184682,;-0.051410,0.890844,0.583904,-0.111238,1.379931,0.221119,0.670929,;0.371039,0.251622,0.584038,0.016202,0.254517,0.589039,0.427044,;-0.290312,0.333217,0.400035,0.216446,1.801600,-0.053627,0.852860,;0.521685,-1.124211,-0.099332,0.156679,-0.210745,0.422885,0.387123,;0.376379,-0.031416,0.337601,-0.265743,-0.492189,0.503252,-0.145265,;-0.458259,1.926028,0.474139,0.487519,1.204104,0.085535,0.077406,;0.395494,0.165372,0.033418,0.378517,0.592143,0.442373,0.565584,;0.349633,0.340245,0.148223,0.039204,0.098199,0.035305,0.606752,;,-1.027432,0.071830,-0.177490,0.417790,-0.099864,-0.706920,-1.574863,-0.251072,-1.047123,0.062940,,-0.005708,-0.369968,0.347577,-0.304336,0.417617,0.391162,0.838232,0.407811,0.689019,-0.063553,;-0.160984,-0.390441,-0.182554,-0.089086,0.073553,0.345524,0.321080,-0.473993,0.040176,0.593629,;0.635804,1.528000,-1.184913,-0.131735,-1.566574,-0.088170,0.301913,-0.720063,-0.616583,-0.267720,;0.068366,0.255643,0.301514,-0.291319,-0.112545,0.558250,1.009864,0.089831,0.812034,0.725406,;0.712417,-0.187291,-0.083683,0.066026,0.299047,0.906614,0.760861,-0.088438,0.473252,0.218530,;0.997366,-0.042303,-0.171851,0.281961,-0.429355,0.444677,0.867967,0.058271,0.210310,0.183825,;0.379275,-0.405819,0.345401,-0.342514,0.430045,0.768246,0.219840,-0.324592,0.275163,-0.351906,;0.469282,2.361991,1.026245,0.317967,0.877640,-0.739006,-0.098005,1.888761,-0.065115,0.225024,;0.845316,-0.137141,0.481037,0.438468,0.066874,0.979060,0.956262,0.332830,0.038924,0.297637,;0.612020,-1.054071,0.114412,0.495781,0.573593,0.567251,0.034808,-0.518645,0.077697,0.361468,;,0.177975,0.464518,0.296390,0.409502,0.240702,-0.236072,-0.437966,0.265789,-0.220087,0.507914,,0.325219,0.662245,0.930330,0.122628,0.209083,0.567981,0.037845,-0.653574,0.443407,0.311201,;-0.070090,0.374798,1.981179,0.787769,0.599785,0.840287,0.065507,1.441225,0.066760,-0.195297,;0.798457,0.344508,0.873119,0.216455,0.300748,0.646602,0.566002,-0.398892,0.069098,-0.167436,;-0.055132,-0.183796,0.886832,0.089386,0.567486,0.366660,0.754170,0.951993,0.815618,0.049751,;0.037134,0.018483,0.569251,0.227181,0.552124,0.456172,0.519785,-0.419980,0.420640,0.637760,;0.855835,0.202313,-0.759771,0.595420,0.036255,0.318222,0.363374,1.306893,0.152951,-0.344938,;-0.132276,0.135999,-0.674033,-0.242624,0.127623,0.478699,0.862075,-0.035091,0.776531,0.842828,;0.804063,0.288308,-0.755513,0.269997,0.503387,0.633154,0.515188,0.570956,0.441811,1.001346,;0.777901,0.601699,0.555055,0.537830,-0.000527,0.205140,0.637173,-0.467504,0.304772,0.307196,;0.288891,0.437814,0.718642,-0.040759,0.714658,0.637065,0.095745,-1.204017,0.429152,-0.099810,;0.188659,-0.098092,1.013035,0.278258,0.300487,-0.180035,-0.233245,1.627674,-0.243150,-0.301775,;0.547616,0.667774,0.659372,0.511429,0.126673,0.647464,0.688135,-1.008448,-0.041916,0.498738,;0.735564,0.868518,-0.219397,0.640225,0.436437,0.111148,-0.034545,-0.064923,0.079975,1.235509,;,0.575838,0.453613,0.273411,0.344938,0.260247,0.275745,0.786748,0.668278,0.386127,0.303377,0.654804,0.871032,0.211125,
-0.478110,-0.096314,0.159703,-0.273643,-0.425974,0.202195,0.279549,;-0.615306,2.895132,0.495790,0.501640,-0.709030,-0.055108,-1.229823,;-0.059131,0.890618,0.586086,-0.126674,1.405759,0.220595,0.673644,;0.364088,0.247833,0.580705,0.012290,0.256099,0.588020,0.427701,;-0.296438,0.317479,0.403803,0.195669,1.836543,-0.057937,0.870736,;0.537487,-1.147602,-0.099010,0.156145,-0.212234,0.409192,0.391194,;0.380933,-0.036003,0.337385,-0.264205,-0.497275,0.498784,-0.145883,;-0.472276,1.959205,0.471573,0.474748,1.213431,0.093972,0.060940,;0.402541,0.159174,0.037343,0.375241,0.597193,0.437263,0.575072,;0.351021,0.332294,0.148642,0.037632,0.102910,0.031844,0.618696,;,-1.044639,0.048462,-0.153204,0.409092,-0.073096,-0.685043,-1.564177,-0.220098,-1.023944,0.083051,,-0.020040,-0.374797,0.351267,-0.292584,0.425738,0.383295,0.821109,0.403048,0.677377,-0.055879,;-0.178162,-0.412803,-0.186053,-0.078162,0.076781,0.340603,0.301409,-0.489796,0.026827,0.598943,;0.650803,1.560524,-1.208045,-0.146494,-1.601477,-0.082670,0.319443,-0.722511,-0.609357,-0.274927,;0.059027,0.258339,0.304536,-0.283648,-0.108489,0.551912,0.999393,0.089196,0.805182,0.730405,;0.706308,-0.194526,-0.086711,0.069411,0.296908,0.904212,0.753909,-0.095898,0.467187,0.220775,;0.991407,-0.046764,-0.181760,0.282767,-0.437326,0.443233,0.862291,0.045519,0.202508,0.181869,;0.390853,-0.404969,0.331697,-0.355252,0.416280,0.775219,0.234070,-0.336558,0.276980,-0.363313,;0.475292,2.409763,1.030641,0.309775,0.880167,-0.753393,-0.093042,1.907563,-0.069335,0.217505,;0.856547,-0.137670,0.471214,0.426711,0.058682,0.985551,0.968833,0.325959,0.042520,0.288374,;0.624866,-1.112580,0.108687,0.486443,0.577123,0.586300,0.045866,-0.544198,0.086376,0.359140,;,0.196531,0.485760,0.278333,0.421056,0.248320,-0.229681,-0.453278,0.259683,-0.234191,0.494417,,0.331964,0.651530,0.948616,0.130062,0.217140,0.577193,0.045778,-0.617196,0.452270,0.285780,;-0.077202,0.377340,2.009940,0.782912,0.594089,0.835260,0.059523,1.471642,0.061108,-0.208308,;0.799657,0.347218,0.873575,0.217301,0.302416,0.648244,0.567823,-0.411438,0.070653,-0.161602,;-0.034663,-0.197652,0.884661,0.110815,0.589024,0.389070,0.775889,0.947602,0.838314,0.045441,;0.035059,0.020030,0.575602,0.225936,0.550900,0.455153,0.518434,-0.425320,0.419343,0.636493,;0.832263,0.184681,-0.823347,0.586368,0.024030,0.309420,0.349047,1.335158,0.142164,-0.393472,;-0.129799,0.128862,-0.666786,-0.226461,0.150819,0.509113,0.887079,-0.054224,0.801291,0.823839,;0.794561,0.314471,-0.791664,0.251597,0.485884,0.610159,0.498039,0.546563,0.421303,1.049392,;0.786363,0.600506,0.557811,0.546704,0.009550,0.215872,0.647439,-0.481514,0.315243,0.309775,;0.265655,0.455751,0.723457,-0.063415,0.691792,0.613380,0.072772,-1.246140,0.404806,-0.082867,;0.182098,-0.112006,1.005225,0.283750,0.307478,-0.169308,-0.226096,1.639627,-0.235360,-0.332488,;0.535777,0.676979,0.666091,0.501880,0.117027,0.638348,0.678302,-1.038213,-0.051983,0.506200,;0.736286,0.879206,-0.242591,0.632068,0.428054,0.099798,-0.042385,-0.072669,0.070747,1.265129,;,0.565970,0.459045,0.271754,0.321619,0.261395,0.284390,0.754906,0.692143,0.375109,0.328313,0.643361,0.880790,0.222707,
-0.480598,-0.098156,0.152510,-0.269578,-0.434037,0.197190,0.266778,;-0.606936,2.951289,0.485600,0.502849,-0.723552,-0.072341,-1.251865,;-0.072748,0.885671,0.581721,-0.149335,1.413775,0.214618,0.683485,;0.364312,0.243564,0.576982,0.013542,0.261892,0.587944,0.425863,;-0.314483,0.295780,0.400203,0.167730,1.852890,-0.060214,0.890614,;0.532643,-1.168811,-0.099672,0.158718,-0.221626,0.407880,0.386160,;0.373837,-0.039677,0.336021,-0.263801,-0.511589,0.494775,-0.146161,;-0.481795,1.986212,0.462070,0.452728,1.204685,0.080390,0.064124,;0.391239,0.152220,0.038020,0.366263,0.584764,0.434424,0.586504,;0.342190,0.324213,0.145856,0.034780,0.097279,0.031994,0.630078,;,-1.051013,0.118277,-0.154026,0.420022,-0.086040,-0.714929,-1.588245,-0.195332,-1.054993,0.069105,,-0.000356,-0.372993,0.345118,-0.301783,0.418769,0.397332,0.839472,0.391750,0.688710,-0.054612,;-0.167441,-0.425891,-0.193038,-0.084270,0.072417,0.352946,0.311764,-0.501933,0.035273,0.596884,;0.631358,1.583477,-1.220080,-0.138340,-1.621341,-0.098162,0.300629,-0.717996,-0.624730,-0.271505,;0.067410,0.263501,0.304108,-0.286658,-0.111038,0.556581,1.007437,0.086747,0.810529,0.732438,;0.710537,-0.198359,-0.089699,0.066599,0.294436,0.908518,0.758223,-0.100439,0.469716,0.220297,;0.999592,-0.045268,-0.190854,0.274520,-0.444832,0.449355,0.871729,0.038257,0.205797,0.176151,;0.405632,-0.397643,0.315821,-0.371642,0.401106,0.782497,0.251593,-0.347553,0.279751,-0.376794,;0.467249,2.439246,1.025581,0.307724,0.877591,-0.771759,-0.103664,1.907079,-0.088218,0.215867,;0.865409,-0.134317,0.459384,0.415203,0.049486,0.990036,0.979102,0.318457,0.043350,0.278065,;0.622833,-1.160505,0.101562,0.486540,0.579269,0.598266,0.042413,-0.566714,0.087265,0.357743,;,0.176874,0.474531,0.299226,0.412552,0.243626,-0.240089,-0.472347,0.269989,-0.245714,0.497870,,0.315378,0.653120,0.966110,0.114413,0.201541,0.562095,0.030236,-0.603878,0.436441,0.270291,;-0.079223,0.376488,2.021297,0.781287,0.591467,0.832921,0.056800,1.499830,0.058719,-0.215227,;0.800407,0.350265,0.872473,0.217693,0.303493,0.649257,0.568999,-0.423058,0.071563,-0.156897,;-0.019652,-0.206692,0.884389,0.126682,0.604923,0.405640,0.791982,0.943655,0.855073,0.043579,;0.032826,0.022338,0.585272,0.224702,0.549718,0.454298,0.517127,-0.432840,0.418074,0.634722,;0.840569,0.158534,-0.849975,0.615216,0.052774,0.344083,0.376542,1.330535,0.173631,-0.453806,;-0.159149,0.123842,-0.694329,-0.240620,0.141046,0.507026,0.880328,-0.033485,0.792765,0.801153,;0.794969,0.339462,-0.815627,0.246626,0.482536,0.600933,0.493501,0.498677,0.414390,1.092101,;0.785208,0.603947,0.563758,0.546201,0.009830,0.216602,0.647908,-0.501345,0.315489,0.313761,;0.281465,0.452896,0.723052,-0.047318,0.708730,0.630956,0.089774,-1.254157,0.422360,-0.078702,;0.145889,-0.113262,0.984120,0.260932,0.285668,-0.187601,-0.246883,1.640692,-0.257612,-0.355149,;0.544087,0.674815,0.674078,0.512018,0.127132,0.649913,0.688361,-1.042391,-0.041007,0.504240,;0.747662,0.885743,-0.245631,0.637200,0.433613,0.102720,-0.037277,-0.096204,0.075480,1.285929,;,0.581350,0.461481,0.270750,0.304430,0.262426,0.248403,0.756160,0.702263,0.374538,0.310243,0.661761,0.868962,0.219987,
